<?xml version="1.0"?>
<opencv_storage>
<stage13>
  <maxWeakCount>18</maxWeakCount>
  <stageThreshold>-1.0555020570755005e+00</stageThreshold>
  <weakClassifiers>
    <_>
      <internalNodes>
        0 -1 1366 2.4021182209253311e-02</internalNodes>
      <leafValues>
        -5.1136362552642822e-01 4.8868080275456713e-17</leafValues></_>
    <_>
      <internalNodes>
        0 -1 12621 2.2871211171150208e-02</internalNodes>
      <leafValues>
        -1.4085158705711365e-01 5.0839638710021973e-01</leafValues></_>
    <_>
      <internalNodes>
        0 -1 1026 2.4049170315265656e-02</internalNodes>
      <leafValues>
        -1.7540436983108521e-01 3.5472980141639709e-01</leafValues></_>
    <_>
      <internalNodes>
        0 -1 153954 -1.3782748952507973e-02</internalNodes>
      <leafValues>
        6.1472499370574951e-01 -1.0871773213148117e-01</leafValues></_>
    <_>
      <internalNodes>
        0 -1 156627 -7.8845387324690819e-03</internalNodes>
      <leafValues>
        2.7852648496627808e-01 -2.2446653246879578e-01</leafValues></_>
    <_>
      <internalNodes>
        0 -1 112167 -1.6075216699391603e-03</internalNodes>
      <leafValues>
        4.6332126855850220e-01 -1.3594631850719452e-01</leafValues></_>
    <_>
      <internalNodes>
        0 -1 23258 4.7068614512681961e-03</internalNodes>
      <leafValues>
        1.1776460707187653e-01 -5.7152605056762695e-01</leafValues></_>
    <_>
      <internalNodes>
        0 -1 111834 7.7579878270626068e-03</internalNodes>
      <leafValues>
        -1.3507445156574249e-01 4.5630291104316711e-01</leafValues></_>
    <_>
      <internalNodes>
        0 -1 154487 -2.4650193750858307e-02</internalNodes>
      <leafValues>
        4.7138887643814087e-01 -1.3048872351646423e-01</leafValues></_>
    <_>
      <internalNodes>
        0 -1 127997 1.5527142677456141e-03</internalNodes>
      <leafValues>
        1.3535936176776886e-01 -6.0547679662704468e-01</leafValues></_>
    <_>
      <internalNodes>
        0 -1 78382 6.7340768873691559e-03</internalNodes>
      <leafValues>
        7.4729256331920624e-02 -7.4063402414321899e-01</leafValues></_>
    <_>
      <internalNodes>
        0 -1 59586 5.9675485827028751e-03</internalNodes>
      <leafValues>
        -2.2409377992153168e-01 3.0550414323806763e-01</leafValues></_>
    <_>
      <internalNodes>
        0 -1 155256 8.2780036609619856e-04</internalNodes>
      <leafValues>
        -2.2119639813899994e-01 2.8774288296699524e-01</leafValues></_>
    <_>
      <internalNodes>
        0 -1 101953 -1.9315544515848160e-02</internalNodes>
      <leafValues>
        -5.4868650436401367e-01 1.3977821171283722e-01</leafValues></_>
    <_>
      <internalNodes>
        0 -1 118279 3.1026909127831459e-03</internalNodes>
      <leafValues>
        -2.2747606039047241e-01 3.4185838699340820e-01</leafValues></_>
    <_>
      <internalNodes>
        0 -1 117464 -3.6464193835854530e-03</internalNodes>
      <leafValues>
        3.9636248350143433e-01 -2.0913778245449066e-01</leafValues></_>
    <_>
      <internalNodes>
        0 -1 124345 2.1877299994230270e-02</internalNodes>
      <leafValues>
        8.8290862739086151e-02 -8.5440701246261597e-01</leafValues></_>
    <_>
      <internalNodes>
        0 -1 8221 3.1330611556768417e-02</internalNodes>
      <leafValues>
        -1.6839036345481873e-01 4.2172053456306458e-01</leafValues></_></weakClassifiers></stage13>
</opencv_storage>
