<?xml version="1.0"?>
<opencv_storage>
<stage4>
  <maxWeakCount>13</maxWeakCount>
  <stageThreshold>-8.8511073589324951e-01</stageThreshold>
  <weakClassifiers>
    <_>
      <internalNodes>
        0 -1 3258 3.4535810351371765e-02</internalNodes>
      <leafValues>
        -5.0755286216735840e-01 3.9285713434219360e-01</leafValues></_>
    <_>
      <internalNodes>
        0 -1 18743 -5.5343806743621826e-02</internalNodes>
      <leafValues>
        5.5728369951248169e-01 -2.4263828992843628e-01</leafValues></_>
    <_>
      <internalNodes>
        0 -1 119315 -9.0570896863937378e-03</internalNodes>
      <leafValues>
        7.5434696674346924e-01 -1.6227546334266663e-01</leafValues></_>
    <_>
      <internalNodes>
        0 -1 125075 -6.8855057470500469e-03</internalNodes>
      <leafValues>
        6.1657464504241943e-01 -1.3919821381568909e-01</leafValues></_>
    <_>
      <internalNodes>
        0 -1 70249 5.6204594671726227e-02</internalNodes>
      <leafValues>
        -1.8105088174343109e-01 5.8288204669952393e-01</leafValues></_>
    <_>
      <internalNodes>
        0 -1 36584 -9.3399614095687866e-02</internalNodes>
      <leafValues>
        6.4478963613510132e-01 -1.7986841499805450e-01</leafValues></_>
    <_>
      <internalNodes>
        0 -1 162269 -8.5697311442345381e-04</internalNodes>
      <leafValues>
        -7.0825254917144775e-01 1.7672407627105713e-01</leafValues></_>
    <_>
      <internalNodes>
        0 -1 69184 -4.3022215366363525e-02</internalNodes>
      <leafValues>
        7.2225707769393921e-01 -1.5768241882324219e-01</leafValues></_>
    <_>
      <internalNodes>
        0 -1 74081 -2.0431408658623695e-02</internalNodes>
      <leafValues>
        -6.0895717144012451e-01 2.1349228918552399e-01</leafValues></_>
    <_>
      <internalNodes>
        0 -1 153778 1.7413608729839325e-02</internalNodes>
      <leafValues>
        -1.5726390480995178e-01 8.6167681217193604e-01</leafValues></_>
    <_>
      <internalNodes>
        0 -1 162269 1.0797933209687471e-03</internalNodes>
      <leafValues>
        1.7878092825412750e-01 -7.5964593887329102e-01</leafValues></_>
    <_>
      <internalNodes>
        0 -1 159803 1.3294716365635395e-02</internalNodes>
      <leafValues>
        -1.7850294709205627e-01 7.5598394870758057e-01</leafValues></_>
    <_>
      <internalNodes>
        0 -1 123883 6.9625386968255043e-03</internalNodes>
      <leafValues>
        -1.9391615688800812e-01 5.7296907901763916e-01</leafValues></_></weakClassifiers></stage4>
</opencv_storage>
