<?xml version="1.0"?>
<opencv_storage>
<cascade>
  <stageType>BOOST</stageType>
  <featureType>HAAR</featureType>
  <height>20</height>
  <width>24</width>
  <stageParams>
    <boostType>GAB</boostType>
    <minHitRate>9.9500000476837158e-01</minHitRate>
    <maxFalseAlarm>5.0000000000000000e-01</maxFalseAlarm>
    <weightTrimRate>9.4999999999999996e-01</weightTrimRate>
    <maxDepth>1</maxDepth>
    <maxWeakCount>100</maxWeakCount></stageParams>
  <featureParams>
    <maxCatCount>0</maxCatCount>
    <featSize>1</featSize>
    <mode>BASIC</mode></featureParams>
  <stageNum>16</stageNum>
  <stages>
    <!-- stage 0 -->
    <_>
      <maxWeakCount>8</maxWeakCount>
      <stageThreshold>-1.0605437755584717e+00</stageThreshold>
      <weakClassifiers>
        <_>
          <internalNodes>
            0 -1 192 4.0464475750923157e-02</internalNodes>
          <leafValues>
            -4.7196653485298157e-01 8.3921569585800171e-01</leafValues></_>
        <_>
          <internalNodes>
            0 -1 103 -3.0320581048727036e-02</internalNodes>
          <leafValues>
            7.9673033952713013e-01 -2.5476974248886108e-01</leafValues></_>
        <_>
          <internalNodes>
            0 -1 191 1.9627874717116356e-02</internalNodes>
          <leafValues>
            -2.3526589572429657e-01 7.5575292110443115e-01</leafValues></_>
        <_>
          <internalNodes>
            0 -1 161 8.6836561560630798e-02</internalNodes>
          <leafValues>
            -2.2155775129795074e-01 7.5375431776046753e-01</leafValues></_>
        <_>
          <internalNodes>
            0 -1 77 6.0555458068847656e-02</internalNodes>
          <leafValues>
            -1.5386708080768585e-01 8.1439268589019775e-01</leafValues></_>
        <_>
          <internalNodes>
            0 -1 97 3.2370094209909439e-02</internalNodes>
          <leafValues>
            -2.1064074337482452e-01 7.9097104072570801e-01</leafValues></_>
        <_>
          <internalNodes>
            0 -1 324 6.5052974969148636e-03</internalNodes>
          <leafValues>
            -1.8992692232131958e-01 6.8213361501693726e-01</leafValues></_>
        <_>
          <internalNodes>
            0 -1 327 -7.1350736543536186e-03</internalNodes>
          <leafValues>
            7.9788452386856079e-01 -1.9460962712764740e-01</leafValues></_></weakClassifiers></_>
    <!-- stage 1 -->
    <_>
      <maxWeakCount>14</maxWeakCount>
      <stageThreshold>-1.5896203517913818e+00</stageThreshold>
      <weakClassifiers>
        <_>
          <internalNodes>
            0 -1 2 4.0060088038444519e-02</internalNodes>
          <leafValues>
            -4.5486110448837280e-01 5.8389264345169067e-01</leafValues></_>
        <_>
          <internalNodes>
            0 -1 71 6.1062265187501907e-02</internalNodes>
          <leafValues>
            -2.1527370810508728e-01 6.9700258970260620e-01</leafValues></_>
        <_>
          <internalNodes>
            0 -1 101 -5.8115877211093903e-02</internalNodes>
          <leafValues>
            6.7371821403503418e-01 -2.0050048828125000e-01</leafValues></_>
        <_>
          <internalNodes>
            0 -1 371 4.3244883418083191e-02</internalNodes>
          <leafValues>
            -1.2403186410665512e-01 7.7327340841293335e-01</leafValues></_>
        <_>
          <internalNodes>
            0 -1 373 -3.2131820917129517e-02</internalNodes>
          <leafValues>
            6.9836431741714478e-01 -1.5534561872482300e-01</leafValues></_>
        <_>
          <internalNodes>
            0 -1 138 9.0575795620679855e-03</internalNodes>
          <leafValues>
            -1.5378795564174652e-01 6.2142300605773926e-01</leafValues></_>
        <_>
          <internalNodes>
            0 -1 172 5.2899029105901718e-03</internalNodes>
          <leafValues>
            -1.9811102747917175e-01 6.6652494668960571e-01</leafValues></_>
        <_>
          <internalNodes>
            0 -1 155 3.7472724914550781e-02</internalNodes>
          <leafValues>
            -1.1863572150468826e-01 6.5310388803482056e-01</leafValues></_>
        <_>
          <internalNodes>
            0 -1 156 4.0861837565898895e-02</internalNodes>
          <leafValues>
            -1.6575022041797638e-01 6.6416573524475098e-01</leafValues></_>
        <_>
          <internalNodes>
            0 -1 76 -1.9448762759566307e-02</internalNodes>
          <leafValues>
            5.4463350772857666e-01 -1.5450049936771393e-01</leafValues></_>
        <_>
          <internalNodes>
            0 -1 270 2.3337867110967636e-02</internalNodes>
          <leafValues>
            -1.6985961794853210e-01 5.8641636371612549e-01</leafValues></_>
        <_>
          <internalNodes>
            0 -1 360 3.7788443267345428e-02</internalNodes>
          <leafValues>
            -1.2353268265724182e-01 7.3256945610046387e-01</leafValues></_>
        <_>
          <internalNodes>
            0 -1 36 -2.3830207064747810e-02</internalNodes>
          <leafValues>
            7.0425570011138916e-01 -1.0678730905056000e-01</leafValues></_>
        <_>
          <internalNodes>
            0 -1 18 1.7490568757057190e-01</internalNodes>
          <leafValues>
            -1.1327846348285675e-01 7.1963363885879517e-01</leafValues></_></weakClassifiers></_>
    <!-- stage 2 -->
    <_>
      <maxWeakCount>15</maxWeakCount>
      <stageThreshold>-1.2041587829589844e+00</stageThreshold>
      <weakClassifiers>
        <_>
          <internalNodes>
            0 -1 207 8.9850379154086113e-03</internalNodes>
          <leafValues>
            -4.0404859185218811e-01 6.9302326440811157e-01</leafValues></_>
        <_>
          <internalNodes>
            0 -1 207 -8.7404977530241013e-03</internalNodes>
          <leafValues>
            7.8400641679763794e-01 -2.2181928157806396e-01</leafValues></_>
        <_>
          <internalNodes>
            0 -1 10 1.9950415939092636e-02</internalNodes>
          <leafValues>
            -1.2446503341197968e-01 7.4252623319625854e-01</leafValues></_>
        <_>
          <internalNodes>
            0 -1 194 1.3985715806484222e-02</internalNodes>
          <leafValues>
            -1.7889393866062164e-01 6.2817746400833130e-01</leafValues></_>
        <_>
          <internalNodes>
            0 -1 250 -1.0766437277197838e-02</internalNodes>
          <leafValues>
            7.4316036701202393e-01 -1.3932493329048157e-01</leafValues></_>
        <_>
          <internalNodes>
            0 -1 245 9.4424812123179436e-03</internalNodes>
          <leafValues>
            -1.6392058134078979e-01 7.3015040159225464e-01</leafValues></_>
        <_>
          <internalNodes>
            0 -1 193 1.1708737351000309e-02</internalNodes>
          <leafValues>
            -1.3701494038105011e-01 6.2989997863769531e-01</leafValues></_>
        <_>
          <internalNodes>
            0 -1 310 7.4148015119135380e-03</internalNodes>
          <leafValues>
            -1.2798112630844116e-01 6.2085223197937012e-01</leafValues></_>
        <_>
          <internalNodes>
            0 -1 295 8.2877418026328087e-03</internalNodes>
          <leafValues>
            -1.4658392965793610e-01 6.3277953863143921e-01</leafValues></_>
        <_>
          <internalNodes>
            0 -1 325 3.8180649280548096e-03</internalNodes>
          <leafValues>
            -2.6703652739524841e-01 4.3734958767890930e-01</leafValues></_>
        <_>
          <internalNodes>
            0 -1 347 7.8528672456741333e-03</internalNodes>
          <leafValues>
            -1.3074824213981628e-01 6.5124112367630005e-01</leafValues></_>
        <_>
          <internalNodes>
            0 -1 216 7.8065190464258194e-03</internalNodes>
          <leafValues>
            -1.7307056486606598e-01 5.3725451231002808e-01</leafValues></_>
        <_>
          <internalNodes>
            0 -1 62 3.4672811627388000e-02</internalNodes>
          <leafValues>
            -1.3970236480236053e-01 5.4492926597595215e-01</leafValues></_>
        <_>
          <internalNodes>
            0 -1 79 7.1395032107830048e-02</internalNodes>
          <leafValues>
            -1.4316891133785248e-01 6.0961341857910156e-01</leafValues></_>
        <_>
          <internalNodes>
            0 -1 126 3.2626777887344360e-02</internalNodes>
          <leafValues>
            -1.0489574074745178e-01 5.8923405408859253e-01</leafValues></_></weakClassifiers></_>
    <!-- stage 3 -->
    <_>
      <maxWeakCount>14</maxWeakCount>
      <stageThreshold>-1.4227007627487183e+00</stageThreshold>
      <weakClassifiers>
        <_>
          <internalNodes>
            0 -1 234 -2.9002822935581207e-02</internalNodes>
          <leafValues>
            4.4070795178413391e-01 -4.0642398595809937e-01</leafValues></_>
        <_>
          <internalNodes>
            0 -1 223 6.7999631166458130e-02</internalNodes>
          <leafValues>
            1.2411552667617798e-01 -7.3508536815643311e-01</leafValues></_>
        <_>
          <internalNodes>
            0 -1 23 2.9138810932636261e-02</internalNodes>
          <leafValues>
            -1.9551537930965424e-01 5.2620297670364380e-01</leafValues></_>
        <_>
          <internalNodes>
            0 -1 159 -2.2287387400865555e-02</internalNodes>
          <leafValues>
            5.8492040634155273e-01 -1.5368814766407013e-01</leafValues></_>
        <_>
          <internalNodes>
            0 -1 129 -7.1555748581886292e-02</internalNodes>
          <leafValues>
            5.0660282373428345e-01 -1.6317445039749146e-01</leafValues></_>
        <_>
          <internalNodes>
            0 -1 176 2.7658328413963318e-02</internalNodes>
          <leafValues>
            -1.2374459207057953e-01 6.6734850406646729e-01</leafValues></_>
        <_>
          <internalNodes>
            0 -1 389 -4.0146563202142715e-02</internalNodes>
          <leafValues>
            4.4902220368385315e-01 -1.8018221855163574e-01</leafValues></_>
        <_>
          <internalNodes>
            0 -1 67 -1.0891470313072205e-01</internalNodes>
          <leafValues>
            5.2858924865722656e-01 -1.4081276953220367e-01</leafValues></_>
        <_>
          <internalNodes>
            0 -1 98 8.1108011305332184e-02</internalNodes>
          <leafValues>
            -1.5499302744865417e-01 4.9782639741897583e-01</leafValues></_>
        <_>
          <internalNodes>
            0 -1 272 3.0532468110322952e-02</internalNodes>
          <leafValues>
            -1.3423787057399750e-01 5.2084869146347046e-01</leafValues></_>
        <_>
          <internalNodes>
            0 -1 362 7.4447500519454479e-03</internalNodes>
          <leafValues>
            -9.7955055534839630e-02 5.7756733894348145e-01</leafValues></_>
        <_>
          <internalNodes>
            0 -1 13 2.1760705858469009e-02</internalNodes>
          <leafValues>
            -1.5384523570537567e-01 4.6976122260093689e-01</leafValues></_>
        <_>
          <internalNodes>
            0 -1 73 -1.1819334700703621e-02</internalNodes>
          <leafValues>
            4.2150688171386719e-01 -1.5783986449241638e-01</leafValues></_>
        <_>
          <internalNodes>
            0 -1 160 -3.7460334599018097e-02</internalNodes>
          <leafValues>
            4.5446953177452087e-01 -1.5380568802356720e-01</leafValues></_></weakClassifiers></_>
    <!-- stage 4 -->
    <_>
      <maxWeakCount>22</maxWeakCount>
      <stageThreshold>-1.2106631994247437e+00</stageThreshold>
      <weakClassifiers>
        <_>
          <internalNodes>
            0 -1 20 2.0574614405632019e-02</internalNodes>
          <leafValues>
            -3.5118353366851807e-01 6.3467490673065186e-01</leafValues></_>
        <_>
          <internalNodes>
            0 -1 279 8.8619757443666458e-03</internalNodes>
          <leafValues>
            -1.5206159651279449e-01 6.1471265554428101e-01</leafValues></_>
        <_>
          <internalNodes>
            0 -1 299 6.3849566504359245e-03</internalNodes>
          <leafValues>
            -1.6520242393016815e-01 6.6834574937820435e-01</leafValues></_>
        <_>
          <internalNodes>
            0 -1 312 6.5901074558496475e-03</internalNodes>
          <leafValues>
            -1.1928907781839371e-01 6.6991108655929565e-01</leafValues></_>
        <_>
          <internalNodes>
            0 -1 328 1.0722419247031212e-02</internalNodes>
          <leafValues>
            -1.3762889802455902e-01 5.6043761968612671e-01</leafValues></_>
        <_>
          <internalNodes>
            0 -1 88 9.5031678676605225e-02</internalNodes>
          <leafValues>
            -8.8990241289138794e-02 6.0042738914489746e-01</leafValues></_>
        <_>
          <internalNodes>
            0 -1 259 2.6167542673647404e-03</internalNodes>
          <leafValues>
            -1.3329336047172546e-01 5.5188953876495361e-01</leafValues></_>
        <_>
          <internalNodes>
            0 -1 86 -4.9769550561904907e-02</internalNodes>
          <leafValues>
            5.1459830999374390e-01 -1.2671159207820892e-01</leafValues></_>
        <_>
          <internalNodes>
            0 -1 396 -4.3181870132684708e-02</internalNodes>
          <leafValues>
            6.4617288112640381e-01 -1.0296113044023514e-01</leafValues></_>
        <_>
          <internalNodes>
            0 -1 154 5.5740147829055786e-02</internalNodes>
          <leafValues>
            1.1000728607177734e-01 -6.4571684598922729e-01</leafValues></_>
        <_>
          <internalNodes>
            0 -1 132 5.6447394192218781e-02</internalNodes>
          <leafValues>
            -1.0518278181552887e-01 5.7300877571105957e-01</leafValues></_>
        <_>
          <internalNodes>
            0 -1 286 -2.0607925951480865e-02</internalNodes>
          <leafValues>
            -5.6138169765472412e-01 1.1504058539867401e-01</leafValues></_>
        <_>
          <internalNodes>
            0 -1 144 -1.1803568340837955e-02</internalNodes>
          <leafValues>
            7.1219050884246826e-01 -1.0155216604471207e-01</leafValues></_>
        <_>
          <internalNodes>
            0 -1 135 1.3815514743328094e-02</internalNodes>
          <leafValues>
            -1.1598651856184006e-01 6.3015604019165039e-01</leafValues></_>
        <_>
          <internalNodes>
            0 -1 422 9.8941312171518803e-04</internalNodes>
          <leafValues>
            1.4479942619800568e-01 -4.8839563131332397e-01</leafValues></_>
        <_>
          <internalNodes>
            0 -1 421 -6.8422756157815456e-04</internalNodes>
          <leafValues>
            -5.0424259901046753e-01 1.5540172159671783e-01</leafValues></_>
        <_>
          <internalNodes>
            0 -1 70 2.5069791823625565e-02</internalNodes>
          <leafValues>
            -1.1538303643465042e-01 6.4274579286575317e-01</leafValues></_>
        <_>
          <internalNodes>
            0 -1 93 5.2417725324630737e-02</internalNodes>
          <leafValues>
            -9.3735225498676300e-02 5.3652620315551758e-01</leafValues></_>
        <_>
          <internalNodes>
            0 -1 110 -4.6603772789239883e-03</internalNodes>
          <leafValues>
            3.9202570915222168e-01 -1.6854470968246460e-01</leafValues></_>
        <_>
          <internalNodes>
            0 -1 33 3.1045854091644287e-02</internalNodes>
          <leafValues>
            -1.8007592856884003e-01 3.5380932688713074e-01</leafValues></_>
        <_>
          <internalNodes>
            0 -1 349 2.9119816608726978e-03</internalNodes>
          <leafValues>
            -1.2226174026727676e-01 5.3670859336853027e-01</leafValues></_>
        <_>
          <internalNodes>
            0 -1 418 -4.2423037812113762e-03</internalNodes>
          <leafValues>
            -5.5179131031036377e-01 1.1568032950162888e-01</leafValues></_></weakClassifiers></_>
    <!-- stage 5 -->
    <_>
      <maxWeakCount>25</maxWeakCount>
      <stageThreshold>-1.3601832389831543e+00</stageThreshold>
      <weakClassifiers>
        <_>
          <internalNodes>
            0 -1 28 3.9535287767648697e-02</internalNodes>
          <leafValues>
            -3.5809683799743652e-01 3.1349205970764160e-01</leafValues></_>
        <_>
          <internalNodes>
            0 -1 147 -5.3522881120443344e-02</internalNodes>
          <leafValues>
            4.7880998253822327e-01 -1.3371539115905762e-01</leafValues></_>
        <_>
          <internalNodes>
            0 -1 370 -5.8902658522129059e-02</internalNodes>
          <leafValues>
            3.5089445114135742e-01 -1.7181380093097687e-01</leafValues></_>
        <_>
          <internalNodes>
            0 -1 282 5.2914903499186039e-03</internalNodes>
          <leafValues>
            -1.0537458956241608e-01 5.0406473875045776e-01</leafValues></_>
        <_>
          <internalNodes>
            0 -1 281 -5.5932449176907539e-03</internalNodes>
          <leafValues>
            5.1545953750610352e-01 -1.2400293350219727e-01</leafValues></_>
        <_>
          <internalNodes>
            0 -1 128 1.1357503943145275e-02</internalNodes>
          <leafValues>
            -1.3365449011325836e-01 4.6024757623672485e-01</leafValues></_>
        <_>
          <internalNodes>
            0 -1 322 -1.5093354741111398e-03</internalNodes>
          <leafValues>
            -5.3375399112701416e-01 1.2850518524646759e-01</leafValues></_>
        <_>
          <internalNodes>
            0 -1 227 8.9117996394634247e-03</internalNodes>
          <leafValues>
            -1.0761091858148575e-01 4.7291821241378784e-01</leafValues></_>
        <_>
          <internalNodes>
            0 -1 227 -7.0853894576430321e-03</internalNodes>
          <leafValues>
            4.1063115000724792e-01 -1.7140771448612213e-01</leafValues></_>
        <_>
          <internalNodes>
            0 -1 198 3.8703538477420807e-02</internalNodes>
          <leafValues>
            -1.3286560773849487e-01 4.6849685907363892e-01</leafValues></_>
        <_>
          <internalNodes>
            0 -1 96 3.3670514822006226e-02</internalNodes>
          <leafValues>
            -1.2027985602617264e-01 4.5749077200889587e-01</leafValues></_>
        <_>
          <internalNodes>
            0 -1 112 1.6558280587196350e-01</internalNodes>
          <leafValues>
            -1.4448420703411102e-01 4.3913584947586060e-01</leafValues></_>
        <_>
          <internalNodes>
            0 -1 397 1.9910652190446854e-02</internalNodes>
          <leafValues>
            -8.8468283414840698e-02 5.5414062738418579e-01</leafValues></_>
        <_>
          <internalNodes>
            0 -1 303 4.2943581938743591e-02</internalNodes>
          <leafValues>
            -1.4984920620918274e-01 4.2181101441383362e-01</leafValues></_>
        <_>
          <internalNodes>
            0 -1 372 3.2182075083255768e-02</internalNodes>
          <leafValues>
            -1.2905532121658325e-01 4.4104766845703125e-01</leafValues></_>
        <_>
          <internalNodes>
            0 -1 288 2.6592505164444447e-03</internalNodes>
          <leafValues>
            8.0437690019607544e-02 -5.8708769083023071e-01</leafValues></_>
        <_>
          <internalNodes>
            0 -1 361 9.2075923457741737e-03</internalNodes>
          <leafValues>
            -1.4179526269435883e-01 3.7838131189346313e-01</leafValues></_>
        <_>
          <internalNodes>
            0 -1 264 5.1313955336809158e-03</internalNodes>
          <leafValues>
            7.6043099164962769e-02 -7.8076422214508057e-01</leafValues></_>
        <_>
          <internalNodes>
            0 -1 337 1.5419732779264450e-02</internalNodes>
          <leafValues>
            -1.3214255869388580e-01 4.2837730050086975e-01</leafValues></_>
        <_>
          <internalNodes>
            0 -1 162 -9.6683233976364136e-02</internalNodes>
          <leafValues>
            -8.2880759239196777e-01 8.2308933138847351e-02</leafValues></_>
        <_>
          <internalNodes>
            0 -1 40 7.6790631283074617e-04</internalNodes>
          <leafValues>
            1.0336093604564667e-01 -4.5488637685775757e-01</leafValues></_>
        <_>
          <internalNodes>
            0 -1 40 -8.3721987903118134e-04</internalNodes>
          <leafValues>
            -4.9185433983802795e-01 1.4621230959892273e-01</leafValues></_>
        <_>
          <internalNodes>
            0 -1 99 -1.2185742147266865e-02</internalNodes>
          <leafValues>
            5.1371991634368896e-01 -1.1963344365358353e-01</leafValues></_>
        <_>
          <internalNodes>
            0 -1 116 7.0041092112660408e-03</internalNodes>
          <leafValues>
            -1.1813073605298996e-01 4.0827411413192749e-01</leafValues></_>
        <_>
          <internalNodes>
            0 -1 376 1.5042183920741081e-02</internalNodes>
          <leafValues>
            -1.0958476364612579e-01 4.7064059972763062e-01</leafValues></_></weakClassifiers></_>
    <!-- stage 6 -->
    <_>
      <maxWeakCount>22</maxWeakCount>
      <stageThreshold>-1.1482707262039185e+00</stageThreshold>
      <weakClassifiers>
        <_>
          <internalNodes>
            0 -1 52 4.4446300307754427e-05</internalNodes>
          <leafValues>
            -4.8184615373611450e-01 6.5098039805889130e-02</leafValues></_>
        <_>
          <internalNodes>
            0 -1 53 1.7074886272894219e-05</internalNodes>
          <leafValues>
            -2.3751907050609589e-01 2.8654378652572632e-01</leafValues></_>
        <_>
          <internalNodes>
            0 -1 53 -1.7165468307211995e-05</internalNodes>
          <leafValues>
            3.2150948047637939e-01 -2.3444579541683197e-01</leafValues></_>
        <_>
          <internalNodes>
            0 -1 196 -5.5621853098273277e-03</internalNodes>
          <leafValues>
            -8.5621619224548340e-01 6.5007232129573822e-02</leafValues></_>
        <_>
          <internalNodes>
            0 -1 52 -1.6375935956602916e-05</internalNodes>
          <leafValues>
            3.1897667050361633e-01 -1.8297399580478668e-01</leafValues></_>
        <_>
          <internalNodes>
            0 -1 26 5.1273643970489502e-02</internalNodes>
          <leafValues>
            -1.7499820888042450e-01 4.0594944357872009e-01</leafValues></_>
        <_>
          <internalNodes>
            0 -1 54 -7.2001673281192780e-02</internalNodes>
          <leafValues>
            4.9061048030853271e-01 -1.1325525492429733e-01</leafValues></_>
        <_>
          <internalNodes>
            0 -1 108 1.5960833430290222e-01</internalNodes>
          <leafValues>
            -5.7884361594915390e-02 5.9164100885391235e-01</leafValues></_>
        <_>
          <internalNodes>
            0 -1 141 1.1275375261902809e-02</internalNodes>
          <leafValues>
            -9.9824786186218262e-02 4.9470403790473938e-01</leafValues></_>
        <_>
          <internalNodes>
            0 -1 137 -1.1522457934916019e-02</internalNodes>
          <leafValues>
            5.7094889879226685e-01 -1.3011431694030762e-01</leafValues></_>
        <_>
          <internalNodes>
            0 -1 152 -2.0537890493869781e-02</internalNodes>
          <leafValues>
            4.5859327912330627e-01 -1.2404443323612213e-01</leafValues></_>
        <_>
          <internalNodes>
            0 -1 262 3.4893231932073832e-03</internalNodes>
          <leafValues>
            1.0304396599531174e-01 -5.6801998615264893e-01</leafValues></_>
        <_>
          <internalNodes>
            0 -1 263 3.6085129977436736e-05</internalNodes>
          <leafValues>
            -2.1919494867324829e-01 2.5299072265625000e-01</leafValues></_>
        <_>
          <internalNodes>
            0 -1 278 6.0622710734605789e-03</internalNodes>
          <leafValues>
            -1.2576945126056671e-01 4.0432810783386230e-01</leafValues></_>
        <_>
          <internalNodes>
            0 -1 195 2.2190520539879799e-03</internalNodes>
          <leafValues>
            1.1077637225389481e-01 -5.1647990942001343e-01</leafValues></_>
        <_>
          <internalNodes>
            0 -1 276 -7.0253298617899418e-03</internalNodes>
          <leafValues>
            3.7847286462783813e-01 -1.4905677735805511e-01</leafValues></_>
        <_>
          <internalNodes>
            0 -1 136 -2.3338560014963150e-02</internalNodes>
          <leafValues>
            -5.3717732429504395e-01 1.1499401926994324e-01</leafValues></_>
        <_>
          <internalNodes>
            0 -1 266 -1.8092604586854577e-03</internalNodes>
          <leafValues>
            -6.1056643724441528e-01 6.8516910076141357e-02</leafValues></_>
        <_>
          <internalNodes>
            0 -1 271 3.0217366293072701e-02</internalNodes>
          <leafValues>
            -1.1431860178709030e-01 4.6044749021530151e-01</leafValues></_>
        <_>
          <internalNodes>
            0 -1 5 1.1730931699275970e-02</internalNodes>
          <leafValues>
            -2.1776036918163300e-01 2.1901783347129822e-01</leafValues></_>
        <_>
          <internalNodes>
            0 -1 37 -3.6401636898517609e-02</internalNodes>
          <leafValues>
            5.3480988740921021e-01 -1.0219313949346542e-01</leafValues></_>
        <_>
          <internalNodes>
            0 -1 209 2.3205611854791641e-02</internalNodes>
          <leafValues>
            1.0019130259752274e-01 -6.1160331964492798e-01</leafValues></_></weakClassifiers></_>
    <!-- stage 7 -->
    <_>
      <maxWeakCount>18</maxWeakCount>
      <stageThreshold>-1.3551744222640991e+00</stageThreshold>
      <weakClassifiers>
        <_>
          <internalNodes>
            0 -1 392 -2.4769559502601624e-02</internalNodes>
          <leafValues>
            2.5512528419494629e-01 -4.5697328448295593e-01</leafValues></_>
        <_>
          <internalNodes>
            0 -1 207 9.1108046472072601e-03</internalNodes>
          <leafValues>
            -1.8812032043933868e-01 5.6389492750167847e-01</leafValues></_>
        <_>
          <internalNodes>
            0 -1 210 -3.1297928653657436e-03</internalNodes>
          <leafValues>
            5.6945252418518066e-01 -2.5193884968757629e-01</leafValues></_>
        <_>
          <internalNodes>
            0 -1 402 8.9676417410373688e-03</internalNodes>
          <leafValues>
            -1.1962276697158813e-01 4.6820610761642456e-01</leafValues></_>
        <_>
          <internalNodes>
            0 -1 330 -7.5475927442312241e-03</internalNodes>
          <leafValues>
            3.4080135822296143e-01 -2.0829571783542633e-01</leafValues></_>
        <_>
          <internalNodes>
            0 -1 187 -1.7973948270082474e-03</internalNodes>
          <leafValues>
            4.8828160762786865e-01 -1.2950146198272705e-01</leafValues></_>
        <_>
          <internalNodes>
            0 -1 188 2.7769529260694981e-03</internalNodes>
          <leafValues>
            -1.9382219016551971e-01 4.8814535140991211e-01</leafValues></_>
        <_>
          <internalNodes>
            0 -1 140 3.4845904447138309e-03</internalNodes>
          <leafValues>
            -1.5084852278232574e-01 3.7926843762397766e-01</leafValues></_>
        <_>
          <internalNodes>
            0 -1 143 -3.8489131256937981e-03</internalNodes>
          <leafValues>
            4.2441871762275696e-01 -1.6638270020484924e-01</leafValues></_>
        <_>
          <internalNodes>
            0 -1 14 3.1351733952760696e-02</internalNodes>
          <leafValues>
            -1.4187844097614288e-01 3.7642329931259155e-01</leafValues></_>
        <_>
          <internalNodes>
            0 -1 75 -9.7162947058677673e-02</internalNodes>
          <leafValues>
            -8.7394618988037109e-01 9.4597622752189636e-02</leafValues></_>
        <_>
          <internalNodes>
            0 -1 165 -4.0207348763942719e-02</internalNodes>
          <leafValues>
            -6.9266480207443237e-01 6.9507189095020294e-02</leafValues></_>
        <_>
          <internalNodes>
            0 -1 125 -3.6300299689173698e-03</internalNodes>
          <leafValues>
            5.4847651720046997e-01 -1.4355470240116119e-01</leafValues></_>
        <_>
          <internalNodes>
            0 -1 416 3.0979514122009277e-03</internalNodes>
          <leafValues>
            1.1916648596525192e-01 -7.4072581529617310e-01</leafValues></_>
        <_>
          <internalNodes>
            0 -1 113 1.0763303376734257e-02</internalNodes>
          <leafValues>
            -1.9515758752822876e-01 3.8231194019317627e-01</leafValues></_>
        <_>
          <internalNodes>
            0 -1 72 -7.3047943413257599e-02</internalNodes>
          <leafValues>
            4.9737581610679626e-01 -7.3967523872852325e-02</leafValues></_>
        <_>
          <internalNodes>
            0 -1 256 -6.8305814638733864e-03</internalNodes>
          <leafValues>
            5.5101013183593750e-01 -1.1373583972454071e-01</leafValues></_>
        <_>
          <internalNodes>
            0 -1 255 1.3159802183508873e-03</internalNodes>
          <leafValues>
            -1.5306454896926880e-01 3.7042105197906494e-01</leafValues></_></weakClassifiers></_>
    <!-- stage 8 -->
    <_>
      <maxWeakCount>24</maxWeakCount>
      <stageThreshold>-1.2417489290237427e+00</stageThreshold>
      <weakClassifiers>
        <_>
          <internalNodes>
            0 -1 15 6.0866367071866989e-02</internalNodes>
          <leafValues>
            -3.6577180027961731e-01 3.3333334326744080e-01</leafValues></_>
        <_>
          <internalNodes>
            0 -1 420 2.1668081171810627e-03</internalNodes>
          <leafValues>
            7.2126209735870361e-02 -7.3129516839981079e-01</leafValues></_>
        <_>
          <internalNodes>
            0 -1 420 -1.1973642976954579e-03</internalNodes>
          <leafValues>
            -5.6839275360107422e-01 1.6113556921482086e-01</leafValues></_>
        <_>
          <internalNodes>
            0 -1 273 -3.2013006508350372e-02</internalNodes>
          <leafValues>
            -6.8450236320495605e-01 6.6351167857646942e-02</leafValues></_>
        <_>
          <internalNodes>
            0 -1 416 -7.6448335312306881e-04</internalNodes>
          <leafValues>
            -4.3147709965705872e-01 7.4689939618110657e-02</leafValues></_>
        <_>
          <internalNodes>
            0 -1 34 2.3368601687252522e-03</internalNodes>
          <leafValues>
            1.0617768764495850e-01 -5.7589459419250488e-01</leafValues></_>
        <_>
          <internalNodes>
            0 -1 314 -4.8083094879984856e-03</internalNodes>
          <leafValues>
            4.1361376643180847e-01 -1.2528322637081146e-01</leafValues></_>
        <_>
          <internalNodes>
            0 -1 313 6.6001573577523232e-03</internalNodes>
          <leafValues>
            -1.5186139941215515e-01 4.0564477443695068e-01</leafValues></_>
        <_>
          <internalNodes>
            0 -1 321 3.4982380457222462e-03</internalNodes>
          <leafValues>
            8.1944353878498077e-02 -5.9315192699432373e-01</leafValues></_>
        <_>
          <internalNodes>
            0 -1 269 -7.3577523231506348e-02</internalNodes>
          <leafValues>
            2.3473586142063141e-01 -1.9768998026847839e-01</leafValues></_>
        <_>
          <internalNodes>
            0 -1 225 -3.5507805645465851e-02</internalNodes>
          <leafValues>
            -6.9343066215515137e-01 4.2743984609842300e-02</leafValues></_>
        <_>
          <internalNodes>
            0 -1 285 2.9134329408407211e-02</internalNodes>
          <leafValues>
            8.5394494235515594e-02 -5.5841755867004395e-01</leafValues></_>
        <_>
          <internalNodes>
            0 -1 398 2.7147434651851654e-02</internalNodes>
          <leafValues>
            -1.0382924228906631e-01 5.6879746913909912e-01</leafValues></_>
        <_>
          <internalNodes>
            0 -1 403 -1.5142751857638359e-02</internalNodes>
          <leafValues>
            3.8738593459129333e-01 -1.0957040637731552e-01</leafValues></_>
        <_>
          <internalNodes>
            0 -1 35 -3.2663980964571238e-03</internalNodes>
          <leafValues>
            -6.1551845073699951e-01 7.9783305525779724e-02</leafValues></_>
        <_>
          <internalNodes>
            0 -1 254 -1.2245914898812771e-02</internalNodes>
          <leafValues>
            4.3720817565917969e-01 -1.0523144900798798e-01</leafValues></_>
        <_>
          <internalNodes>
            0 -1 251 9.8813585937023163e-03</internalNodes>
          <leafValues>
            -1.2772813439369202e-01 3.5448145866394043e-01</leafValues></_>
        <_>
          <internalNodes>
            0 -1 153 -1.3205688446760178e-03</internalNodes>
          <leafValues>
            -5.5994457006454468e-01 8.0709196627140045e-02</leafValues></_>
        <_>
          <internalNodes>
            0 -1 386 4.7197816893458366e-03</internalNodes>
          <leafValues>
            5.6446906179189682e-02 -7.0755052566528320e-01</leafValues></_>
        <_>
          <internalNodes>
            0 -1 200 -3.3628121018409729e-02</internalNodes>
          <leafValues>
            -7.2695940732955933e-01 5.1151093095541000e-02</leafValues></_>
        <_>
          <internalNodes>
            0 -1 201 3.6455631256103516e-02</internalNodes>
          <leafValues>
            6.5013870596885681e-02 -6.7462003231048584e-01</leafValues></_>
        <_>
          <internalNodes>
            0 -1 204 1.1025389656424522e-02</internalNodes>
          <leafValues>
            -1.2808521091938019e-01 3.3922910690307617e-01</leafValues></_>
        <_>
          <internalNodes>
            0 -1 182 7.2810291312634945e-03</internalNodes>
          <leafValues>
            -1.4466227591037750e-01 3.6018502712249756e-01</leafValues></_>
        <_>
          <internalNodes>
            0 -1 124 1.5620134770870209e-02</internalNodes>
          <leafValues>
            7.5674988329410553e-02 -7.2099202871322632e-01</leafValues></_></weakClassifiers></_>
    <!-- stage 9 -->
    <_>
      <maxWeakCount>30</maxWeakCount>
      <stageThreshold>-1.2104769945144653e+00</stageThreshold>
      <weakClassifiers>
        <_>
          <internalNodes>
            0 -1 284 -4.0974222123622894e-02</internalNodes>
          <leafValues>
            2.6760563254356384e-01 -3.4665003418922424e-01</leafValues></_>
        <_>
          <internalNodes>
            0 -1 237 1.1662022210657597e-02</internalNodes>
          <leafValues>
            -1.2673175334930420e-01 4.3464922904968262e-01</leafValues></_>
        <_>
          <internalNodes>
            0 -1 87 -5.7180449366569519e-02</internalNodes>
          <leafValues>
            3.1943088769912720e-01 -1.5740336477756500e-01</leafValues></_>
        <_>
          <internalNodes>
            0 -1 117 -1.3567499816417694e-01</internalNodes>
          <leafValues>
            5.5844861268997192e-01 -1.0363996028900146e-01</leafValues></_>
        <_>
          <internalNodes>
            0 -1 304 6.2312232330441475e-03</internalNodes>
          <leafValues>
            6.9897830486297607e-02 -7.9701316356658936e-01</leafValues></_>
        <_>
          <internalNodes>
            0 -1 301 -1.0895526036620140e-02</internalNodes>
          <leafValues>
            5.8624041080474854e-01 -6.7891418933868408e-02</leafValues></_>
        <_>
          <internalNodes>
            0 -1 300 2.4722933303564787e-03</internalNodes>
          <leafValues>
            -1.3389371335506439e-01 3.5609883069992065e-01</leafValues></_>
        <_>
          <internalNodes>
            0 -1 351 -2.9241070151329041e-02</internalNodes>
          <leafValues>
            3.6062470078468323e-01 -1.4112882316112518e-01</leafValues></_>
        <_>
          <internalNodes>
            0 -1 61 1.6012199223041534e-02</internalNodes>
          <leafValues>
            -9.0558327734470367e-02 4.5922806859016418e-01</leafValues></_>
        <_>
          <internalNodes>
            0 -1 104 -1.1839795857667923e-02</internalNodes>
          <leafValues>
            3.7925571203231812e-01 -1.0952465236186981e-01</leafValues></_>
        <_>
          <internalNodes>
            0 -1 69 3.5460010170936584e-02</internalNodes>
          <leafValues>
            -1.3787484169006348e-01 3.2788828015327454e-01</leafValues></_>
        <_>
          <internalNodes>
            0 -1 368 2.8760177083313465e-03</internalNodes>
          <leafValues>
            8.7277136743068695e-02 -4.8488125205039978e-01</leafValues></_>
        <_>
          <internalNodes>
            0 -1 324 -1.6938280314207077e-02</internalNodes>
          <leafValues>
            5.0554233789443970e-01 -8.5724227130413055e-02</leafValues></_>
        <_>
          <internalNodes>
            0 -1 329 6.6694999113678932e-03</internalNodes>
          <leafValues>
            -1.5703143179416656e-01 3.2946431636810303e-01</leafValues></_>
        <_>
          <internalNodes>
            0 -1 340 -2.0626336336135864e-03</internalNodes>
          <leafValues>
            -4.5451417565345764e-01 1.0937771946191788e-01</leafValues></_>
        <_>
          <internalNodes>
            0 -1 341 5.4461896419525146e-02</internalNodes>
          <leafValues>
            -1.4124585688114166e-01 3.1225031614303589e-01</leafValues></_>
        <_>
          <internalNodes>
            0 -1 220 -6.0337901115417480e-02</internalNodes>
          <leafValues>
            4.6821478009223938e-01 -1.0187186300754547e-01</leafValues></_>
        <_>
          <internalNodes>
            0 -1 30 -6.5340963192284107e-04</internalNodes>
          <leafValues>
            -3.7714520096778870e-01 1.1384700983762741e-01</leafValues></_>
        <_>
          <internalNodes>
            0 -1 30 7.7296723611652851e-04</internalNodes>
          <leafValues>
            1.2183851003646851e-01 -4.3127232789993286e-01</leafValues></_>
        <_>
          <internalNodes>
            0 -1 81 -7.4518029578030109e-03</internalNodes>
          <leafValues>
            5.0031912326812744e-01 -9.8558850586414337e-02</leafValues></_>
        <_>
          <internalNodes>
            0 -1 127 -1.9609911367297173e-02</internalNodes>
          <leafValues>
            3.5684183239936829e-01 -1.2307030707597733e-01</leafValues></_>
        <_>
          <internalNodes>
            0 -1 294 -2.1389736502896994e-05</internalNodes>
          <leafValues>
            2.5014522671699524e-01 -1.7695820331573486e-01</leafValues></_>
        <_>
          <internalNodes>
            0 -1 378 1.0107815265655518e-02</internalNodes>
          <leafValues>
            -1.0300070792436600e-01 4.6573734283447266e-01</leafValues></_>
        <_>
          <internalNodes>
            0 -1 46 1.8092900514602661e-02</internalNodes>
          <leafValues>
            -1.0958205163478851e-01 4.0760332345962524e-01</leafValues></_>
        <_>
          <internalNodes>
            0 -1 131 -3.4675545990467072e-02</internalNodes>
          <leafValues>
            5.4046577215194702e-01 -8.1032067537307739e-02</leafValues></_>
        <_>
          <internalNodes>
            0 -1 173 -3.8711965084075928e-02</internalNodes>
          <leafValues>
            -7.4640858173370361e-01 6.1365071684122086e-02</leafValues></_>
        <_>
          <internalNodes>
            0 -1 212 3.7357059773057699e-03</internalNodes>
          <leafValues>
            -1.4516887068748474e-01 3.3617916703224182e-01</leafValues></_>
        <_>
          <internalNodes>
            0 -1 230 3.4194218460470438e-03</internalNodes>
          <leafValues>
            -1.5628516674041748e-01 3.5026204586029053e-01</leafValues></_>
        <_>
          <internalNodes>
            0 -1 78 1.3413169980049133e-01</internalNodes>
          <leafValues>
            -1.2894648313522339e-01 3.4420517086982727e-01</leafValues></_>
        <_>
          <internalNodes>
            0 -1 226 -3.3033089712262154e-03</internalNodes>
          <leafValues>
            2.8457370400428772e-01 -1.7260317504405975e-01</leafValues></_></weakClassifiers></_>
    <!-- stage 10 -->
    <_>
      <maxWeakCount>37</maxWeakCount>
      <stageThreshold>-1.2171299457550049e+00</stageThreshold>
      <weakClassifiers>
        <_>
          <internalNodes>
            0 -1 16 2.5734931230545044e-02</internalNodes>
          <leafValues>
            -3.2513877749443054e-01 3.1746032834053040e-01</leafValues></_>
        <_>
          <internalNodes>
            0 -1 122 -6.4992466941475868e-03</internalNodes>
          <leafValues>
            3.8098621368408203e-01 -1.1021092534065247e-01</leafValues></_>
        <_>
          <internalNodes>
            0 -1 120 6.0994131490588188e-03</internalNodes>
          <leafValues>
            -1.6022065281867981e-01 3.2568639516830444e-01</leafValues></_>
        <_>
          <internalNodes>
            0 -1 393 -6.8365551531314850e-02</internalNodes>
          <leafValues>
            4.4114550948143005e-01 -7.0484243333339691e-02</leafValues></_>
        <_>
          <internalNodes>
            0 -1 41 -1.8499705940485001e-02</internalNodes>
          <leafValues>
            3.4442946314811707e-01 -1.0873976349830627e-01</leafValues></_>
        <_>
          <internalNodes>
            0 -1 417 -1.1790023418143392e-03</internalNodes>
          <leafValues>
            -4.1211855411529541e-01 8.6154438555240631e-02</leafValues></_>
        <_>
          <internalNodes>
            0 -1 407 2.3160465061664581e-03</internalNodes>
          <leafValues>
            1.0646960884332657e-01 -4.5423975586891174e-01</leafValues></_>
        <_>
          <internalNodes>
            0 -1 260 -2.5720819830894470e-03</internalNodes>
          <leafValues>
            4.0386795997619629e-01 -7.6238632202148438e-02</leafValues></_>
        <_>
          <internalNodes>
            0 -1 215 -7.7596064656972885e-03</internalNodes>
          <leafValues>
            2.8646081686019897e-01 -1.4231325685977936e-01</leafValues></_>
        <_>
          <internalNodes>
            0 -1 224 9.3677733093500137e-03</internalNodes>
          <leafValues>
            -9.2672109603881836e-02 3.8153144717216492e-01</leafValues></_>
        <_>
          <internalNodes>
            0 -1 319 2.4508154019713402e-02</internalNodes>
          <leafValues>
            -1.2779097259044647e-01 2.9010504484176636e-01</leafValues></_>
        <_>
          <internalNodes>
            0 -1 320 5.1729101687669754e-03</internalNodes>
          <leafValues>
            -1.2946841120719910e-01 2.9823777079582214e-01</leafValues></_>
        <_>
          <internalNodes>
            0 -1 255 2.0509576424956322e-03</internalNodes>
          <leafValues>
            -1.2471944093704224e-01 2.9809901118278503e-01</leafValues></_>
        <_>
          <internalNodes>
            0 -1 412 -5.7873683981597424e-03</internalNodes>
          <leafValues>
            -3.5003688931465149e-01 1.1748144775629044e-01</leafValues></_>
        <_>
          <internalNodes>
            0 -1 257 7.2278652805835009e-04</internalNodes>
          <leafValues>
            -1.3695088028907776e-01 2.8365439176559448e-01</leafValues></_>
        <_>
          <internalNodes>
            0 -1 50 1.2807592283934355e-03</internalNodes>
          <leafValues>
            -2.0497475564479828e-01 1.7747630178928375e-01</leafValues></_>
        <_>
          <internalNodes>
            0 -1 32 1.5367195941507816e-02</internalNodes>
          <leafValues>
            5.7863101363182068e-02 -6.1658132076263428e-01</leafValues></_>
        <_>
          <internalNodes>
            0 -1 239 1.2192474678158760e-02</internalNodes>
          <leafValues>
            4.1068103164434433e-02 -8.0016815662384033e-01</leafValues></_>
        <_>
          <internalNodes>
            0 -1 296 -3.8108803331851959e-02</internalNodes>
          <leafValues>
            2.6115888357162476e-01 -1.3697962462902069e-01</leafValues></_>
        <_>
          <internalNodes>
            0 -1 317 2.4914212524890900e-02</internalNodes>
          <leafValues>
            -1.0645106434822083e-01 3.7160429358482361e-01</leafValues></_>
        <_>
          <internalNodes>
            0 -1 298 1.6555102774873376e-03</internalNodes>
          <leafValues>
            -1.2063062936067581e-01 2.9095473885536194e-01</leafValues></_>
        <_>
          <internalNodes>
            0 -1 178 -9.8624161910265684e-04</internalNodes>
          <leafValues>
            -4.7996631264686584e-01 7.6364308595657349e-02</leafValues></_>
        <_>
          <internalNodes>
            0 -1 151 -2.2762021981179714e-03</internalNodes>
          <leafValues>
            -5.9439557790756226e-01 5.6263852864503860e-02</leafValues></_>
        <_>
          <internalNodes>
            0 -1 363 3.7511615082621574e-03</internalNodes>
          <leafValues>
            -1.3695934414863586e-01 2.6812189817428589e-01</leafValues></_>
        <_>
          <internalNodes>
            0 -1 364 -3.0181049369275570e-03</internalNodes>
          <leafValues>
            3.0567380785942078e-01 -1.1483038961887360e-01</leafValues></_>
        <_>
          <internalNodes>
            0 -1 249 -1.1746700853109360e-02</internalNodes>
          <leafValues>
            -4.1494727134704590e-01 8.3223864436149597e-02</leafValues></_>
        <_>
          <internalNodes>
            0 -1 247 1.6577608883380890e-02</internalNodes>
          <leafValues>
            5.6539468467235565e-02 -5.8154612779617310e-01</leafValues></_>
        <_>
          <internalNodes>
            0 -1 139 3.0484735034406185e-03</internalNodes>
          <leafValues>
            -1.3054989278316498e-01 2.7055495977401733e-01</leafValues></_>
        <_>
          <internalNodes>
            0 -1 130 -6.4896140247583389e-03</internalNodes>
          <leafValues>
            -6.3494974374771118e-01 5.9849172830581665e-02</leafValues></_>
        <_>
          <internalNodes>
            0 -1 42 -4.7590257599949837e-03</internalNodes>
          <leafValues>
            -5.6853389739990234e-01 5.5024173110723495e-02</leafValues></_>
        <_>
          <internalNodes>
            0 -1 6 -2.2766864858567715e-03</internalNodes>
          <leafValues>
            -5.4713600873947144e-01 5.4577317088842392e-02</leafValues></_>
        <_>
          <internalNodes>
            0 -1 64 -5.2771256305277348e-03</internalNodes>
          <leafValues>
            3.2270139455795288e-01 -1.2569053471088409e-01</leafValues></_>
        <_>
          <internalNodes>
            0 -1 51 9.6820453181862831e-03</internalNodes>
          <leafValues>
            -1.2719964981079102e-01 2.7816021442413330e-01</leafValues></_>
        <_>
          <internalNodes>
            0 -1 340 2.0749918185174465e-03</internalNodes>
          <leafValues>
            7.0277214050292969e-02 -4.7093749046325684e-01</leafValues></_>
        <_>
          <internalNodes>
            0 -1 358 4.8828194849193096e-04</internalNodes>
          <leafValues>
            -1.6367469727993011e-01 2.2783969342708588e-01</leafValues></_>
        <_>
          <internalNodes>
            0 -1 102 -5.6407488882541656e-03</internalNodes>
          <leafValues>
            2.9944801330566406e-01 -1.1847878992557526e-01</leafValues></_>
        <_>
          <internalNodes>
            0 -1 414 -2.1705329418182373e-03</internalNodes>
          <leafValues>
            -5.1887905597686768e-01 6.2181714922189713e-02</leafValues></_></weakClassifiers></_>
    <!-- stage 11 -->
    <_>
      <maxWeakCount>35</maxWeakCount>
      <stageThreshold>-1.2738415002822876e+00</stageThreshold>
      <weakClassifiers>
        <_>
          <internalNodes>
            0 -1 7 2.0832266658544540e-02</internalNodes>
          <leafValues>
            -3.5401156544685364e-01 3.2365146279335022e-01</leafValues></_>
        <_>
          <internalNodes>
            0 -1 297 -5.3939111530780792e-03</internalNodes>
          <leafValues>
            4.3118000030517578e-01 -1.1844389885663986e-01</leafValues></_>
        <_>
          <internalNodes>
            0 -1 291 9.9262148141860962e-03</internalNodes>
          <leafValues>
            -1.5986895561218262e-01 3.8349902629852295e-01</leafValues></_>
        <_>
          <internalNodes>
            0 -1 211 -3.1588952988386154e-03</internalNodes>
          <leafValues>
            4.2837792634963989e-01 -8.3820581436157227e-02</leafValues></_>
        <_>
          <internalNodes>
            0 -1 170 1.1726614087820053e-02</internalNodes>
          <leafValues>
            -7.2548247873783112e-02 5.2094453573226929e-01</leafValues></_>
        <_>
          <internalNodes>
            0 -1 55 2.1450966596603394e-02</internalNodes>
          <leafValues>
            -8.1892691552639008e-02 4.6189525723457336e-01</leafValues></_>
        <_>
          <internalNodes>
            0 -1 133 -4.9003124237060547e-02</internalNodes>
          <leafValues>
            -4.7253784537315369e-01 8.6109340190887451e-02</leafValues></_>
        <_>
          <internalNodes>
            0 -1 168 -4.0027257055044174e-03</internalNodes>
          <leafValues>
            3.3144658803939819e-01 -1.2730316817760468e-01</leafValues></_>
        <_>
          <internalNodes>
            0 -1 208 2.1409645676612854e-02</internalNodes>
          <leafValues>
            8.9896127581596375e-02 -4.9218013882637024e-01</leafValues></_>
        <_>
          <internalNodes>
            0 -1 232 -3.8223512470722198e-02</internalNodes>
          <leafValues>
            -5.2676153182983398e-01 6.7336760461330414e-02</leafValues></_>
        <_>
          <internalNodes>
            0 -1 183 1.8090156838297844e-02</internalNodes>
          <leafValues>
            6.9355159997940063e-02 -4.8379325866699219e-01</leafValues></_>
        <_>
          <internalNodes>
            0 -1 334 2.6751104742288589e-03</internalNodes>
          <leafValues>
            -8.5416622459888458e-02 3.8782733678817749e-01</leafValues></_>
        <_>
          <internalNodes>
            0 -1 348 1.3547929003834724e-02</internalNodes>
          <leafValues>
            -9.2040494084358215e-02 4.3695259094238281e-01</leafValues></_>
        <_>
          <internalNodes>
            0 -1 280 6.7281916737556458e-02</internalNodes>
          <leafValues>
            4.9847181886434555e-02 -7.0547640323638916e-01</leafValues></_>
        <_>
          <internalNodes>
            0 -1 316 3.4917369484901428e-03</internalNodes>
          <leafValues>
            -1.1977725476026535e-01 3.2279902696609497e-01</leafValues></_>
        <_>
          <internalNodes>
            0 -1 287 4.9263061955571175e-03</internalNodes>
          <leafValues>
            3.2732054591178894e-02 -8.5275083780288696e-01</leafValues></_>
        <_>
          <internalNodes>
            0 -1 323 2.5672856718301773e-02</internalNodes>
          <leafValues>
            -1.0534636676311493e-01 3.4443050622940063e-01</leafValues></_>
        <_>
          <internalNodes>
            0 -1 364 5.2279196679592133e-03</internalNodes>
          <leafValues>
            -1.0104863345623016e-01 3.7843084335327148e-01</leafValues></_>
        <_>
          <internalNodes>
            0 -1 356 -2.5247965008020401e-02</internalNodes>
          <leafValues>
            3.2222393155097961e-01 -1.1035673320293427e-01</leafValues></_>
        <_>
          <internalNodes>
            0 -1 27 -1.2523501645773649e-03</internalNodes>
          <leafValues>
            -4.4220328330993652e-01 8.8194228708744049e-02</leafValues></_>
        <_>
          <internalNodes>
            0 -1 231 -2.3375810123980045e-03</internalNodes>
          <leafValues>
            2.9294475913047791e-01 -1.2313850969076157e-01</leafValues></_>
        <_>
          <internalNodes>
            0 -1 342 -2.3746402002871037e-03</internalNodes>
          <leafValues>
            1.8610431253910065e-01 -1.8128663301467896e-01</leafValues></_>
        <_>
          <internalNodes>
            0 -1 277 -3.1965861562639475e-03</internalNodes>
          <leafValues>
            2.6187092065811157e-01 -1.2769503891468048e-01</leafValues></_>
        <_>
          <internalNodes>
            0 -1 357 1.6614235937595367e-03</internalNodes>
          <leafValues>
            7.4185885488986969e-02 -4.9595540761947632e-01</leafValues></_>
        <_>
          <internalNodes>
            0 -1 109 8.3856936544179916e-03</internalNodes>
          <leafValues>
            4.8273947089910507e-02 -5.9450644254684448e-01</leafValues></_>
        <_>
          <internalNodes>
            0 -1 409 1.5539084561169147e-03</internalNodes>
          <leafValues>
            6.2505118548870087e-02 -4.9104756116867065e-01</leafValues></_>
        <_>
          <internalNodes>
            0 -1 409 -1.5427095349878073e-03</internalNodes>
          <leafValues>
            -5.1853048801422119e-01 6.0154523700475693e-02</leafValues></_>
        <_>
          <internalNodes>
            0 -1 244 3.5363396164029837e-03</internalNodes>
          <leafValues>
            -1.3095653057098389e-01 2.7098724246025085e-01</leafValues></_>
        <_>
          <internalNodes>
            0 -1 379 9.0175727382302284e-03</internalNodes>
          <leafValues>
            -1.2257195264101028e-01 2.9684406518936157e-01</leafValues></_>
        <_>
          <internalNodes>
            0 -1 206 -1.2996884062886238e-02</internalNodes>
          <leafValues>
            4.4536703824996948e-01 -8.4425121545791626e-02</leafValues></_>
        <_>
          <internalNodes>
            0 -1 199 5.6986431591212749e-03</internalNodes>
          <leafValues>
            -1.0310126096010208e-01 3.4628814458847046e-01</leafValues></_>
        <_>
          <internalNodes>
            0 -1 399 3.1985275447368622e-02</internalNodes>
          <leafValues>
            -6.8485312163829803e-02 5.1039952039718628e-01</leafValues></_>
        <_>
          <internalNodes>
            0 -1 107 1.4280992746353149e-01</internalNodes>
          <leafValues>
            -8.5017979145050049e-02 3.8534173369407654e-01</leafValues></_>
        <_>
          <internalNodes>
            0 -1 25 -1.7468529986217618e-03</internalNodes>
          <leafValues>
            -5.1591080427169800e-01 6.7528136074542999e-02</leafValues></_>
        <_>
          <internalNodes>
            0 -1 189 1.6648543998599052e-02</internalNodes>
          <leafValues>
            4.5632191002368927e-02 -6.4239656925201416e-01</leafValues></_></weakClassifiers></_>
    <!-- stage 12 -->
    <_>
      <maxWeakCount>44</maxWeakCount>
      <stageThreshold>-1.2063125371932983e+00</stageThreshold>
      <weakClassifiers>
        <_>
          <internalNodes>
            0 -1 49 4.6985343098640442e-02</internalNodes>
          <leafValues>
            -3.6959835886955261e-01 2.8938906267285347e-02</leafValues></_>
        <_>
          <internalNodes>
            0 -1 233 2.5984449312090874e-03</internalNodes>
          <leafValues>
            -1.0785005986690521e-01 3.2206219434738159e-01</leafValues></_>
        <_>
          <internalNodes>
            0 -1 258 1.6979642678052187e-03</internalNodes>
          <leafValues>
            -1.2646220624446869e-01 2.6669532060623169e-01</leafValues></_>
        <_>
          <internalNodes>
            0 -1 243 3.6895550787448883e-02</internalNodes>
          <leafValues>
            5.5165506899356842e-02 -5.8631914854049683e-01</leafValues></_>
        <_>
          <internalNodes>
            0 -1 163 7.0754541084170341e-03</internalNodes>
          <leafValues>
            -8.2089535892009735e-02 3.1153890490531921e-01</leafValues></_>
        <_>
          <internalNodes>
            0 -1 246 -3.7614239845424891e-03</internalNodes>
          <leafValues>
            2.9942506551742554e-01 -1.2643472850322723e-01</leafValues></_>
        <_>
          <internalNodes>
            0 -1 417 1.5309506561607122e-03</internalNodes>
          <leafValues>
            6.1284203082323074e-02 -5.1808631420135498e-01</leafValues></_>
        <_>
          <internalNodes>
            0 -1 12 1.9890947267413139e-02</internalNodes>
          <leafValues>
            -8.1394821405410767e-02 3.2971793413162231e-01</leafValues></_>
        <_>
          <internalNodes>
            0 -1 197 1.3484822120517492e-03</internalNodes>
          <leafValues>
            6.3375405967235565e-02 -4.2313057184219360e-01</leafValues></_>
        <_>
          <internalNodes>
            0 -1 283 2.7266319375485182e-03</internalNodes>
          <leafValues>
            -9.9551379680633545e-02 3.1411466002464294e-01</leafValues></_>
        <_>
          <internalNodes>
            0 -1 274 -1.0511429980397224e-02</internalNodes>
          <leafValues>
            3.1213229894638062e-01 -9.2318177223205566e-02</leafValues></_>
        <_>
          <internalNodes>
            0 -1 411 -2.5072803255170584e-03</internalNodes>
          <leafValues>
            -4.6468949317932129e-01 5.9283275157213211e-02</leafValues></_>
        <_>
          <internalNodes>
            0 -1 318 3.7043489515781403e-02</internalNodes>
          <leafValues>
            -6.4600467681884766e-02 5.2941942214965820e-01</leafValues></_>
        <_>
          <internalNodes>
            0 -1 253 9.3150569591671228e-04</internalNodes>
          <leafValues>
            -1.0097286105155945e-01 3.0941259860992432e-01</leafValues></_>
        <_>
          <internalNodes>
            0 -1 228 3.0670945998281240e-03</internalNodes>
          <leafValues>
            -9.9991850554943085e-02 2.9612553119659424e-01</leafValues></_>
        <_>
          <internalNodes>
            0 -1 118 2.3441258817911148e-02</internalNodes>
          <leafValues>
            4.4984098523855209e-02 -5.7445275783538818e-01</leafValues></_>
        <_>
          <internalNodes>
            0 -1 56 1.0183089179918170e-03</internalNodes>
          <leafValues>
            7.7082388103008270e-02 -3.7312364578247070e-01</leafValues></_>
        <_>
          <internalNodes>
            0 -1 68 3.1644880771636963e-02</internalNodes>
          <leafValues>
            -9.5392405986785889e-02 3.1511607766151428e-01</leafValues></_>
        <_>
          <internalNodes>
            0 -1 148 -1.1263309046626091e-02</internalNodes>
          <leafValues>
            3.2074430584907532e-01 -9.1794699430465698e-02</leafValues></_>
        <_>
          <internalNodes>
            0 -1 306 -5.5610788986086845e-03</internalNodes>
          <leafValues>
            1.4353805780410767e-01 -2.1178080141544342e-01</leafValues></_>
        <_>
          <internalNodes>
            0 -1 268 6.2746368348598480e-02</internalNodes>
          <leafValues>
            5.7390496134757996e-02 -6.6662335395812988e-01</leafValues></_>
        <_>
          <internalNodes>
            0 -1 345 2.5177397765219212e-03</internalNodes>
          <leafValues>
            -1.1941725760698318e-01 2.4698822200298309e-01</leafValues></_>
        <_>
          <internalNodes>
            0 -1 331 1.6338510904461145e-03</internalNodes>
          <leafValues>
            -1.1836914718151093e-01 2.5104391574859619e-01</leafValues></_>
        <_>
          <internalNodes>
            0 -1 406 -1.1284780921414495e-03</internalNodes>
          <leafValues>
            -4.3314081430435181e-01 7.5118571519851685e-02</leafValues></_>
        <_>
          <internalNodes>
            0 -1 311 1.4459867961704731e-03</internalNodes>
          <leafValues>
            -1.2818466126918793e-01 2.4736075103282928e-01</leafValues></_>
        <_>
          <internalNodes>
            0 -1 307 -1.8447928596287966e-03</internalNodes>
          <leafValues>
            2.4148409068584442e-01 -1.2831056118011475e-01</leafValues></_>
        <_>
          <internalNodes>
            0 -1 80 4.4591009616851807e-02</internalNodes>
          <leafValues>
            5.2270825952291489e-02 -5.6248879432678223e-01</leafValues></_>
        <_>
          <internalNodes>
            0 -1 29 5.3077593445777893e-02</internalNodes>
          <leafValues>
            -1.6828875243663788e-01 2.0104154944419861e-01</leafValues></_>
        <_>
          <internalNodes>
            0 -1 38 -3.6787580698728561e-02</internalNodes>
          <leafValues>
            4.8597097396850586e-01 -6.0711231082677841e-02</leafValues></_>
        <_>
          <internalNodes>
            0 -1 85 -6.5233469009399414e-02</internalNodes>
          <leafValues>
            4.1828995943069458e-01 -6.2771171331405640e-02</leafValues></_>
        <_>
          <internalNodes>
            0 -1 74 9.9882818758487701e-03</internalNodes>
          <leafValues>
            -1.0666438192129135e-01 2.7412170171737671e-01</leafValues></_>
        <_>
          <internalNodes>
            0 -1 218 -1.1789754033088684e-02</internalNodes>
          <leafValues>
            3.1533005833625793e-01 -1.1276642233133316e-01</leafValues></_>
        <_>
          <internalNodes>
            0 -1 382 7.3420521803200245e-03</internalNodes>
          <leafValues>
            -8.6840808391571045e-02 3.3373364806175232e-01</leafValues></_>
        <_>
          <internalNodes>
            0 -1 27 -1.6585252014920115e-03</internalNodes>
          <leafValues>
            -4.6550819277763367e-01 6.2436047941446304e-02</leafValues></_>
        <_>
          <internalNodes>
            0 -1 105 4.2969263158738613e-03</internalNodes>
          <leafValues>
            3.0036091804504395e-02 -8.5863673686981201e-01</leafValues></_>
        <_>
          <internalNodes>
            0 -1 275 3.9237309247255325e-03</internalNodes>
          <leafValues>
            -1.0741963237524033e-01 2.6691412925720215e-01</leafValues></_>
        <_>
          <internalNodes>
            0 -1 339 -4.6793161891400814e-03</internalNodes>
          <leafValues>
            -6.9406473636627197e-01 4.0525894612073898e-02</leafValues></_>
        <_>
          <internalNodes>
            0 -1 203 -3.3106304705142975e-02</internalNodes>
          <leafValues>
            -6.7253392934799194e-01 3.5954982042312622e-02</leafValues></_>
        <_>
          <internalNodes>
            0 -1 241 7.2243362665176392e-03</internalNodes>
          <leafValues>
            -1.3854253292083740e-01 2.1330329775810242e-01</leafValues></_>
        <_>
          <internalNodes>
            0 -1 174 8.5986900376155972e-04</internalNodes>
          <leafValues>
            -1.0048040002584457e-01 2.9461458325386047e-01</leafValues></_>
        <_>
          <internalNodes>
            0 -1 27 1.2622626964002848e-03</internalNodes>
          <leafValues>
            7.6719999313354492e-02 -3.6883002519607544e-01</leafValues></_>
        <_>
          <internalNodes>
            0 -1 63 2.2305572405457497e-02</internalNodes>
          <leafValues>
            -9.6616581082344055e-02 3.0869349837303162e-01</leafValues></_>
        <_>
          <internalNodes>
            0 -1 59 -1.2975699268281460e-02</internalNodes>
          <leafValues>
            4.2316132783889771e-01 -8.3065375685691833e-02</leafValues></_>
        <_>
          <internalNodes>
            0 -1 290 -3.8886494003236294e-03</internalNodes>
          <leafValues>
            2.9516133666038513e-01 -9.2029817402362823e-02</leafValues></_></weakClassifiers></_>
    <!-- stage 13 -->
    <_>
      <maxWeakCount>47</maxWeakCount>
      <stageThreshold>-1.2186678647994995e+00</stageThreshold>
      <weakClassifiers>
        <_>
          <internalNodes>
            0 -1 171 8.4939617663621902e-03</internalNodes>
          <leafValues>
            -3.3617746829986572e-01 1.5827338397502899e-01</leafValues></_>
        <_>
          <internalNodes>
            0 -1 185 5.1297144964337349e-03</internalNodes>
          <leafValues>
            -1.4210799336433411e-01 3.0841192603111267e-01</leafValues></_>
        <_>
          <internalNodes>
            0 -1 58 -1.2004780583083630e-02</internalNodes>
          <leafValues>
            2.5518411397933960e-01 -1.5792609751224518e-01</leafValues></_>
        <_>
          <internalNodes>
            0 -1 211 1.4895109925419092e-03</internalNodes>
          <leafValues>
            -1.4437130093574524e-01 2.6165571808815002e-01</leafValues></_>
        <_>
          <internalNodes>
            0 -1 82 1.5215530060231686e-02</internalNodes>
          <leafValues>
            -1.0752929747104645e-01 3.2605373859405518e-01</leafValues></_>
        <_>
          <internalNodes>
            0 -1 21 3.2571931369602680e-03</internalNodes>
          <leafValues>
            -1.5871831774711609e-01 2.0165510475635529e-01</leafValues></_>
        <_>
          <internalNodes>
            0 -1 22 -1.2337676249444485e-02</internalNodes>
          <leafValues>
            5.4872447252273560e-01 -2.9578162357211113e-02</leafValues></_>
        <_>
          <internalNodes>
            0 -1 66 -1.0309912264347076e-02</internalNodes>
          <leafValues>
            3.8360098004341125e-01 -8.1655003130435944e-02</leafValues></_>
        <_>
          <internalNodes>
            0 -1 285 -3.6327674984931946e-02</internalNodes>
          <leafValues>
            -6.7951822280883789e-01 3.9531461894512177e-02</leafValues></_>
        <_>
          <internalNodes>
            0 -1 242 9.4829805195331573e-02</internalNodes>
          <leafValues>
            5.4816577583551407e-02 -6.2746852636337280e-01</leafValues></_>
        <_>
          <internalNodes>
            0 -1 315 -1.5077028423547745e-02</internalNodes>
          <leafValues>
            2.2806036472320557e-01 -1.2851583957672119e-01</leafValues></_>
        <_>
          <internalNodes>
            0 -1 346 -2.4157389998435974e-02</internalNodes>
          <leafValues>
            3.6469274759292603e-01 -1.0578678548336029e-01</leafValues></_>
        <_>
          <internalNodes>
            0 -1 380 3.9992099627852440e-03</internalNodes>
          <leafValues>
            -1.0549110174179077e-01 2.9928043484687805e-01</leafValues></_>
        <_>
          <internalNodes>
            0 -1 343 8.1088840961456299e-03</internalNodes>
          <leafValues>
            -9.2336244881153107e-02 3.4209468960762024e-01</leafValues></_>
        <_>
          <internalNodes>
            0 -1 352 -2.0722434855997562e-03</internalNodes>
          <leafValues>
            3.3005899190902710e-01 -1.0839616507291794e-01</leafValues></_>
        <_>
          <internalNodes>
            0 -1 47 1.2383293360471725e-02</internalNodes>
          <leafValues>
            -8.8538147509098053e-02 3.2205629348754883e-01</leafValues></_>
        <_>
          <internalNodes>
            0 -1 150 -4.7976914793252945e-03</internalNodes>
          <leafValues>
            3.2116797566413879e-01 -1.0697256773710251e-01</leafValues></_>
        <_>
          <internalNodes>
            0 -1 383 -1.2970387935638428e-02</internalNodes>
          <leafValues>
            3.3450493216514587e-01 -8.9218892157077789e-02</leafValues></_>
        <_>
          <internalNodes>
            0 -1 374 -2.6926340535283089e-02</internalNodes>
          <leafValues>
            1.8873611092567444e-01 -1.6486155986785889e-01</leafValues></_>
        <_>
          <internalNodes>
            0 -1 235 2.8743722941726446e-03</internalNodes>
          <leafValues>
            4.6255074441432953e-02 -5.6607186794281006e-01</leafValues></_>
        <_>
          <internalNodes>
            0 -1 94 -1.8587040901184082e-01</internalNodes>
          <leafValues>
            3.7165558338165283e-01 -8.3516970276832581e-02</leafValues></_>
        <_>
          <internalNodes>
            0 -1 359 5.6047856807708740e-02</internalNodes>
          <leafValues>
            -9.1436587274074554e-02 2.8681349754333496e-01</leafValues></_>
        <_>
          <internalNodes>
            0 -1 419 -7.3711490258574486e-03</internalNodes>
          <leafValues>
            -4.2794489860534668e-01 6.8250626325607300e-02</leafValues></_>
        <_>
          <internalNodes>
            0 -1 366 2.3722559213638306e-02</internalNodes>
          <leafValues>
            -8.8057391345500946e-02 3.2390093803405762e-01</leafValues></_>
        <_>
          <internalNodes>
            0 -1 401 5.2010146901011467e-03</internalNodes>
          <leafValues>
            -8.8030941784381866e-02 3.2143852114677429e-01</leafValues></_>
        <_>
          <internalNodes>
            0 -1 25 9.7504071891307831e-04</internalNodes>
          <leafValues>
            8.9502573013305664e-02 -3.2212761044502258e-01</leafValues></_>
        <_>
          <internalNodes>
            0 -1 83 -7.2292629629373550e-03</internalNodes>
          <leafValues>
            2.8255453705787659e-01 -1.1442336440086365e-01</leafValues></_>
        <_>
          <internalNodes>
            0 -1 111 1.0873058810830116e-02</internalNodes>
          <leafValues>
            -9.3203239142894745e-02 3.3595082163810730e-01</leafValues></_>
        <_>
          <internalNodes>
            0 -1 145 7.3400405235588551e-03</internalNodes>
          <leafValues>
            -1.0756465792655945e-01 2.7068272233009338e-01</leafValues></_>
        <_>
          <internalNodes>
            0 -1 167 1.7236893763765693e-03</internalNodes>
          <leafValues>
            -1.4924868941307068e-01 2.1529740095138550e-01</leafValues></_>
        <_>
          <internalNodes>
            0 -1 305 1.3482411159202456e-03</internalNodes>
          <leafValues>
            6.8339116871356964e-02 -4.4292020797729492e-01</leafValues></_>
        <_>
          <internalNodes>
            0 -1 186 2.9719690792262554e-03</internalNodes>
          <leafValues>
            -1.1938234418630600e-01 2.4239408969879150e-01</leafValues></_>
        <_>
          <internalNodes>
            0 -1 146 1.6244303435087204e-02</internalNodes>
          <leafValues>
            6.1063915491104126e-02 -5.3548085689544678e-01</leafValues></_>
        <_>
          <internalNodes>
            0 -1 91 1.4383463189005852e-02</internalNodes>
          <leafValues>
            -8.3154387772083282e-02 3.5451984405517578e-01</leafValues></_>
        <_>
          <internalNodes>
            0 -1 157 -3.5643181763589382e-03</internalNodes>
          <leafValues>
            -6.1944121122360229e-01 4.6509563922882080e-02</leafValues></_>
        <_>
          <internalNodes>
            0 -1 410 1.5895722899585962e-03</internalNodes>
          <leafValues>
            5.8869205415248871e-02 -4.1408908367156982e-01</leafValues></_>
        <_>
          <internalNodes>
            0 -1 309 5.3695142269134521e-03</internalNodes>
          <leafValues>
            -1.0253323614597321e-01 2.6603722572326660e-01</leafValues></_>
        <_>
          <internalNodes>
            0 -1 308 -3.5584522411227226e-03</internalNodes>
          <leafValues>
            2.6824977993965149e-01 -1.0929165780544281e-01</leafValues></_>
        <_>
          <internalNodes>
            0 -1 205 3.4396223723888397e-02</internalNodes>
          <leafValues>
            6.4990006387233734e-02 -4.8819452524185181e-01</leafValues></_>
        <_>
          <internalNodes>
            0 -1 293 2.0949540659785271e-02</internalNodes>
          <leafValues>
            5.4068855941295624e-02 -5.2889102697372437e-01</leafValues></_>
        <_>
          <internalNodes>
            0 -1 90 3.4178132191300392e-03</internalNodes>
          <leafValues>
            -1.2817101180553436e-01 2.3350866138935089e-01</leafValues></_>
        <_>
          <internalNodes>
            0 -1 332 1.1403930839151144e-03</internalNodes>
          <leafValues>
            -9.2738427221775055e-02 2.9245576262474060e-01</leafValues></_>
        <_>
          <internalNodes>
            0 -1 302 1.1439549271017313e-03</internalNodes>
          <leafValues>
            -1.2594239413738251e-01 2.4230702221393585e-01</leafValues></_>
        <_>
          <internalNodes>
            0 -1 252 2.0758982747793198e-02</internalNodes>
          <leafValues>
            5.0759937614202499e-02 -5.4467749595642090e-01</leafValues></_>
        <_>
          <internalNodes>
            0 -1 45 -1.3327426277101040e-03</internalNodes>
          <leafValues>
            -3.7103635072708130e-01 6.8035155534744263e-02</leafValues></_>
        <_>
          <internalNodes>
            0 -1 60 7.1135470643639565e-03</internalNodes>
          <leafValues>
            4.5451879501342773e-02 -5.8542233705520630e-01</leafValues></_>
        <_>
          <internalNodes>
            0 -1 179 -2.6722839102149010e-02</internalNodes>
          <leafValues>
            -8.6657804250717163e-01 2.5008812546730042e-02</leafValues></_></weakClassifiers></_>
    <!-- stage 14 -->
    <_>
      <maxWeakCount>50</maxWeakCount>
      <stageThreshold>-1.1994607448577881e+00</stageThreshold>
      <weakClassifiers>
        <_>
          <internalNodes>
            0 -1 404 -3.0592337250709534e-02</internalNodes>
          <leafValues>
            3.0362117290496826e-01 -3.1837859749794006e-01</leafValues></_>
        <_>
          <internalNodes>
            0 -1 3 2.7387674897909164e-02</internalNodes>
          <leafValues>
            -1.6900274157524109e-01 2.0259946584701538e-01</leafValues></_>
        <_>
          <internalNodes>
            0 -1 334 -4.7709755599498749e-03</internalNodes>
          <leafValues>
            4.1820737719535828e-01 -1.0533443838357925e-01</leafValues></_>
        <_>
          <internalNodes>
            0 -1 190 -7.0910453796386719e-03</internalNodes>
          <leafValues>
            4.1416469216346741e-01 -3.1048266217112541e-02</leafValues></_>
        <_>
          <internalNodes>
            0 -1 217 -1.3025738298892975e-03</internalNodes>
          <leafValues>
            -4.2370578646659851e-01 5.7189159095287323e-02</leafValues></_>
        <_>
          <internalNodes>
            0 -1 333 8.2785461563616991e-04</internalNodes>
          <leafValues>
            -8.0239593982696533e-02 2.8058683872222900e-01</leafValues></_>
        <_>
          <internalNodes>
            0 -1 229 3.1360596418380737e-02</internalNodes>
          <leafValues>
            6.5377593040466309e-02 -4.9611231684684753e-01</leafValues></_>
        <_>
          <internalNodes>
            0 -1 31 -2.2886363789439201e-02</internalNodes>
          <leafValues>
            3.7550145387649536e-01 -8.9798577129840851e-02</leafValues></_>
        <_>
          <internalNodes>
            0 -1 40 1.9538945052772760e-03</internalNodes>
          <leafValues>
            6.7969620227813721e-02 -4.5777201652526855e-01</leafValues></_>
        <_>
          <internalNodes>
            0 -1 187 3.2159662805497646e-03</internalNodes>
          <leafValues>
            -9.2599608004093170e-02 2.8656482696533203e-01</leafValues></_>
        <_>
          <internalNodes>
            0 -1 184 -1.4135690871626139e-03</internalNodes>
          <leafValues>
            2.4804925918579102e-01 -1.0720496624708176e-01</leafValues></_>
        <_>
          <internalNodes>
            0 -1 43 1.4207068597897887e-03</internalNodes>
          <leafValues>
            6.7882485687732697e-02 -4.2149543762207031e-01</leafValues></_>
        <_>
          <internalNodes>
            0 -1 289 2.7092085219919682e-03</internalNodes>
          <leafValues>
            4.0356162935495377e-02 -5.1114726066589355e-01</leafValues></_>
        <_>
          <internalNodes>
            0 -1 17 1.4479501172900200e-02</internalNodes>
          <leafValues>
            -1.3664647936820984e-01 1.8894730508327484e-01</leafValues></_>
        <_>
          <internalNodes>
            0 -1 121 2.8989885468035936e-03</internalNodes>
          <leafValues>
            -7.8096114099025726e-02 3.3206477761268616e-01</leafValues></_>
        <_>
          <internalNodes>
            0 -1 336 2.3014137521386147e-02</internalNodes>
          <leafValues>
            -1.1630209535360336e-01 2.4255126714706421e-01</leafValues></_>
        <_>
          <internalNodes>
            0 -1 354 -4.5056059025228024e-03</internalNodes>
          <leafValues>
            2.8700467944145203e-01 -1.0399945825338364e-01</leafValues></_>
        <_>
          <internalNodes>
            0 -1 355 4.0387418121099472e-03</internalNodes>
          <leafValues>
            -1.1248376965522766e-01 2.9018902778625488e-01</leafValues></_>
        <_>
          <internalNodes>
            0 -1 422 9.8216161131858826e-04</internalNodes>
          <leafValues>
            7.3894947767257690e-02 -3.9605516195297241e-01</leafValues></_>
        <_>
          <internalNodes>
            0 -1 169 -6.4041977748274803e-03</internalNodes>
          <leafValues>
            2.4541166424751282e-01 -1.1040212959051132e-01</leafValues></_>
        <_>
          <internalNodes>
            0 -1 267 1.0898773558437824e-02</internalNodes>
          <leafValues>
            3.9278212934732437e-02 -6.6419690847396851e-01</leafValues></_>
        <_>
          <internalNodes>
            0 -1 175 1.9813720136880875e-02</internalNodes>
          <leafValues>
            3.9871469140052795e-02 -5.6950819492340088e-01</leafValues></_>
        <_>
          <internalNodes>
            0 -1 100 8.8585624471306801e-03</internalNodes>
          <leafValues>
            -8.1261038780212402e-02 3.7481436133384705e-01</leafValues></_>
        <_>
          <internalNodes>
            0 -1 115 -1.1961296945810318e-01</internalNodes>
          <leafValues>
            -6.4962095022201538e-01 4.9724411219358444e-02</leafValues></_>
        <_>
          <internalNodes>
            0 -1 1 2.7091607917100191e-03</internalNodes>
          <leafValues>
            -1.2464127689599991e-01 2.1831765770912170e-01</leafValues></_>
        <_>
          <internalNodes>
            0 -1 56 -8.6033111438155174e-04</internalNodes>
          <leafValues>
            -2.9812827706336975e-01 8.9574225246906281e-02</leafValues></_>
        <_>
          <internalNodes>
            0 -1 408 4.6437829732894897e-03</internalNodes>
          <leafValues>
            3.6967564374208450e-02 -6.6200858354568481e-01</leafValues></_>
        <_>
          <internalNodes>
            0 -1 387 -1.9042406231164932e-02</internalNodes>
          <leafValues>
            3.1339034438133240e-01 -8.4342889487743378e-02</leafValues></_>
        <_>
          <internalNodes>
            0 -1 375 8.0013927072286606e-03</internalNodes>
          <leafValues>
            -1.2849290668964386e-01 2.4320895969867706e-01</leafValues></_>
        <_>
          <internalNodes>
            0 -1 158 -2.2648652084171772e-03</internalNodes>
          <leafValues>
            2.3724932968616486e-01 -1.1606170982122421e-01</leafValues></_>
        <_>
          <internalNodes>
            0 -1 149 -2.0633696112781763e-03</internalNodes>
          <leafValues>
            -4.7360038757324219e-01 5.6578878313302994e-02</leafValues></_>
        <_>
          <internalNodes>
            0 -1 350 -8.9009926887229085e-04</internalNodes>
          <leafValues>
            2.5782606005668640e-01 -1.0201195627450943e-01</leafValues></_>
        <_>
          <internalNodes>
            0 -1 350 8.6903857300058007e-04</internalNodes>
          <leafValues>
            -1.0044549405574799e-01 2.8468337655067444e-01</leafValues></_>
        <_>
          <internalNodes>
            0 -1 221 -3.4651155583560467e-03</internalNodes>
          <leafValues>
            2.1316120028495789e-01 -1.2444319576025009e-01</leafValues></_>
        <_>
          <internalNodes>
            0 -1 238 7.3721078224480152e-03</internalNodes>
          <leafValues>
            -8.6356751620769501e-02 2.8922945261001587e-01</leafValues></_>
        <_>
          <internalNodes>
            0 -1 265 -3.7877084687352180e-03</internalNodes>
          <leafValues>
            3.0109363794326782e-01 -1.0717816650867462e-01</leafValues></_>
        <_>
          <internalNodes>
            0 -1 384 -8.7687913328409195e-03</internalNodes>
          <leafValues>
            -8.2756322622299194e-01 2.8830558061599731e-02</leafValues></_>
        <_>
          <internalNodes>
            0 -1 134 1.5269225463271141e-02</internalNodes>
          <leafValues>
            4.9331035465002060e-02 -4.4607728719711304e-01</leafValues></_>
        <_>
          <internalNodes>
            0 -1 390 -1.4782217331230640e-03</internalNodes>
          <leafValues>
            1.8181678652763367e-01 -1.5685172379016876e-01</leafValues></_>
        <_>
          <internalNodes>
            0 -1 8 -1.7566983588039875e-03</internalNodes>
          <leafValues>
            -5.1822954416275024e-01 4.9928355962038040e-02</leafValues></_>
        <_>
          <internalNodes>
            0 -1 219 -5.6460022460669279e-04</internalNodes>
          <leafValues>
            1.9918569922447205e-01 -1.2624906003475189e-01</leafValues></_>
        <_>
          <internalNodes>
            0 -1 367 -7.7369511127471924e-03</internalNodes>
          <leafValues>
            -7.0997112989425659e-01 3.9872661232948303e-02</leafValues></_>
        <_>
          <internalNodes>
            0 -1 92 -2.4005088489502668e-03</internalNodes>
          <leafValues>
            1.9774164259433746e-01 -1.2113539874553680e-01</leafValues></_>
        <_>
          <internalNodes>
            0 -1 391 -1.3238433748483658e-02</internalNodes>
          <leafValues>
            2.5289398431777954e-01 -9.2053003609180450e-02</leafValues></_>
        <_>
          <internalNodes>
            0 -1 395 1.6397688537836075e-02</internalNodes>
          <leafValues>
            -1.0455156862735748e-01 2.7089795470237732e-01</leafValues></_>
        <_>
          <internalNodes>
            0 -1 423 -4.0923943743109703e-05</internalNodes>
          <leafValues>
            1.6819301247596741e-01 -1.5338377654552460e-01</leafValues></_>
        <_>
          <internalNodes>
            0 -1 415 -7.4591528391465545e-04</internalNodes>
          <leafValues>
            -2.9129433631896973e-01 7.7172167599201202e-02</leafValues></_>
        <_>
          <internalNodes>
            0 -1 415 4.7034723684191704e-04</internalNodes>
          <leafValues>
            9.5508068799972534e-02 -2.6056355237960815e-01</leafValues></_>
        <_>
          <internalNodes>
            0 -1 248 2.6870048604905605e-03</internalNodes>
          <leafValues>
            -1.0241888463497162e-01 2.3128543794155121e-01</leafValues></_>
        <_>
          <internalNodes>
            0 -1 231 2.8664139099419117e-03</internalNodes>
          <leafValues>
            -9.2511780560016632e-02 2.6408666372299194e-01</leafValues></_></weakClassifiers></_>
    <!-- stage 15 -->
    <_>
      <maxWeakCount>53</maxWeakCount>
      <stageThreshold>-1.0634922981262207e+00</stageThreshold>
      <weakClassifiers>
        <_>
          <internalNodes>
            0 -1 0 5.9082470834255219e-03</internalNodes>
          <leafValues>
            -3.5837563872337341e-01 6.4516128040850163e-03</leafValues></_>
        <_>
          <internalNodes>
            0 -1 177 5.1717357710003853e-03</internalNodes>
          <leafValues>
            -1.1509315669536591e-01 2.3266983032226563e-01</leafValues></_>
        <_>
          <internalNodes>
            0 -1 214 2.7324568945914507e-03</internalNodes>
          <leafValues>
            -8.5173673927783966e-02 3.0058288574218750e-01</leafValues></_>
        <_>
          <internalNodes>
            0 -1 213 -3.2201616559177637e-03</internalNodes>
          <leafValues>
            3.1903612613677979e-01 -7.9296499490737915e-02</leafValues></_>
        <_>
          <internalNodes>
            0 -1 261 2.8111973777413368e-02</internalNodes>
          <leafValues>
            3.1333189457654953e-02 -7.9171633720397949e-01</leafValues></_>
        <_>
          <internalNodes>
            0 -1 344 -3.1683430075645447e-02</internalNodes>
          <leafValues>
            3.0243650078773499e-01 -6.9783449172973633e-02</leafValues></_>
        <_>
          <internalNodes>
            0 -1 48 4.0564723312854767e-03</internalNodes>
          <leafValues>
            -1.3863556087017059e-01 1.6044664382934570e-01</leafValues></_>
        <_>
          <internalNodes>
            0 -1 57 -1.7258152365684509e-02</internalNodes>
          <leafValues>
            3.3200889825820923e-01 -6.8406634032726288e-02</leafValues></_>
        <_>
          <internalNodes>
            0 -1 326 -5.5673224851489067e-03</internalNodes>
          <leafValues>
            2.5050565600395203e-01 -9.5393851399421692e-02</leafValues></_>
        <_>
          <internalNodes>
            0 -1 413 3.8558626547455788e-03</internalNodes>
          <leafValues>
            1.0325145721435547e-01 -3.0918332934379578e-01</leafValues></_>
        <_>
          <internalNodes>
            0 -1 394 2.6168406475335360e-03</internalNodes>
          <leafValues>
            -1.2015736848115921e-01 1.9908660650253296e-01</leafValues></_>
        <_>
          <internalNodes>
            0 -1 89 2.9490103479474783e-03</internalNodes>
          <leafValues>
            -6.5147802233695984e-02 3.1361612677574158e-01</leafValues></_>
        <_>
          <internalNodes>
            0 -1 11 3.6737879272550344e-03</internalNodes>
          <leafValues>
            5.0648417323827744e-02 -4.2871382832527161e-01</leafValues></_>
        <_>
          <internalNodes>
            0 -1 9 -1.8634521402418613e-03</internalNodes>
          <leafValues>
            2.6177382469177246e-01 -8.7624967098236084e-02</leafValues></_>
        <_>
          <internalNodes>
            0 -1 65 1.1742154136300087e-02</internalNodes>
          <leafValues>
            -1.1011654883623123e-01 1.9386158883571625e-01</leafValues></_>
        <_>
          <internalNodes>
            0 -1 95 -7.4401972815394402e-03</internalNodes>
          <leafValues>
            3.1478145718574524e-01 -9.1334581375122070e-02</leafValues></_>
        <_>
          <internalNodes>
            0 -1 84 2.5982275605201721e-02</internalNodes>
          <leafValues>
            6.3298717141151428e-02 -3.8103026151657104e-01</leafValues></_>
        <_>
          <internalNodes>
            0 -1 39 -2.1771952509880066e-02</internalNodes>
          <leafValues>
            -6.4198106527328491e-01 2.5886308401823044e-02</leafValues></_>
        <_>
          <internalNodes>
            0 -1 142 2.9386940877884626e-03</internalNodes>
          <leafValues>
            -8.6958475410938263e-02 2.5534600019454956e-01</leafValues></_>
        <_>
          <internalNodes>
            0 -1 164 4.3842680752277374e-03</internalNodes>
          <leafValues>
            -1.3418054580688477e-01 2.0961377024650574e-01</leafValues></_>
        <_>
          <internalNodes>
            0 -1 44 7.1248700842261314e-03</internalNodes>
          <leafValues>
            -1.0084173828363419e-01 2.3288272321224213e-01</leafValues></_>
        <_>
          <internalNodes>
            0 -1 180 -8.5395768284797668e-02</internalNodes>
          <leafValues>
            2.7623432874679565e-01 -9.7315460443496704e-02</leafValues></_>
        <_>
          <internalNodes>
            0 -1 381 -2.2499912884086370e-03</internalNodes>
          <leafValues>
            2.3645563423633575e-01 -1.1075261980295181e-01</leafValues></_>
        <_>
          <internalNodes>
            0 -1 181 3.2527840230613947e-03</internalNodes>
          <leafValues>
            -9.3654632568359375e-02 2.2736246883869171e-01</leafValues></_>
        <_>
          <internalNodes>
            0 -1 166 3.1230043619871140e-02</internalNodes>
          <leafValues>
            2.5095839053392410e-02 -7.6913529634475708e-01</leafValues></_>
        <_>
          <internalNodes>
            0 -1 119 -2.1195452660322189e-02</internalNodes>
          <leafValues>
            -5.0442010164260864e-01 3.5484485328197479e-02</leafValues></_>
        <_>
          <internalNodes>
            0 -1 185 -5.3071347065269947e-03</internalNodes>
          <leafValues>
            2.2294896841049194e-01 -9.6612848341464996e-02</leafValues></_>
        <_>
          <internalNodes>
            0 -1 106 7.6248198747634888e-02</internalNodes>
          <leafValues>
            2.1198568865656853e-02 -9.4194048643112183e-01</leafValues></_>
        <_>
          <internalNodes>
            0 -1 335 2.1692063659429550e-02</internalNodes>
          <leafValues>
            -8.4093779325485229e-02 2.6850163936614990e-01</leafValues></_>
        <_>
          <internalNodes>
            0 -1 411 -1.1329527478665113e-03</internalNodes>
          <leafValues>
            -2.7242025732994080e-01 8.9056462049484253e-02</leafValues></_>
        <_>
          <internalNodes>
            0 -1 222 -4.1832379065454006e-03</internalNodes>
          <leafValues>
            2.2076196968555450e-01 -1.0180222243070602e-01</leafValues></_>
        <_>
          <internalNodes>
            0 -1 338 4.9779461696743965e-03</internalNodes>
          <leafValues>
            4.3889191001653671e-02 -5.5393153429031372e-01</leafValues></_>
        <_>
          <internalNodes>
            0 -1 369 5.0690341740846634e-03</internalNodes>
          <leafValues>
            -8.5016675293445587e-02 2.5211721658706665e-01</leafValues></_>
        <_>
          <internalNodes>
            0 -1 292 -1.0725744999945164e-02</internalNodes>
          <leafValues>
            2.5804090499877930e-01 -8.0380499362945557e-02</leafValues></_>
        <_>
          <internalNodes>
            0 -1 405 -2.0150295458734035e-03</internalNodes>
          <leafValues>
            -3.7891796231269836e-01 6.2263172119855881e-02</leafValues></_>
        <_>
          <internalNodes>
            0 -1 377 3.8605198264122009e-02</internalNodes>
          <leafValues>
            -5.0641573965549469e-02 4.5458182692527771e-01</leafValues></_>
        <_>
          <internalNodes>
            0 -1 400 -1.0491291061043739e-02</internalNodes>
          <leafValues>
            2.5466141104698181e-01 -9.6592724323272705e-02</leafValues></_>
        <_>
          <internalNodes>
            0 -1 388 -4.6856824308633804e-02</internalNodes>
          <leafValues>
            4.7269362211227417e-01 -4.4821746647357941e-02</leafValues></_>
        <_>
          <internalNodes>
            0 -1 4 2.6496283710002899e-02</internalNodes>
          <leafValues>
            -1.1950307339429855e-01 1.9645181298255920e-01</leafValues></_>
        <_>
          <internalNodes>
            0 -1 236 -2.9517421498894691e-03</internalNodes>
          <leafValues>
            1.8732257187366486e-01 -1.0972618311643600e-01</leafValues></_>
        <_>
          <internalNodes>
            0 -1 19 1.4835949987173080e-03</internalNodes>
          <leafValues>
            5.9768971055746078e-02 -3.4680211544036865e-01</leafValues></_>
        <_>
          <internalNodes>
            0 -1 24 1.8194519216194749e-03</internalNodes>
          <leafValues>
            4.4785425066947937e-02 -4.7597846388816833e-01</leafValues></_>
        <_>
          <internalNodes>
            0 -1 240 -2.5787451304495335e-03</internalNodes>
          <leafValues>
            2.2547768056392670e-01 -9.5432877540588379e-02</leafValues></_>
        <_>
          <internalNodes>
            0 -1 353 -1.0355819249525666e-03</internalNodes>
          <leafValues>
            1.7922945320606232e-01 -1.0617553442716599e-01</leafValues></_>
        <_>
          <internalNodes>
            0 -1 123 2.1114859730005264e-02</internalNodes>
          <leafValues>
            3.5368341952562332e-02 -5.3456634283065796e-01</leafValues></_>
        <_>
          <internalNodes>
            0 -1 202 4.1179284453392029e-03</internalNodes>
          <leafValues>
            -9.0743541717529297e-02 2.1459695696830750e-01</leafValues></_>
        <_>
          <internalNodes>
            0 -1 424 -2.8816491831094027e-03</internalNodes>
          <leafValues>
            -5.6372749805450439e-01 3.5724192857742310e-02</leafValues></_>
        <_>
          <internalNodes>
            0 -1 365 -1.8370938487350941e-03</internalNodes>
          <leafValues>
            3.0260899662971497e-01 -6.6310055553913116e-02</leafValues></_>
        <_>
          <internalNodes>
            0 -1 365 5.3880841005593538e-04</internalNodes>
          <leafValues>
            -9.9336981773376465e-02 2.1131864190101624e-01</leafValues></_>
        <_>
          <internalNodes>
            0 -1 114 -1.7288800328969955e-02</internalNodes>
          <leafValues>
            -6.5767073631286621e-01 2.8636299073696136e-02</leafValues></_>
        <_>
          <internalNodes>
            0 -1 422 -1.9940193742513657e-03</internalNodes>
          <leafValues>
            -5.2540719509124756e-01 3.3541683107614517e-02</leafValues></_>
        <_>
          <internalNodes>
            0 -1 385 6.0103135183453560e-03</internalNodes>
          <leafValues>
            -8.4727063775062561e-02 2.3714965581893921e-01</leafValues></_>
        <_>
          <internalNodes>
            0 -1 385 -2.6320070028305054e-03</internalNodes>
          <leafValues>
            2.3615308105945587e-01 -1.0880336910486221e-01</leafValues></_></weakClassifiers></_></stages>
  <features>
    <_>
      <rects>
        <_>
          0 0 2 8 -1.</_>
        <_>
          1 0 1 8 2.</_></rects>
      <tilted>0</tilted></_>
    <_>
      <rects>
        <_>
          0 0 4 4 -1.</_>
        <_>
          0 0 2 2 2.</_>
        <_>
          2 2 2 2 2.</_></rects>
      <tilted>0</tilted></_>
    <_>
      <rects>
        <_>
          0 0 4 19 -1.</_>
        <_>
          2 0 2 19 2.</_></rects>
      <tilted>0</tilted></_>
    <_>
      <rects>
        <_>
          0 0 4 20 -1.</_>
        <_>
          2 0 2 20 2.</_></rects>
      <tilted>0</tilted></_>
    <_>
      <rects>
        <_>
          0 0 5 12 -1.</_>
        <_>
          0 6 5 6 2.</_></rects>
      <tilted>0</tilted></_>
    <_>
      <rects>
        <_>
          0 0 12 8 -1.</_>
        <_>
          6 0 6 8 2.</_></rects>
      <tilted>0</tilted></_>
    <_>
      <rects>
        <_>
          0 1 1 3 -1.</_>
        <_>
          0 2 1 1 3.</_></rects>
      <tilted>0</tilted></_>
    <_>
      <rects>
        <_>
          0 1 2 14 -1.</_>
        <_>
          1 1 1 14 2.</_></rects>
      <tilted>0</tilted></_>
    <_>
      <rects>
        <_>
          0 2 1 2 -1.</_>
        <_>
          0 3 1 1 2.</_></rects>
      <tilted>0</tilted></_>
    <_>
      <rects>
        <_>
          0 2 2 5 -1.</_>
        <_>
          1 2 1 5 2.</_></rects>
      <tilted>0</tilted></_>
    <_>
      <rects>
        <_>
          0 2 2 16 -1.</_>
        <_>
          1 2 1 16 2.</_></rects>
      <tilted>0</tilted></_>
    <_>
      <rects>
        <_>
          0 2 2 3 -1.</_>
        <_>
          0 3 2 1 3.</_></rects>
      <tilted>0</tilted></_>
    <_>
      <rects>
        <_>
          0 2 4 5 -1.</_>
        <_>
          2 2 2 5 2.</_></rects>
      <tilted>0</tilted></_>
    <_>
      <rects>
        <_>
          0 2 4 7 -1.</_>
        <_>
          2 2 2 7 2.</_></rects>
      <tilted>0</tilted></_>
    <_>
      <rects>
        <_>
          0 2 4 12 -1.</_>
        <_>
          2 2 2 12 2.</_></rects>
      <tilted>0</tilted></_>
    <_>
      <rects>
        <_>
          0 2 4 18 -1.</_>
        <_>
          2 2 2 18 2.</_></rects>
      <tilted>0</tilted></_>
    <_>
      <rects>
        <_>
          0 3 2 12 -1.</_>
        <_>
          1 3 1 12 2.</_></rects>
      <tilted>0</tilted></_>
    <_>
      <rects>
        <_>
          0 3 24 1 -1.</_>
        <_>
          8 3 8 1 3.</_></rects>
      <tilted>0</tilted></_>
    <_>
      <rects>
        <_>
          0 3 20 12 -1.</_>
        <_>
          0 7 20 4 3.</_></rects>
      <tilted>0</tilted></_>
    <_>
      <rects>
        <_>
          0 4 1 3 -1.</_>
        <_>
          0 5 1 1 3.</_></rects>
      <tilted>0</tilted></_>
    <_>
      <rects>
        <_>
          0 4 2 10 -1.</_>
        <_>
          1 4 1 10 2.</_></rects>
      <tilted>0</tilted></_>
    <_>
      <rects>
        <_>
          0 4 4 2 -1.</_>
        <_>
          2 4 2 2 2.</_></rects>
      <tilted>0</tilted></_>
    <_>
      <rects>
        <_>
          0 4 4 4 -1.</_>
        <_>
          2 4 2 4 2.</_></rects>
      <tilted>0</tilted></_>
    <_>
      <rects>
        <_>
          0 4 12 6 -1.</_>
        <_>
          0 6 12 2 3.</_></rects>
      <tilted>0</tilted></_>
    <_>
      <rects>
        <_>
          0 5 1 2 -1.</_>
        <_>
          0 6 1 1 2.</_></rects>
      <tilted>0</tilted></_>
    <_>
      <rects>
        <_>
          0 6 1 3 -1.</_>
        <_>
          0 7 1 1 3.</_></rects>
      <tilted>0</tilted></_>
    <_>
      <rects>
        <_>
          0 6 6 13 -1.</_>
        <_>
          3 6 3 13 2.</_></rects>
      <tilted>0</tilted></_>
    <_>
      <rects>
        <_>
          0 7 1 3 -1.</_>
        <_>
          0 8 1 1 3.</_></rects>
      <tilted>0</tilted></_>
    <_>
      <rects>
        <_>
          0 7 6 9 -1.</_>
        <_>
          2 7 2 9 3.</_></rects>
      <tilted>0</tilted></_>
    <_>
      <rects>
        <_>
          0 7 12 12 -1.</_>
        <_>
          6 7 6 12 2.</_></rects>
      <tilted>0</tilted></_>
    <_>
      <rects>
        <_>
          0 8 1 3 -1.</_>
        <_>
          0 9 1 1 3.</_></rects>
      <tilted>0</tilted></_>
    <_>
      <rects>
        <_>
          0 8 4 9 -1.</_>
        <_>
          2 8 2 9 2.</_></rects>
      <tilted>0</tilted></_>
    <_>
      <rects>
        <_>
          0 8 3 6 -1.</_>
        <_>
          0 11 3 3 2.</_></rects>
      <tilted>0</tilted></_>
    <_>
      <rects>
        <_>
          0 8 8 7 -1.</_>
        <_>
          4 8 4 7 2.</_></rects>
      <tilted>0</tilted></_>
    <_>
      <rects>
        <_>
          0 9 1 3 -1.</_>
        <_>
          0 10 1 1 3.</_></rects>
      <tilted>0</tilted></_>
    <_>
      <rects>
        <_>
          0 9 2 3 -1.</_>
        <_>
          0 10 2 1 3.</_></rects>
      <tilted>0</tilted></_>
    <_>
      <rects>
        <_>
          0 9 6 5 -1.</_>
        <_>
          2 9 2 5 3.</_></rects>
      <tilted>0</tilted></_>
    <_>
      <rects>
        <_>
          0 9 6 8 -1.</_>
        <_>
          3 9 3 8 2.</_></rects>
      <tilted>0</tilted></_>
    <_>
      <rects>
        <_>
          0 9 8 5 -1.</_>
        <_>
          4 9 4 5 2.</_></rects>
      <tilted>0</tilted></_>
    <_>
      <rects>
        <_>
          0 9 6 4 -1.</_>
        <_>
          0 11 6 2 2.</_></rects>
      <tilted>0</tilted></_>
    <_>
      <rects>
        <_>
          0 10 1 3 -1.</_>
        <_>
          0 11 1 1 3.</_></rects>
      <tilted>0</tilted></_>
    <_>
      <rects>
        <_>
          0 10 6 6 -1.</_>
        <_>
          2 10 2 6 3.</_></rects>
      <tilted>0</tilted></_>
    <_>
      <rects>
        <_>
          0 10 4 2 -1.</_>
        <_>
          0 11 4 1 2.</_></rects>
      <tilted>0</tilted></_>
    <_>
      <rects>
        <_>
          0 11 2 2 -1.</_>
        <_>
          0 12 2 1 2.</_></rects>
      <tilted>0</tilted></_>
    <_>
      <rects>
        <_>
          0 12 8 1 -1.</_>
        <_>
          4 12 4 1 2.</_></rects>
      <tilted>0</tilted></_>
    <_>
      <rects>
        <_>
          0 13 1 3 -1.</_>
        <_>
          0 14 1 1 3.</_></rects>
      <tilted>0</tilted></_>
    <_>
