<?xml version="1.0"?>
<opencv_storage>
<stage9>
  <maxWeakCount>30</maxWeakCount>
  <stageThreshold>-1.2104769945144653e+00</stageThreshold>
  <weakClassifiers>
    <_>
      <internalNodes>
        0 -1 88421 -4.0974222123622894e-02</internalNodes>
      <leafValues>
        2.6760563254356384e-01 -3.4665003418922424e-01</leafValues></_>
    <_>
      <internalNodes>
        0 -1 79469 1.1662022210657597e-02</internalNodes>
      <leafValues>
        -1.2673175334930420e-01 4.3464922904968262e-01</leafValues></_>
    <_>
      <internalNodes>
        0 -1 33643 -5.7180449366569519e-02</internalNodes>
      <leafValues>
        3.1943088769912720e-01 -1.5740336477756500e-01</leafValues></_>
    <_>
      <internalNodes>
        0 -1 46084 -1.3567499816417694e-01</internalNodes>
      <leafValues>
        5.5844861268997192e-01 -1.0363996028900146e-01</leafValues></_>
    <_>
      <internalNodes>
        0 -1 92912 6.2312232330441475e-03</internalNodes>
      <leafValues>
        6.9897830486297607e-02 -7.9701316356658936e-01</leafValues></_>
    <_>
      <internalNodes>
        0 -1 92195 -1.0895526036620140e-02</internalNodes>
      <leafValues>
        5.8624041080474854e-01 -6.7891418933868408e-02</leafValues></_>
    <_>
      <internalNodes>
        0 -1 92185 2.4722933303564787e-03</internalNodes>
      <leafValues>
        -1.3389371335506439e-01 3.5609883069992065e-01</leafValues></_>
    <_>
      <internalNodes>
        0 -1 102457 -2.9241070151329041e-02</internalNodes>
      <leafValues>
        3.6062470078468323e-01 -1.4112882316112518e-01</leafValues></_>
    <_>
      <internalNodes>
        0 -1 18619 1.6012199223041534e-02</internalNodes>
      <leafValues>
        -9.0558327734470367e-02 4.5922806859016418e-01</leafValues></_>
    <_>
      <internalNodes>
        0 -1 41671 -1.1839795857667923e-02</internalNodes>
      <leafValues>
        3.7925571203231812e-01 -1.0952465236186981e-01</leafValues></_>
    <_>
      <internalNodes>
        0 -1 25810 3.5460010170936584e-02</internalNodes>
      <leafValues>
        -1.3787484169006348e-01 3.2788828015327454e-01</leafValues></_>
    <_>
      <internalNodes>
        0 -1 105577 2.8760177083313465e-03</internalNodes>
      <leafValues>
        8.7277136743068695e-02 -4.8488125205039978e-01</leafValues></_>
    <_>
      <internalNodes>
        0 -1 98533 -1.6938280314207077e-02</internalNodes>
      <leafValues>
        5.0554233789443970e-01 -8.5724227130413055e-02</leafValues></_>
    <_>
      <internalNodes>
        0 -1 98961 6.6694999113678932e-03</internalNodes>
      <leafValues>
        -1.5703143179416656e-01 3.2946431636810303e-01</leafValues></_>
    <_>
      <internalNodes>
        0 -1 100147 -2.0626336336135864e-03</internalNodes>
      <leafValues>
        -4.5451417565345764e-01 1.0937771946191788e-01</leafValues></_>
    <_>
      <internalNodes>
        0 -1 100422 5.4461896419525146e-02</internalNodes>
      <leafValues>
        -1.4124585688114166e-01 3.1225031614303589e-01</leafValues></_>
    <_>
      <internalNodes>
        0 -1 75182 -6.0337901115417480e-02</internalNodes>
      <leafValues>
        4.6821478009223938e-01 -1.0187186300754547e-01</leafValues></_>
    <_>
      <internalNodes>
        0 -1 5931 -6.5340963192284107e-04</internalNodes>
      <leafValues>
        -3.7714520096778870e-01 1.1384700983762741e-01</leafValues></_>
    <_>
      <internalNodes>
        0 -1 5931 7.7296723611652851e-04</internalNodes>
      <leafValues>
        1.2183851003646851e-01 -4.3127232789993286e-01</leafValues></_>
    <_>
      <internalNodes>
        0 -1 29426 -7.4518029578030109e-03</internalNodes>
      <leafValues>
        5.0031912326812744e-01 -9.8558850586414337e-02</leafValues></_>
    <_>
      <internalNodes>
        0 -1 48645 -1.9609911367297173e-02</internalNodes>
      <leafValues>
        3.5684183239936829e-01 -1.2307030707597733e-01</leafValues></_>
    <_>
      <internalNodes>
        0 -1 91557 -2.1389736502896994e-05</internalNodes>
      <leafValues>
        2.5014522671699524e-01 -1.7695820331573486e-01</leafValues></_>
    <_>
      <internalNodes>
        0 -1 107101 1.0107815265655518e-02</internalNodes>
      <leafValues>
        -1.0300070792436600e-01 4.6573734283447266e-01</leafValues></_>
    <_>
      <internalNodes>
        0 -1 8964 1.8092900514602661e-02</internalNodes>
      <leafValues>
        -1.0958205163478851e-01 4.0760332345962524e-01</leafValues></_>
    <_>
      <internalNodes>
        0 -1 49751 -3.4675545990467072e-02</internalNodes>
      <leafValues>
        5.4046577215194702e-01 -8.1032067537307739e-02</leafValues></_>
    <_>
      <internalNodes>
        0 -1 61262 -3.8711965084075928e-02</internalNodes>
      <leafValues>
        -7.4640858173370361e-01 6.1365071684122086e-02</leafValues></_>
    <_>
      <internalNodes>
        0 -1 73102 3.7357059773057699e-03</internalNodes>
      <leafValues>
        -1.4516887068748474e-01 3.3617916703224182e-01</leafValues></_>
    <_>
      <internalNodes>
        0 -1 78219 3.4194218460470438e-03</internalNodes>
      <leafValues>
        -1.5628516674041748e-01 3.5026204586029053e-01</leafValues></_>
    <_>
      <internalNodes>
        0 -1 27158 1.3413169980049133e-01</internalNodes>
      <leafValues>
        -1.2894648313522339e-01 3.4420517086982727e-01</leafValues></_>
    <_>
      <internalNodes>
        0 -1 77647 -3.3033089712262154e-03</internalNodes>
      <leafValues>
        2.8457370400428772e-01 -1.7260317504405975e-01</leafValues></_></weakClassifiers></stage9>
</opencv_storage>
