<?xml version="1.0"?>
<opencv_storage>
<stage15>
  <maxWeakCount>53</maxWeakCount>
  <stageThreshold>-1.0634922981262207e+00</stageThreshold>
  <weakClassifiers>
    <_>
      <internalNodes>
        0 -1 34 5.9082470834255219e-03</internalNodes>
      <leafValues>
        -3.5837563872337341e-01 6.4516128040850163e-03</leafValues></_>
    <_>
      <internalNodes>
        0 -1 62337 5.1717357710003853e-03</internalNodes>
      <leafValues>
        -1.1509315669536591e-01 2.3266983032226563e-01</leafValues></_>
    <_>
      <internalNodes>
        0 -1 73552 2.7324568945914507e-03</internalNodes>
      <leafValues>
        -8.5173673927783966e-02 3.0058288574218750e-01</leafValues></_>
    <_>
      <internalNodes>
        0 -1 73338 -3.2201616559177637e-03</internalNodes>
      <leafValues>
        3.1903612613677979e-01 -7.9296499490737915e-02</leafValues></_>
    <_>
      <internalNodes>
        0 -1 83818 2.8111973777413368e-02</internalNodes>
      <leafValues>
        3.1333189457654953e-02 -7.9171633720397949e-01</leafValues></_>
    <_>
      <internalNodes>
        0 -1 101523 -3.1683430075645447e-02</internalNodes>
      <leafValues>
        3.0243650078773499e-01 -6.9783449172973633e-02</leafValues></_>
    <_>
      <internalNodes>
        0 -1 9119 4.0564723312854767e-03</internalNodes>
      <leafValues>
        -1.3863556087017059e-01 1.6044664382934570e-01</leafValues></_>
    <_>
      <internalNodes>
        0 -1 17830 -1.7258152365684509e-02</internalNodes>
      <leafValues>
        3.3200889825820923e-01 -6.8406634032726288e-02</leafValues></_>
    <_>
      <internalNodes>
        0 -1 98891 -5.5673224851489067e-03</internalNodes>
      <leafValues>
        2.5050565600395203e-01 -9.5393851399421692e-02</leafValues></_>
    <_>
      <internalNodes>
        0 -1 112746 3.8558626547455788e-03</internalNodes>
      <leafValues>
        1.0325145721435547e-01 -3.0918332934379578e-01</leafValues></_>
    <_>
      <internalNodes>
        0 -1 110043 2.6168406475335360e-03</internalNodes>
      <leafValues>
        -1.2015736848115921e-01 1.9908660650253296e-01</leafValues></_>
    <_>
      <internalNodes>
        0 -1 34467 2.9490103479474783e-03</internalNodes>
      <leafValues>
        -6.5147802233695984e-02 3.1361612677574158e-01</leafValues></_>
    <_>
      <internalNodes>
        0 -1 1815 3.6737879272550344e-03</internalNodes>
      <leafValues>
        5.0648417323827744e-02 -4.2871382832527161e-01</leafValues></_>
    <_>
      <internalNodes>
        0 -1 1772 -1.8634521402418613e-03</internalNodes>
      <leafValues>
        2.6177382469177246e-01 -8.7624967098236084e-02</leafValues></_>
    <_>
      <internalNodes>
        0 -1 21187 1.1742154136300087e-02</internalNodes>
      <leafValues>
        -1.1011654883623123e-01 1.9386158883571625e-01</leafValues></_>
    <_>
      <internalNodes>
        0 -1 37185 -7.4401972815394402e-03</internalNodes>
      <leafValues>
        3.1478145718574524e-01 -9.1334581375122070e-02</leafValues></_>
    <_>
      <internalNodes>
        0 -1 32717 2.5982275605201721e-02</internalNodes>
      <leafValues>
        6.3298717141151428e-02 -3.8103026151657104e-01</leafValues></_>
    <_>
      <internalNodes>
        0 -1 6661 -2.1771952509880066e-02</internalNodes>
      <leafValues>
        -6.4198106527328491e-01 2.5886308401823044e-02</leafValues></_>
    <_>
      <internalNodes>
        0 -1 54383 2.9386940877884626e-03</internalNodes>
      <leafValues>
        -8.6958475410938263e-02 2.5534600019454956e-01</leafValues></_>
    <_>
      <internalNodes>
        0 -1 59808 4.3842680752277374e-03</internalNodes>
      <leafValues>
        -1.3418054580688477e-01 2.0961377024650574e-01</leafValues></_>
    <_>
      <internalNodes>
        0 -1 7878 7.1248700842261314e-03</internalNodes>
      <leafValues>
        -1.0084173828363419e-01 2.3288272321224213e-01</leafValues></_>
    <_>
      <internalNodes>
        0 -1 65540 -8.5395768284797668e-02</internalNodes>
      <leafValues>
        2.7623432874679565e-01 -9.7315460443496704e-02</leafValues></_>
    <_>
      <internalNodes>
        0 -1 107553 -2.2499912884086370e-03</internalNodes>
      <leafValues>
        2.3645563423633575e-01 -1.1075261980295181e-01</leafValues></_>
    <_>
      <internalNodes>
        0 -1 66739 3.2527840230613947e-03</internalNodes>
      <leafValues>
        -9.3654632568359375e-02 2.2736246883869171e-01</leafValues></_>
    <_>
      <internalNodes>
        0 -1 60298 3.1230043619871140e-02</internalNodes>
      <leafValues>
        2.5095839053392410e-02 -7.6913529634475708e-01</leafValues></_>
    <_>
      <internalNodes>
        0 -1 46705 -2.1195452660322189e-02</internalNodes>
      <leafValues>
        -5.0442010164260864e-01 3.5484485328197479e-02</leafValues></_>
    <_>
      <internalNodes>
        0 -1 67047 -5.3071347065269947e-03</internalNodes>
      <leafValues>
        2.2294896841049194e-01 -9.6612848341464996e-02</leafValues></_>
    <_>
      <internalNodes>
        0 -1 42150 7.6248198747634888e-02</internalNodes>
      <leafValues>
        2.1198568865656853e-02 -9.4194048643112183e-01</leafValues></_>
    <_>
      <internalNodes>
        0 -1 99700 2.1692063659429550e-02</internalNodes>
      <leafValues>
        -8.4093779325485229e-02 2.6850163936614990e-01</leafValues></_>
    <_>
      <internalNodes>
        0 -1 112589 -1.1329527478665113e-03</internalNodes>
      <leafValues>
        -2.7242025732994080e-01 8.9056462049484253e-02</leafValues></_>
    <_>
      <internalNodes>
        0 -1 77084 -4.1832379065454006e-03</internalNodes>
      <leafValues>
        2.2076196968555450e-01 -1.0180222243070602e-01</leafValues></_>
    <_>
      <internalNodes>
        0 -1 100071 4.9779461696743965e-03</internalNodes>
      <leafValues>
        4.3889191001653671e-02 -5.5393153429031372e-01</leafValues></_>
    <_>
      <internalNodes>
        0 -1 105736 5.0690341740846634e-03</internalNodes>
      <leafValues>
        -8.5016675293445587e-02 2.5211721658706665e-01</leafValues></_>
    <_>
      <internalNodes>
        0 -1 90994 -1.0725744999945164e-02</internalNodes>
      <leafValues>
        2.5804090499877930e-01 -8.0380499362945557e-02</leafValues></_>
    <_>
      <internalNodes>
        0 -1 112326 -2.0150295458734035e-03</internalNodes>
      <leafValues>
        -3.7891796231269836e-01 6.2263172119855881e-02</leafValues></_>
    <_>
      <internalNodes>
        0 -1 107038 3.8605198264122009e-02</internalNodes>
      <leafValues>
        -5.0641573965549469e-02 4.5458182692527771e-01</leafValues></_>
    <_>
      <internalNodes>
        0 -1 110946 -1.0491291061043739e-02</internalNodes>
      <leafValues>
        2.5466141104698181e-01 -9.6592724323272705e-02</leafValues></_>
    <_>
      <internalNodes>
        0 -1 109661 -4.6856824308633804e-02</internalNodes>
      <leafValues>
        4.7269362211227417e-01 -4.4821746647357941e-02</leafValues></_>
    <_>
      <internalNodes>
        0 -1 290 2.6496283710002899e-02</internalNodes>
      <leafValues>
        -1.1950307339429855e-01 1.9645181298255920e-01</leafValues></_>
    <_>
      <internalNodes>
        0 -1 79451 -2.9517421498894691e-03</internalNodes>
      <leafValues>
        1.8732257187366486e-01 -1.0972618311643600e-01</leafValues></_>
    <_>
      <internalNodes>
        0 -1 3331 1.4835949987173080e-03</internalNodes>
      <leafValues>
        5.9768971055746078e-02 -3.4680211544036865e-01</leafValues></_>
    <_>
      <internalNodes>
        0 -1 4057 1.8194519216194749e-03</internalNodes>
      <leafValues>
        4.4785425066947937e-02 -4.7597846388816833e-01</leafValues></_>
    <_>
      <internalNodes>
        0 -1 79682 -2.5787451304495335e-03</internalNodes>
      <leafValues>
        2.2547768056392670e-01 -9.5432877540588379e-02</leafValues></_>
    <_>
      <internalNodes>
        0 -1 102933 -1.0355819249525666e-03</internalNodes>
      <leafValues>
        1.7922945320606232e-01 -1.0617553442716599e-01</leafValues></_>
    <_>
      <internalNodes>
        0 -1 47437 2.1114859730005264e-02</internalNodes>
      <leafValues>
        3.5368341952562332e-02 -5.3456634283065796e-01</leafValues></_>
    <_>
      <internalNodes>
        0 -1 71562 4.1179284453392029e-03</internalNodes>
      <leafValues>
        -9.0743541717529297e-02 2.1459695696830750e-01</leafValues></_>
    <_>
      <internalNodes>
        0 -1 112836 -2.8816491831094027e-03</internalNodes>
      <leafValues>
        -5.6372749805450439e-01 3.5724192857742310e-02</leafValues></_>
    <_>
      <internalNodes>
        0 -1 105092 -1.8370938487350941e-03</internalNodes>
      <leafValues>
        3.0260899662971497e-01 -6.6310055553913116e-02</leafValues></_>
    <_>
      <internalNodes>
        0 -1 105092 5.3880841005593538e-04</internalNodes>
      <leafValues>
        -9.9336981773376465e-02 2.1131864190101624e-01</leafValues></_>
    <_>
      <internalNodes>
        0 -1 45751 -1.7288800328969955e-02</internalNodes>
      <leafValues>
        -6.5767073631286621e-01 2.8636299073696136e-02</leafValues></_>
    <_>
      <internalNodes>
        0 -1 112821 -1.9940193742513657e-03</internalNodes>
      <leafValues>
        -5.2540719509124756e-01 3.3541683107614517e-02</leafValues></_>
    <_>
      <internalNodes>
        0 -1 107896 6.0103135183453560e-03</internalNodes>
      <leafValues>
        -8.4727063775062561e-02 2.3714965581893921e-01</leafValues></_>
    <_>
      <internalNodes>
        0 -1 107896 -2.6320070028305054e-03</internalNodes>
      <leafValues>
        2.3615308105945587e-01 -1.0880336910486221e-01</leafValues></_></weakClassifiers></stage15>
</opencv_storage>
