<?xml version="1.0"?>
<opencv_storage>
<stage8>
  <maxWeakCount>24</maxWeakCount>
  <stageThreshold>-1.2417489290237427e+00</stageThreshold>
  <weakClassifiers>
    <_>
      <internalNodes>
        0 -1 1870 6.0866367071866989e-02</internalNodes>
      <leafValues>
        -3.6577180027961731e-01 3.3333334326744080e-01</leafValues></_>
    <_>
      <internalNodes>
        0 -1 112813 2.1668081171810627e-03</internalNodes>
      <leafValues>
        7.2126209735870361e-02 -7.3129516839981079e-01</leafValues></_>
    <_>
      <internalNodes>
        0 -1 112813 -1.1973642976954579e-03</internalNodes>
      <leafValues>
        -5.6839275360107422e-01 1.6113556921482086e-01</leafValues></_>
    <_>
      <internalNodes>
        0 -1 86850 -3.2013006508350372e-02</internalNodes>
      <leafValues>
        -6.8450236320495605e-01 6.6351167857646942e-02</leafValues></_>
    <_>
      <internalNodes>
        0 -1 112793 -7.6448335312306881e-04</internalNodes>
      <leafValues>
        -4.3147709965705872e-01 7.4689939618110657e-02</leafValues></_>
    <_>
      <internalNodes>
        0 -1 6483 2.3368601687252522e-03</internalNodes>
      <leafValues>
        1.0617768764495850e-01 -5.7589459419250488e-01</leafValues></_>
    <_>
      <internalNodes>
        0 -1 96032 -4.8083094879984856e-03</internalNodes>
      <leafValues>
        4.1361376643180847e-01 -1.2528322637081146e-01</leafValues></_>
    <_>
      <internalNodes>
        0 -1 95857 6.6001573577523232e-03</internalNodes>
      <leafValues>
        -1.5186139941215515e-01 4.0564477443695068e-01</leafValues></_>
    <_>
      <internalNodes>
        0 -1 96771 3.4982380457222462e-03</internalNodes>
      <leafValues>
        8.1944353878498077e-02 -5.9315192699432373e-01</leafValues></_>
    <_>
      <internalNodes>
        0 -1 84721 -7.3577523231506348e-02</internalNodes>
      <leafValues>
        2.3473586142063141e-01 -1.9768998026847839e-01</leafValues></_>
    <_>
      <internalNodes>
        0 -1 77449 -3.5507805645465851e-02</internalNodes>
      <leafValues>
        -6.9343066215515137e-01 4.2743984609842300e-02</leafValues></_>
    <_>
      <internalNodes>
        0 -1 88503 2.9134329408407211e-02</internalNodes>
      <leafValues>
        8.5394494235515594e-02 -5.5841755867004395e-01</leafValues></_>
    <_>
      <internalNodes>
        0 -1 110657 2.7147434651851654e-02</internalNodes>
      <leafValues>
        -1.0382924228906631e-01 5.6879746913909912e-01</leafValues></_>
    <_>
      <internalNodes>
        0 -1 112105 -1.5142751857638359e-02</internalNodes>
      <leafValues>
        3.8738593459129333e-01 -1.0957040637731552e-01</leafValues></_>
    <_>
      <internalNodes>
        0 -1 6518 -3.2663980964571238e-03</internalNodes>
      <leafValues>
        -6.1551845073699951e-01 7.9783305525779724e-02</leafValues></_>
    <_>
      <internalNodes>
        0 -1 82923 -1.2245914898812771e-02</internalNodes>
      <leafValues>
        4.3720817565917969e-01 -1.0523144900798798e-01</leafValues></_>
    <_>
      <internalNodes>
        0 -1 82645 9.8813585937023163e-03</internalNodes>
      <leafValues>
        -1.2772813439369202e-01 3.5448145866394043e-01</leafValues></_>
    <_>
      <internalNodes>
        0 -1 56151 -1.3205688446760178e-03</internalNodes>
      <leafValues>
        -5.5994457006454468e-01 8.0709196627140045e-02</leafValues></_>
    <_>
      <internalNodes>
        0 -1 107906 4.7197816893458366e-03</internalNodes>
      <leafValues>
        5.6446906179189682e-02 -7.0755052566528320e-01</leafValues></_>
    <_>
      <internalNodes>
        0 -1 70750 -3.3628121018409729e-02</internalNodes>
      <leafValues>
        -7.2695940732955933e-01 5.1151093095541000e-02</leafValues></_>
    <_>
      <internalNodes>
        0 -1 71183 3.6455631256103516e-02</internalNodes>
      <leafValues>
        6.5013870596885681e-02 -6.7462003231048584e-01</leafValues></_>
    <_>
      <internalNodes>
        0 -1 71880 1.1025389656424522e-02</internalNodes>
      <leafValues>
        -1.2808521091938019e-01 3.3922910690307617e-01</leafValues></_>
    <_>
      <internalNodes>
        0 -1 66748 7.2810291312634945e-03</internalNodes>
      <leafValues>
        -1.4466227591037750e-01 3.6018502712249756e-01</leafValues></_>
    <_>
      <internalNodes>
        0 -1 47458 1.5620134770870209e-02</internalNodes>
      <leafValues>
        7.5674988329410553e-02 -7.2099202871322632e-01</leafValues></_></weakClassifiers></stage8>
</opencv_storage>
