<?xml version="1.0"?>
<opencv_storage>
<stage1>
  <maxWeakCount>11</maxWeakCount>
  <stageThreshold>-1.1094141006469727e+00</stageThreshold>
  <weakClassifiers>
    <_>
      <internalNodes>
        0 -1 25856 5.4434001445770264e-02</internalNodes>
      <leafValues>
        -5.1455438137054443e-01 5.3319054841995239e-01</leafValues></_>
    <_>
      <internalNodes>
        0 -1 41034 -5.7937763631343842e-02</internalNodes>
      <leafValues>
        7.0041143894195557e-01 -2.5945413112640381e-01</leafValues></_>
    <_>
      <internalNodes>
        0 -1 126 3.9943858981132507e-02</internalNodes>
      <leafValues>
        -1.6705200076103210e-01 6.9301331043243408e-01</leafValues></_>
    <_>
      <internalNodes>
        0 -1 104455 -3.3621620386838913e-02</internalNodes>
      <leafValues>
        7.5096845626831055e-01 -1.7071814835071564e-01</leafValues></_>
    <_>
      <internalNodes>
        0 -1 106698 3.4814879298210144e-02</internalNodes>
      <leafValues>
        -1.1121470481157303e-01 7.2559517621994019e-01</leafValues></_>
    <_>
      <internalNodes>
        0 -1 101729 2.1074224263429642e-02</internalNodes>
      <leafValues>
        -1.9851438701152802e-01 5.7952356338500977e-01</leafValues></_>
    <_>
      <internalNodes>
        0 -1 65065 -3.9923839271068573e-02</internalNodes>
      <leafValues>
        6.6143739223480225e-01 -1.4546240866184235e-01</leafValues></_>
    <_>
      <internalNodes>
        0 -1 55625 6.7774844355881214e-03</internalNodes>
      <leafValues>
        -1.7791053652763367e-01 5.7036411762237549e-01</leafValues></_>
    <_>
      <internalNodes>
        0 -1 35097 -7.3257222771644592e-02</internalNodes>
      <leafValues>
        6.5732657909393311e-01 -1.5354575216770172e-01</leafValues></_>
    <_>
      <internalNodes>
        0 -1 81598 -3.0633585527539253e-02</internalNodes>
      <leafValues>
        6.9450181722640991e-01 -1.3845674693584442e-01</leafValues></_>
    <_>
      <internalNodes>
        0 -1 28546 1.7772614955902100e-01</internalNodes>
      <leafValues>
        1.7919445037841797e-01 -6.2386828660964966e-01</leafValues></_></weakClassifiers></stage1>
</opencv_storage>
