<?xml version="1.0"?>
<opencv_storage>
<stage7>
  <maxWeakCount>17</maxWeakCount>
  <stageThreshold>-1.3782992362976074e+00</stageThreshold>
  <weakClassifiers>
    <_>
      <internalNodes>
        0 -1 107302 -2.7962075546383858e-02</internalNodes>
      <leafValues>
        2.5045704841613770e-01 -4.8165351152420044e-01</leafValues></_>
    <_>
      <internalNodes>
        0 -1 54034 3.2566201407462358e-03</internalNodes>
      <leafValues>
        -1.9948562979698181e-01 4.5795142650604248e-01</leafValues></_>
    <_>
      <internalNodes>
        0 -1 54044 -4.8380051739513874e-03</internalNodes>
      <leafValues>
        4.4795736670494080e-01 -2.2258815169334412e-01</leafValues></_>
    <_>
      <internalNodes>
        0 -1 54727 1.3628123560920358e-03</internalNodes>
      <leafValues>
        -1.7330975830554962e-01 4.0864282846450806e-01</leafValues></_>
    <_>
      <internalNodes>
        0 -1 62366 9.3624442815780640e-03</internalNodes>
      <leafValues>
        -1.5114107728004456e-01 4.2594340443611145e-01</leafValues></_>
    <_>
      <internalNodes>
        0 -1 102368 6.6371862776577473e-03</internalNodes>
      <leafValues>
        -1.2263435870409012e-01 5.3652906417846680e-01</leafValues></_>
    <_>
      <internalNodes>
        0 -1 98537 9.8624052479863167e-03</internalNodes>
      <leafValues>
        -1.4751881361007690e-01 4.5559668540954590e-01</leafValues></_>
    <_>
      <internalNodes>
        0 -1 95671 7.3234089650213718e-03</internalNodes>
      <leafValues>
        -1.4768068492412567e-01 4.4418877363204956e-01</leafValues></_>
    <_>
      <internalNodes>
        0 -1 91997 2.2248122841119766e-03</internalNodes>
      <leafValues>
        -1.7569710314273834e-01 3.7336924672126770e-01</leafValues></_>
    <_>
      <internalNodes>
        0 -1 34193 -2.7705885469913483e-02</internalNodes>
      <leafValues>
        4.2875039577484131e-01 -1.3981609046459198e-01</leafValues></_>
    <_>
      <internalNodes>
        0 -1 104969 2.6358251925557852e-03</internalNodes>
      <leafValues>
        -1.3429166376590729e-01 4.5268139243125916e-01</leafValues></_>
    <_>
      <internalNodes>
        0 -1 56465 5.8396749198436737e-02</internalNodes>
      <leafValues>
        8.4615223109722137e-02 -6.5560650825500488e-01</leafValues></_>
    <_>
      <internalNodes>
        0 -1 57635 -9.8209567368030548e-02</internalNodes>
      <leafValues>
        -6.3840889930725098e-01 9.2430546879768372e-02</leafValues></_>
    <_>
      <internalNodes>
        0 -1 111242 -4.8635396524332464e-05</internalNodes>
      <leafValues>
        2.3786129057407379e-01 -2.3855780065059662e-01</leafValues></_>
    <_>
      <internalNodes>
        0 -1 92960 -4.1272896341979504e-03</internalNodes>
      <leafValues>
        -6.8156009912490845e-01 8.1321209669113159e-02</leafValues></_>
    <_>
      <internalNodes>
        0 -1 87849 1.8473395612090826e-03</internalNodes>
      <leafValues>
        -2.0530410110950470e-01 2.9214730858802795e-01</leafValues></_>
    <_>
      <internalNodes>
        0 -1 83153 2.3068566806614399e-03</internalNodes>
      <leafValues>
        -1.5535920858383179e-01 3.8289341330528259e-01</leafValues></_></weakClassifiers></stage7>
</opencv_storage>
