<?xml version="1.0"?>
<opencv_storage>
<stage0>
  <maxWeakCount>10</maxWeakCount>
  <stageThreshold>-1.2890514135360718e+00</stageThreshold>
  <weakClassifiers>
    <_>
      <internalNodes>
        0 -1 56135 -1.5413893386721611e-02</internalNodes>
      <leafValues>
        6.0479038953781128e-01 -5.7494258880615234e-01</leafValues></_>
    <_>
      <internalNodes>
        0 -1 665 -4.2943036556243896e-01</internalNodes>
      <leafValues>
        -8.4778898954391479e-01 1.6255645453929901e-01</leafValues></_>
    <_>
      <internalNodes>
        0 -1 22107 2.6782268285751343e-01</internalNodes>
      <leafValues>
        1.3094069063663483e-01 -8.6625373363494873e-01</leafValues></_>
    <_>
      <internalNodes>
        0 -1 8738 -6.8455621600151062e-02</internalNodes>
      <leafValues>
        -6.9245463609695435e-01 1.6113264858722687e-01</leafValues></_>
    <_>
      <internalNodes>
        0 -1 87354 5.4634073749184608e-03</internalNodes>
      <leafValues>
        -1.8354567885398865e-01 6.8129175901412964e-01</leafValues></_>
    <_>
      <internalNodes>
        0 -1 87074 -8.0040935426950455e-03</internalNodes>
      <leafValues>
        7.1438241004943848e-01 -1.7286270856857300e-01</leafValues></_>
    <_>
      <internalNodes>
        0 -1 1010 3.1253568828105927e-02</internalNodes>
      <leafValues>
        -1.4564563333988190e-01 7.0714604854583740e-01</leafValues></_>
    <_>
      <internalNodes>
        0 -1 41696 3.8938838988542557e-02</internalNodes>
      <leafValues>
        -1.2389399111270905e-01 6.8539541959762573e-01</leafValues></_>
    <_>
      <internalNodes>
        0 -1 8701 -2.4694129824638367e-02</internalNodes>
      <leafValues>
        5.6495064496994019e-01 -2.3013801872730255e-01</leafValues></_>
    <_>
      <internalNodes>
        0 -1 25843 1.5688877552747726e-02</internalNodes>
      <leafValues>
        -9.7395777702331543e-02 8.2599741220474243e-01</leafValues></_></weakClassifiers></stage0>
</opencv_storage>
