<?xml version="1.0"?>
<opencv_storage>
<cascade>
  <stageType>BOOST</stageType>
  <featureType>HAAR</featureType>
  <height>24</height>
  <width>24</width>
  <stageParams>
    <boostType>GAB</boostType>
    <minHitRate>9.9500000476837158e-01</minHitRate>
    <maxFalseAlarm>5.0000000000000000e-01</maxFalseAlarm>
    <weightTrimRate>9.4999999999999996e-01</weightTrimRate>
    <maxDepth>1</maxDepth>
    <maxWeakCount>100</maxWeakCount></stageParams>
  <featureParams>
    <maxCatCount>0</maxCatCount>
    <featSize>1</featSize>
    <mode>BASIC</mode></featureParams>
  <stageNum>15</stageNum>
  <stages>
    <!-- stage 0 -->
    <_>
      <maxWeakCount>7</maxWeakCount>
      <stageThreshold>-1.6914420127868652e+00</stageThreshold>
      <weakClassifiers>
        <_>
          <internalNodes>
            0 -1 98 5.5927317589521408e-03</internalNodes>
          <leafValues>
            -6.2389379739761353e-01 4.1592919826507568e-01</leafValues></_>
        <_>
          <internalNodes>
            0 -1 124 -4.3326159939169884e-03</internalNodes>
          <leafValues>
            4.3932187557220459e-01 -4.5404806733131409e-01</leafValues></_>
        <_>
          <internalNodes>
            0 -1 73 2.0582580938935280e-02</internalNodes>
          <leafValues>
            -3.0801251530647278e-01 6.1757910251617432e-01</leafValues></_>
        <_>
          <internalNodes>
            0 -1 16 3.0151890590786934e-02</internalNodes>
          <leafValues>
            -3.7592881917953491e-01 6.1381804943084717e-01</leafValues></_>
        <_>
          <internalNodes>
            0 -1 107 3.3745933324098587e-03</internalNodes>
          <leafValues>
            -2.4612450599670410e-01 7.2126775979995728e-01</leafValues></_>
        <_>
          <internalNodes>
            0 -1 93 1.8798790406435728e-03</internalNodes>
          <leafValues>
            -3.0948352813720703e-01 5.6630337238311768e-01</leafValues></_>
        <_>
          <internalNodes>
            0 -1 13 -9.9579960107803345e-02</internalNodes>
          <leafValues>
            5.7934600114822388e-01 -2.9954233765602112e-01</leafValues></_></weakClassifiers></_>
    <!-- stage 1 -->
    <_>
      <maxWeakCount>7</maxWeakCount>
      <stageThreshold>-1.5361812114715576e+00</stageThreshold>
      <weakClassifiers>
        <_>
          <internalNodes>
            0 -1 65 -3.1605111435055733e-03</internalNodes>
          <leafValues>
            5.0943398475646973e-01 -6.2962961196899414e-01</leafValues></_>
        <_>
          <internalNodes>
            0 -1 66 1.9312552176415920e-03</internalNodes>
          <leafValues>
            -3.9500400424003601e-01 7.0473152399063110e-01</leafValues></_>
        <_>
          <internalNodes>
            0 -1 67 -3.0583143234252930e-03</internalNodes>
          <leafValues>
            7.0679205656051636e-01 -2.6651754975318909e-01</leafValues></_>
        <_>
          <internalNodes>
            0 -1 7 5.4664246272295713e-04</internalNodes>
          <leafValues>
            -4.5472490787506104e-01 5.1674616336822510e-01</leafValues></_>
        <_>
          <internalNodes>
            0 -1 31 -4.0299757383763790e-03</internalNodes>
          <leafValues>
            7.2334760427474976e-01 -2.6866355538368225e-01</leafValues></_>
        <_>
          <internalNodes>
            0 -1 127 -8.8352861348539591e-04</internalNodes>
          <leafValues>
            4.9157479405403137e-01 -3.9201906323432922e-01</leafValues></_>
        <_>
          <internalNodes>
            0 -1 99 9.2234387993812561e-03</internalNodes>
          <leafValues>
            -2.2935795783996582e-01 7.7124714851379395e-01</leafValues></_></weakClassifiers></_>
    <!-- stage 2 -->
    <_>
      <maxWeakCount>5</maxWeakCount>
      <stageThreshold>-7.9555577039718628e-01</stageThreshold>
      <weakClassifiers>
        <_>
          <internalNodes>
            0 -1 15 6.8129420280456543e-02</internalNodes>
          <leafValues>
            -6.2197804450988770e-01 4.3636363744735718e-01</leafValues></_>
        <_>
          <internalNodes>
            0 -1 43 -5.5181726813316345e-02</internalNodes>
          <leafValues>
            5.5597966909408569e-01 -4.1130396723747253e-01</leafValues></_>
        <_>
          <internalNodes>
            0 -1 49 -3.0475389212369919e-02</internalNodes>
          <leafValues>
            7.6089054346084595e-01 -2.7562630176544189e-01</leafValues></_>
        <_>
          <internalNodes>
            0 -1 66 -3.5507762804627419e-03</internalNodes>
          <leafValues>
            8.2365709543228149e-01 -2.5008791685104370e-01</leafValues></_>
        <_>
          <internalNodes>
            0 -1 72 5.4549104534089565e-03</internalNodes>
          <leafValues>
            -2.0384317636489868e-01 8.1102281808853149e-01</leafValues></_></weakClassifiers></_>
    <!-- stage 3 -->
    <_>
      <maxWeakCount>6</maxWeakCount>
      <stageThreshold>-8.2294958829879761e-01</stageThreshold>
      <weakClassifiers>
        <_>
          <internalNodes>
            0 -1 17 1.5968579798936844e-02</internalNodes>
          <leafValues>
            -5.3100776672363281e-01 7.9591834545135498e-01</leafValues></_>
        <_>
          <internalNodes>
            0 -1 54 7.1418453007936478e-03</internalNodes>
          <leafValues>
            -3.4238842129707336e-01 6.4153259992599487e-01</leafValues></_>
        <_>
          <internalNodes>
            0 -1 37 1.1668677441775799e-02</internalNodes>
          <leafValues>
            -1.5050239861011505e-01 8.6893731355667114e-01</leafValues></_>
        <_>
          <internalNodes>
            0 -1 46 2.9912893660366535e-03</internalNodes>
          <leafValues>
            -3.0698081851005554e-01 6.0408413410186768e-01</leafValues></_>
        <_>
          <internalNodes>
            0 -1 119 9.0794023126363754e-03</internalNodes>
          <leafValues>
            -1.8653216958045959e-01 7.4480414390563965e-01</leafValues></_>
        <_>
          <internalNodes>
            0 -1 128 -1.3362843543291092e-02</internalNodes>
          <leafValues>
            6.9446200132369995e-01 -2.1493902802467346e-01</leafValues></_></weakClassifiers></_>
    <!-- stage 4 -->
    <_>
      <maxWeakCount>8</maxWeakCount>
      <stageThreshold>-1.0608130693435669e+00</stageThreshold>
      <weakClassifiers>
        <_>
          <internalNodes>
            0 -1 125 -6.6951528191566467e-02</internalNodes>
          <leafValues>
            4.1304346919059753e-01 -5.7716703414916992e-01</leafValues></_>
        <_>
          <internalNodes>
            0 -1 132 9.2417523264884949e-03</internalNodes>
          <leafValues>
            -2.2968491911888123e-01 7.6097750663757324e-01</leafValues></_>
        <_>
          <internalNodes>
            0 -1 23 -1.7232675105333328e-02</internalNodes>
          <leafValues>
            5.0772964954376221e-01 -2.5523093342781067e-01</leafValues></_>
        <_>
          <internalNodes>
            0 -1 18 2.6403820142149925e-02</internalNodes>
          <leafValues>
            -1.7005200684070587e-01 7.8216612339019775e-01</leafValues></_>
        <_>
          <internalNodes>
            0 -1 4 1.4724075794219971e-02</internalNodes>
          <leafValues>
            -1.5296989679336548e-01 8.5164105892181396e-01</leafValues></_>
        <_>
          <internalNodes>
            0 -1 70 5.0270212814211845e-03</internalNodes>
          <leafValues>
            -1.9666911661624908e-01 5.3428709506988525e-01</leafValues></_>
        <_>
          <internalNodes>
            0 -1 78 6.1296825297176838e-03</internalNodes>
          <leafValues>
            -2.5550413131713867e-01 5.6873691082000732e-01</leafValues></_>
        <_>
          <internalNodes>
            0 -1 133 -1.6607483848929405e-03</internalNodes>
          <leafValues>
            -8.1073665618896484e-01 1.7685316503047943e-01</leafValues></_></weakClassifiers></_>
    <!-- stage 5 -->
    <_>
      <maxWeakCount>8</maxWeakCount>
      <stageThreshold>-1.2177405357360840e+00</stageThreshold>
      <weakClassifiers>
        <_>
          <internalNodes>
            0 -1 39 1.4864182472229004e-01</internalNodes>
          <leafValues>
            -5.4240632057189941e-01 6.8965518474578857e-01</leafValues></_>
        <_>
          <internalNodes>
            0 -1 104 2.4295313283801079e-02</internalNodes>
          <leafValues>
            -3.6048600077629089e-01 4.3354174494743347e-01</leafValues></_>
        <_>
          <internalNodes>
            0 -1 61 -2.7964729815721512e-02</internalNodes>
          <leafValues>
            6.5123212337493896e-01 -2.3360255360603333e-01</leafValues></_>
        <_>
          <internalNodes>
            0 -1 27 -1.0536120086908340e-01</internalNodes>
          <leafValues>
            5.7235330343246460e-01 -2.5598537921905518e-01</leafValues></_>
        <_>
          <internalNodes>
            0 -1 28 5.1692940294742584e-02</internalNodes>
          <leafValues>
            -2.3562347888946533e-01 6.2354809045791626e-01</leafValues></_>
        <_>
          <internalNodes>
            0 -1 134 -1.5057107666507363e-03</internalNodes>
          <leafValues>
            -8.5554391145706177e-01 1.8780316412448883e-01</leafValues></_>
        <_>
          <internalNodes>
            0 -1 100 1.9584711641073227e-02</internalNodes>
          <leafValues>
            1.4537571370601654e-01 -9.2342305183410645e-01</leafValues></_>
        <_>
          <internalNodes>
            0 -1 38 -1.3765979558229446e-02</internalNodes>
          <leafValues>
            -9.1954553127288818e-01 7.7184267342090607e-02</leafValues></_></weakClassifiers></_>
    <!-- stage 6 -->
    <_>
      <maxWeakCount>8</maxWeakCount>
      <stageThreshold>-1.1660665273666382e+00</stageThreshold>
      <weakClassifiers>
        <_>
          <internalNodes>
            0 -1 102 4.2211387306451797e-02</internalNodes>
          <leafValues>
            -5.6431537866592407e-01 4.4578313827514648e-01</leafValues></_>
        <_>
          <internalNodes>
            0 -1 1 1.7915180069394410e-04</internalNodes>
          <leafValues>
            -4.6662408113479614e-01 2.4062035977840424e-01</leafValues></_>
        <_>
          <internalNodes>
            0 -1 63 2.9744140803813934e-02</internalNodes>
          <leafValues>
            1.5311247110366821e-01 -8.0219173431396484e-01</leafValues></_>
        <_>
          <internalNodes>
            0 -1 58 -5.4814983159303665e-03</internalNodes>
          <leafValues>
            8.2682979106903076e-01 -1.7292012274265289e-01</leafValues></_>
        <_>
          <internalNodes>
            0 -1 113 5.4547693580389023e-03</internalNodes>
          <leafValues>
            -3.7381866574287415e-01 3.5248318314552307e-01</leafValues></_>
        <_>
          <internalNodes>
            0 -1 131 7.1515934541821480e-03</internalNodes>
          <leafValues>
            1.6714584827423096e-01 -7.9630839824676514e-01</leafValues></_>
        <_>
          <internalNodes>
            0 -1 91 1.1310368776321411e-02</internalNodes>
          <leafValues>
            -2.0213775336742401e-01 7.7075517177581787e-01</leafValues></_>
        <_>
          <internalNodes>
            0 -1 86 3.9086714386940002e-03</internalNodes>
          <leafValues>
            -1.8475100398063660e-01 7.1915745735168457e-01</leafValues></_></weakClassifiers></_>
    <!-- stage 7 -->
    <_>
      <maxWeakCount>8</maxWeakCount>
      <stageThreshold>-9.0812289714813232e-01</stageThreshold>
      <weakClassifiers>
        <_>
          <internalNodes>
            0 -1 50 4.6454496681690216e-02</internalNodes>
          <leafValues>
            -5.6076759099960327e-01 2.9166665673255920e-01</leafValues></_>
        <_>
          <internalNodes>
            0 -1 40 -2.7248019352555275e-02</internalNodes>
          <leafValues>
            6.0589271783828735e-01 -2.7480471134185791e-01</leafValues></_>
        <_>
          <internalNodes>
            0 -1 94 -1.3865434564650059e-02</internalNodes>
          <leafValues>
            -7.1037268638610840e-01 1.9685165584087372e-01</leafValues></_>
        <_>
          <internalNodes>
            0 -1 97 7.9690031707286835e-03</internalNodes>
          <leafValues>
            -2.5526273250579834e-01 4.9880811572074890e-01</leafValues></_>
        <_>
          <internalNodes>
            0 -1 45 -4.0636267513036728e-02</internalNodes>
          <leafValues>
            -8.4963095188140869e-01 1.8940478563308716e-01</leafValues></_>
        <_>
          <internalNodes>
            0 -1 89 1.9170708954334259e-02</internalNodes>
          <leafValues>
            -2.9996281862258911e-01 4.8506787419319153e-01</leafValues></_>
        <_>
          <internalNodes>
            0 -1 52 -2.4074302054941654e-03</internalNodes>
          <leafValues>
            -6.4891445636749268e-01 1.9843973219394684e-01</leafValues></_>
        <_>
          <internalNodes>
            0 -1 21 -2.2234939970076084e-03</internalNodes>
          <leafValues>
            -8.8705188035964966e-01 1.2735962867736816e-01</leafValues></_></weakClassifiers></_>
    <!-- stage 8 -->
    <_>
      <maxWeakCount>8</maxWeakCount>
      <stageThreshold>-1.0666760206222534e+00</stageThreshold>
      <weakClassifiers>
        <_>
          <internalNodes>
            0 -1 82 -6.8391002714633942e-03</internalNodes>
          <leafValues>
            2.4752475321292877e-01 -5.6034481525421143e-01</leafValues></_>
        <_>
          <internalNodes>
            0 -1 33 4.4352356344461441e-02</internalNodes>
          <leafValues>
            -2.2895921766757965e-01 6.4759814739227295e-01</leafValues></_>
        <_>
          <internalNodes>
            0 -1 51 -1.6661426052451134e-02</internalNodes>
          <leafValues>
            6.9240057468414307e-01 -1.8779590725898743e-01</leafValues></_>
        <_>
          <internalNodes>
            0 -1 10 6.4252857118844986e-03</internalNodes>
          <leafValues>
            2.1389147639274597e-01 -7.0575529336929321e-01</leafValues></_>
        <_>
          <internalNodes>
            0 -1 117 -2.8097997419536114e-03</internalNodes>
          <leafValues>
            -8.7742203474044800e-01 1.5754455327987671e-01</leafValues></_>
        <_>
          <internalNodes>
            0 -1 19 8.8546155020594597e-03</internalNodes>
          <leafValues>
            -4.0492838621139526e-01 2.8683018684387207e-01</leafValues></_>
        <_>
          <internalNodes>
            0 -1 60 -4.6686949208378792e-03</internalNodes>
          <leafValues>
            5.9283638000488281e-01 -2.2096070647239685e-01</leafValues></_>
        <_>
          <internalNodes>
            0 -1 44 1.3508694792108145e-05</internalNodes>
          <leafValues>
            -3.1614169478416443e-01 3.9276519417762756e-01</leafValues></_></weakClassifiers></_>
    <!-- stage 9 -->
    <_>
      <maxWeakCount>10</maxWeakCount>
      <stageThreshold>-1.0828381776809692e+00</stageThreshold>
      <weakClassifiers>
        <_>
          <internalNodes>
            0 -1 109 1.2287110090255737e-02</internalNodes>
          <leafValues>
            -5.0579148530960083e-01 5.7446807622909546e-01</leafValues></_>
        <_>
          <internalNodes>
            0 -1 115 2.7228360995650291e-03</internalNodes>
          <leafValues>
            -3.2302910089492798e-01 5.0684267282485962e-01</leafValues></_>
        <_>
          <internalNodes>
            0 -1 34 1.1859082151204348e-03</internalNodes>
          <leafValues>
            -3.0498656630516052e-01 3.8690763711929321e-01</leafValues></_>
        <_>
          <internalNodes>
            0 -1 36 2.2102552466094494e-03</internalNodes>
          <leafValues>
            1.9739234447479248e-01 -5.4638719558715820e-01</leafValues></_>
        <_>
          <internalNodes>
            0 -1 136 3.7054363638162613e-03</internalNodes>
          <leafValues>
            1.2675872445106506e-01 -8.4087038040161133e-01</leafValues></_>
        <_>
          <internalNodes>
            0 -1 74 3.1813962850719690e-03</internalNodes>
          <leafValues>
            1.2964622676372528e-01 -7.4803471565246582e-01</leafValues></_>
        <_>
          <internalNodes>
            0 -1 135 -8.0949708353728056e-04</internalNodes>
          <leafValues>
            -5.5127167701721191e-01 1.8514557182788849e-01</leafValues></_>
        <_>
          <internalNodes>
            0 -1 111 1.7335896845906973e-03</internalNodes>
          <leafValues>
            -2.6039561629295349e-01 4.2317366600036621e-01</leafValues></_>
        <_>
          <internalNodes>
            0 -1 106 -2.2871112450957298e-03</internalNodes>
          <leafValues>
            5.3626519441604614e-01 -2.3345711827278137e-01</leafValues></_>
        <_>
          <internalNodes>
            0 -1 11 1.6400836175307631e-03</internalNodes>
          <leafValues>
            1.6356994211673737e-01 -7.8601533174514771e-01</leafValues></_></weakClassifiers></_>
    <!-- stage 10 -->
    <_>
      <maxWeakCount>10</maxWeakCount>
      <stageThreshold>-1.1038998365402222e+00</stageThreshold>
      <weakClassifiers>
        <_>
          <internalNodes>
            0 -1 29 7.4572995305061340e-02</internalNodes>
          <leafValues>
            -5.2079206705093384e-01 4.6666666865348816e-01</leafValues></_>
        <_>
          <internalNodes>
            0 -1 80 9.4386748969554901e-03</internalNodes>
          <leafValues>
            -1.8238596618175507e-01 7.2323167324066162e-01</leafValues></_>
        <_>
          <internalNodes>
            0 -1 71 3.2419390045106411e-03</internalNodes>
          <leafValues>
            -1.3373391330242157e-01 7.0247906446456909e-01</leafValues></_>
        <_>
          <internalNodes>
            0 -1 0 2.3570710327476263e-03</internalNodes>
          <leafValues>
            -2.4778333306312561e-01 4.4136020541191101e-01</leafValues></_>
        <_>
          <internalNodes>
            0 -1 112 4.6510505490005016e-04</internalNodes>
          <leafValues>
            1.8400555849075317e-01 -6.5076959133148193e-01</leafValues></_>
        <_>
          <internalNodes>
            0 -1 96 4.1656848043203354e-03</internalNodes>
          <leafValues>
            -2.7349063754081726e-01 4.2761892080307007e-01</leafValues></_>
        <_>
          <internalNodes>
            0 -1 101 -2.3172595538198948e-03</internalNodes>
          <leafValues>
            5.2865809202194214e-01 -2.3548920452594757e-01</leafValues></_>
        <_>
          <internalNodes>
            0 -1 64 7.8576533123850822e-03</internalNodes>
          <leafValues>
            -1.5753619372844696e-01 6.1232745647430420e-01</leafValues></_>
        <_>
          <internalNodes>
            0 -1 57 1.9387842621654272e-03</internalNodes>
          <leafValues>
            -2.0082935690879822e-01 5.1820027828216553e-01</leafValues></_>
        <_>
          <internalNodes>
            0 -1 48 -1.7560224980115891e-02</internalNodes>
          <leafValues>
            -7.5600385665893555e-01 1.5683725476264954e-01</leafValues></_></weakClassifiers></_>
    <!-- stage 11 -->
    <_>
      <maxWeakCount>12</maxWeakCount>
      <stageThreshold>-9.9100744724273682e-01</stageThreshold>
      <weakClassifiers>
        <_>
          <internalNodes>
            0 -1 81 -2.5672253221273422e-02</internalNodes>
          <leafValues>
            7.9365082085132599e-02 -5.5808657407760620e-01</leafValues></_>
        <_>
          <internalNodes>
            0 -1 103 2.4718244094401598e-03</internalNodes>
          <leafValues>
            8.8705360889434814e-02 -7.6004213094711304e-01</leafValues></_>
        <_>
          <internalNodes>
            0 -1 30 -2.2075107321143150e-02</internalNodes>
          <leafValues>
            4.1229569911956787e-01 -2.1658733487129211e-01</leafValues></_>
        <_>
          <internalNodes>
            0 -1 126 -3.9527148008346558e-02</internalNodes>
          <leafValues>
            4.3777385354042053e-01 -2.1901960670948029e-01</leafValues></_>
        <_>
          <internalNodes>
            0 -1 53 -8.3511592820286751e-03</internalNodes>
          <leafValues>
            -4.5395478606224060e-01 2.0175404846668243e-01</leafValues></_>
        <_>
          <internalNodes>
            0 -1 120 2.3818600922822952e-02</internalNodes>
          <leafValues>
            -1.9026029109954834e-01 5.2516335248947144e-01</leafValues></_>
        <_>
          <internalNodes>
            0 -1 59 -3.0470099300146103e-02</internalNodes>
          <leafValues>
            3.3937215805053711e-01 -2.7051556110382080e-01</leafValues></_>
        <_>
          <internalNodes>
            0 -1 76 -2.5102649815380573e-03</internalNodes>
          <leafValues>
            4.6715506911277771e-01 -2.4429233372211456e-01</leafValues></_>
        <_>
          <internalNodes>
            0 -1 5 -2.1869171410799026e-02</internalNodes>
          <leafValues>
            -6.5453624725341797e-01 1.4485779404640198e-01</leafValues></_>
        <_>
          <internalNodes>
            0 -1 118 -2.3987771943211555e-02</internalNodes>
          <leafValues>
            3.8234576582908630e-01 -2.6197490096092224e-01</leafValues></_>
        <_>
          <internalNodes>
            0 -1 123 2.6289006695151329e-02</internalNodes>
          <leafValues>
            -2.0659697055816650e-01 5.9619086980819702e-01</leafValues></_>
        <_>
          <internalNodes>
            0 -1 25 1.9440002739429474e-02</internalNodes>
          <leafValues>
            -1.2149372696876526e-01 6.6077923774719238e-01</leafValues></_></weakClassifiers></_>
    <!-- stage 12 -->
    <_>
      <maxWeakCount>12</maxWeakCount>
      <stageThreshold>-9.7711265087127686e-01</stageThreshold>
      <weakClassifiers>
        <_>
          <internalNodes>
            0 -1 108 1.7566930502653122e-02</internalNodes>
          <leafValues>
            -4.8952379822731018e-01 5.5000001192092896e-01</leafValues></_>
        <_>
          <internalNodes>
            0 -1 79 4.8678357154130936e-02</internalNodes>
          <leafValues>
            4.1276495903730392e-02 -9.4284385442733765e-01</leafValues></_>
        <_>
          <internalNodes>
            0 -1 95 6.2379026785492897e-03</internalNodes>
          <leafValues>
            -2.1091677248477936e-01 4.2236682772636414e-01</leafValues></_>
        <_>
          <internalNodes>
            0 -1 2 2.5641657412052155e-02</internalNodes>
          <leafValues>
            -2.2788581252098083e-01 4.5021927356719971e-01</leafValues></_>
        <_>
          <internalNodes>
            0 -1 69 -4.8947189003229141e-02</internalNodes>
          <leafValues>
            -6.9211000204086304e-01 1.7270523309707642e-01</leafValues></_>
        <_>
          <internalNodes>
            0 -1 14 1.1715836822986603e-01</internalNodes>
          <leafValues>
            -1.5090586245059967e-01 7.4524348974227905e-01</leafValues></_>
        <_>
          <internalNodes>
            0 -1 122 -3.1240883981809020e-04</internalNodes>
          <leafValues>
            2.6985070109367371e-01 -3.2862889766693115e-01</leafValues></_>
        <_>
          <internalNodes>
            0 -1 62 1.8012285232543945e-02</internalNodes>
          <leafValues>
            -1.4620080590248108e-01 5.1565796136856079e-01</leafValues></_>
        <_>
          <internalNodes>
            0 -1 32 -2.3101617116481066e-03</internalNodes>
          <leafValues>
            -5.7373845577239990e-01 1.8898330628871918e-01</leafValues></_>
        <_>
          <internalNodes>
            0 -1 87 -2.4243943335022777e-04</internalNodes>
          <leafValues>
            4.2509242892265320e-01 -2.5435355305671692e-01</leafValues></_>
        <_>
          <internalNodes>
            0 -1 41 -6.4378324896097183e-03</internalNodes>
          <leafValues>
            5.7532548904418945e-01 -1.7744496464729309e-01</leafValues></_>
        <_>
          <internalNodes>
            0 -1 12 9.4295237213373184e-03</internalNodes>
          <leafValues>
            1.3674134016036987e-01 -7.9868423938751221e-01</leafValues></_></weakClassifiers></_>
    <!-- stage 13 -->
    <_>
      <maxWeakCount>16</maxWeakCount>
      <stageThreshold>-1.2963019609451294e+00</stageThreshold>
      <weakClassifiers>
        <_>
          <internalNodes>
            0 -1 8 4.8806168138980865e-02</internalNodes>
          <leafValues>
            -4.9609375000000000e-01 3.5849055647850037e-01</leafValues></_>
        <_>
          <internalNodes>
            0 -1 20 7.0215333253145218e-03</internalNodes>
          <leafValues>
            7.0191204547882080e-02 -8.2551383972167969e-01</leafValues></_>
        <_>
          <internalNodes>
            0 -1 88 -6.1014205217361450e-02</internalNodes>
          <leafValues>
            -8.5795783996582031e-01 1.3327895104885101e-01</leafValues></_>
        <_>
          <internalNodes>
            0 -1 26 4.8671447439119220e-04</internalNodes>
          <leafValues>
            -3.8243350386619568e-01 2.2016336023807526e-01</leafValues></_>
        <_>
          <internalNodes>
            0 -1 42 2.8127212077379227e-02</internalNodes>
          <leafValues>
            -1.2407585978507996e-01 7.9467523097991943e-01</leafValues></_>
        <_>
          <internalNodes>
            0 -1 121 2.0258963108062744e-02</internalNodes>
          <leafValues>
            -1.2854827940464020e-01 5.8793395757675171e-01</leafValues></_>
        <_>
          <internalNodes>
            0 -1 92 2.6764760259538889e-03</internalNodes>
          <leafValues>
            -1.4235796034336090e-01 4.9530288577079773e-01</leafValues></_>
        <_>
          <internalNodes>
            0 -1 83 -4.6058176085352898e-03</internalNodes>
          <leafValues>
            4.7056010365486145e-01 -2.1217833459377289e-01</leafValues></_>
        <_>
          <internalNodes>
            0 -1 85 4.1101844981312752e-03</internalNodes>
          <leafValues>
            -1.7061698436737061e-01 5.0272935628890991e-01</leafValues></_>
        <_>
          <internalNodes>
            0 -1 3 3.0691351741552353e-02</internalNodes>
          <leafValues>
            -2.1986612677574158e-01 4.6804189682006836e-01</leafValues></_>
        <_>
          <internalNodes>
            0 -1 35 2.1537434309720993e-02</internalNodes>
          <leafValues>
            1.2894967198371887e-01 -6.5114116668701172e-01</leafValues></_>
        <_>
          <internalNodes>
            0 -1 24 3.7293829955160618e-03</internalNodes>
          <leafValues>
            -1.5675151348114014e-01 5.7450324296951294e-01</leafValues></_>
        <_>
          <internalNodes>
            0 -1 47 2.9462431557476521e-03</internalNodes>
          <leafValues>
            -2.5151902437210083e-01 3.7132003903388977e-01</leafValues></_>
        <_>
          <internalNodes>
            0 -1 22 4.4086623936891556e-02</internalNodes>
          <leafValues>
            -1.8201439082622528e-01 4.9150374531745911e-01</leafValues></_>
        <_>
          <internalNodes>
            0 -1 84 -7.5752409175038338e-03</internalNodes>
          <leafValues>
            -8.1769514083862305e-01 1.1888010054826736e-01</leafValues></_>
        <_>
          <internalNodes>
            0 -1 9 8.0701662227511406e-04</internalNodes>
          <leafValues>
            1.1625700443983078e-01 -7.2271996736526489e-01</leafValues></_></weakClassifiers></_>
    <!-- stage 14 -->
    <_>
      <maxWeakCount>13</maxWeakCount>
      <stageThreshold>-1.0476689338684082e+00</stageThreshold>
      <weakClassifiers>
        <_>
          <internalNodes>
            0 -1 110 -1.0517303599044681e-03</internalNodes>
          <leafValues>
            5.7851240038871765e-02 -5.4504501819610596e-01</leafValues></_>
        <_>
          <internalNodes>
            0 -1 130 1.1200729757547379e-02</internalNodes>
          <leafValues>
            -1.7586015164852142e-01 5.3173404932022095e-01</leafValues></_>
        <_>
          <internalNodes>
            0 -1 129 7.4751246720552444e-03</internalNodes>
          <leafValues>
            -1.6826844215393066e-01 4.3929949402809143e-01</leafValues></_>
        <_>
          <internalNodes>
            0 -1 116 -4.7643883153796196e-03</internalNodes>
          <leafValues>
            5.5480593442916870e-01 -1.4000444114208221e-01</leafValues></_>
        <_>
          <internalNodes>
            0 -1 55 -1.3691624626517296e-02</internalNodes>
          <leafValues>
            -9.7527331113815308e-01 8.8810697197914124e-02</leafValues></_>
        <_>
          <internalNodes>
            0 -1 114 4.1532353498041630e-03</internalNodes>
          <leafValues>
            -1.5544205904006958e-01 5.7547867298126221e-01</leafValues></_>
        <_>
          <internalNodes>
            0 -1 6 -1.1120751500129700e-02</internalNodes>
          <leafValues>
            4.4021353125572205e-01 -1.8644893169403076e-01</leafValues></_>
        <_>
          <internalNodes>
            0 -1 105 -3.3728932030498981e-03</internalNodes>
          <leafValues>
            -7.5884145498275757e-01 1.0979890078306198e-01</leafValues></_>
        <_>
          <internalNodes>
            0 -1 68 1.7858214676380157e-02</internalNodes>
          <leafValues>
            -1.5051580965518951e-01 5.6268548965454102e-01</leafValues></_>
        <_>
          <internalNodes>
            0 -1 90 -1.6352366656064987e-03</internalNodes>
          <leafValues>
            -1. 8.1795960664749146e-02</leafValues></_>
        <_>
          <internalNodes>
            0 -1 75 2.0616623805835843e-04</internalNodes>
          <leafValues>
            -2.7567020058631897e-01 2.9716247320175171e-01</leafValues></_>
        <_>
          <internalNodes>
            0 -1 77 2.5305366143584251e-03</internalNodes>
          <leafValues>
            -1.9318354129791260e-01 4.3432027101516724e-01</leafValues></_>
        <_>
          <internalNodes>
            0 -1 56 1.9262654706835747e-02</internalNodes>
          <leafValues>
            8.9531511068344116e-02 -9.3551743030548096e-01</leafValues></_></weakClassifiers></_></stages>
  <features>
    <_>
      <rects>
        <_>
          0 0 4 4 -1.</_>
        <_>
          0 0 2 2 2.</_>
        <_>
          2 2 2 2 2.</_></rects>
      <tilted>0</tilted></_>
    <_>
      <rects>
        <_>
          0 0 8 4 -1.</_>
        <_>
          4 0 4 4 2.</_></rects>
      <tilted>0</tilted></_>
    <_>
      <rects>
        <_>
          0 1 6 16 -1.</_>
        <_>
          2 1 2 16 3.</_></rects>
      <tilted>0</tilted></_>
    <_>
      <rects>
        <_>
          0 4 4 20 -1.</_>
        <_>
          2 4 2 20 2.</_></rects>
      <tilted>0</tilted></_>
    <_>
      <rects>
        <_>
          0 6 3 15 -1.</_>
        <_>
          1 6 1 15 3.</_></rects>
      <tilted>0</tilted></_>
    <_>
      <rects>
        <_>
          0 6 2 18 -1.</_>
        <_>
          0 12 2 6 3.</_></rects>
      <tilted>0</tilted></_>
    <_>
      <rects>
        <_>
          0 6 7 6 -1.</_>
        <_>
          0 8 7 2 3.</_></rects>
      <tilted>0</tilted></_>
    <_>
      <rects>
        <_>
          0 7 4 1 -1.</_>
        <_>
          2 7 2 1 2.</_></rects>
      <tilted>0</tilted></_>
    <_>
      <rects>
        <_>
          0 9 6 11 -1.</_>
        <_>
          2 9 2 11 3.</_></rects>
      <tilted>0</tilted></_>
    <_>
      <rects>
        <_>
          0 10 1 3 -1.</_>
        <_>
          0 11 1 1 3.</_></rects>
      <tilted>0</tilted></_>
    <_>
      <rects>
        <_>
          0 10 3 6 -1.</_>
        <_>
          0 13 3 3 2.</_></rects>
      <tilted>0</tilted></_>
    <_>
      <rects>
        <_>
          0 12 2 3 -1.</_>
        <_>
          0 13 2 1 3.</_></rects>
      <tilted>0</tilted></_>
    <_>
      <rects>
        <_>
          0 13 6 4 -1.</_>
        <_>
          0 15 6 2 2.</_></rects>
      <tilted>0</tilted></_>
    <_>
      <rects>
        <_>
          0 16 21 8 -1.</_>
        <_>
          0 20 21 4 2.</_></rects>
      <tilted>0</tilted></_>
    <_>
      <rects>
        <_>
          0 17 22 6 -1.</_>
        <_>
          0 20 22 3 2.</_></rects>
      <tilted>0</tilted></_>
    <_>
      <rects>
        <_>
          1 0 21 9 -1.</_>
        <_>
          1 3 21 3 3.</_></rects>
      <tilted>0</tilted></_>
    <_>
      <rects>
        <_>
          1 2 9 9 -1.</_>
        <_>
          1 5 9 3 3.</_></rects>
      <tilted>0</tilted></_>
    <_>
      <rects>
        <_>
          1 5 2 16 -1.</_>
        <_>
          2 5 1 16 2.</_></rects>
      <tilted>0</tilted></_>
    <_>
      <rects>
        <_>
          1 8 4 10 -1.</_>
        <_>
          3 8 2 10 2.</_></rects>
      <tilted>0</tilted></_>
    <_>
      <rects>
        <_>
          1 8 12 10 -1.</_>
        <_>
          5 8 4 10 3.</_></rects>
      <tilted>0</tilted></_>
    <_>
      <rects>
        <_>
          1 9 2 6 -1.</_>
        <_>
          1 12 2 3 2.</_></rects>
      <tilted>0</tilted></_>
    <_>
      <rects>
        <_>
          1 12 3 2 -1.</_>
        <_>
          1 13 3 1 2.</_></rects>
      <tilted>0</tilted></_>
    <_>
      <rects>
        <_>
          1 16 16 6 -1.</_>
        <_>
          1 19 16 3 2.</_></rects>
      <tilted>0</tilted></_>
    <_>
      <rects>
        <_>
          2 5 6 6 -1.</_>
        <_>
          2 8 6 3 2.</_></rects>
      <tilted>0</tilted></_>
    <_>
      <rects>
        <_>
          2 8 6 3 -1.</_>
        <_>
          2 9 6 1 3.</_></rects>
      <tilted>0</tilted></_>
    <_>
      <rects>
        <_>
          2 10 4 6 -1.</_>
        <_>
          4 10 2 6 2.</_></rects>
      <tilted>0</tilted></_>
    <_>
      <rects>
        <_>
          2 15 6 1 -1.</_>
        <_>
          5 15 3 1 2.</_></rects>
      <tilted>0</tilted></_>
    <_>
      <rects>
        <_>
          2 16 19 8 -1.</_>
        <_>
          2 20 19 4 2.</_></rects>
      <tilted>0</tilted></_>
    <_>
      <rects>
        <_>
          3 15 14 8 -1.</_>
        <_>
          3 19 14 4 2.</_></rects>
      <tilted>0</tilted></_>
    <_>
      <rects>
        <_>
          3 16 13 6 -1.</_>
        <_>
          3 18 13 2 3.</_></rects>
      <tilted>0</tilted></_>
    <_>
      <rects>
        <_>
          4 6 6 6 -1.</_>
        <_>
          4 9 6 3 2.</_></rects>
      <tilted>0</tilted></_>
    <_>
      <rects>
        <_>
          4 9 3 6 -1.</_>
        <_>
          5 9 1 6 3.</_></rects>
      <tilted>0</tilted></_>
    <_>
      <rects>
        <_>
          4 17 3 7 -1.</_>
        <_>
          5 17 1 7 3.</_></rects>
      <tilted>0</tilted></_>
    <_>
      <rects>
        <_>
          4 18 9 6 -1.</_>
        <_>
          4 20 9 2 3.</_></rects>
      <tilted>0</tilted></_>
    <_>
      <rects>
        <_>
          5 0 1 8 -1.</_>
        <_>
          5 4 1 4 2.</_></rects>
      <tilted>0</tilted></_>
    <_>
      <rects>
        <_>
          5 0 15 3 -1.</_>
        <_>
          10 0 5 3 3.</_></rects>
      <tilted>0</tilted></_>
    <_>
      <rects>
        <_>
          5 1 9 1 -1.</_>
        <_>
          8 1 3 1 3.</_></rects>
      <tilted>0</tilted></_>
    <_>
      <rects>
        <_>
          5 7 3 14 -1.</_>
        <_>
          6 7 1 14 3.</_></rects>
      <tilted>0</tilted></_>
    <_>
      <rects>
        <_>
          5 14 16 1 -1.</_>
        <_>
          13 14 8 1 2.</_></rects>
      <tilted>0</tilted></_>
    <_>
      <rects>
        <_>
          5 15 17 9 -1.</_>
        <_>
          5 18 17 3 3.</_></rects>
      <tilted>0</tilted></_>
    <_>
      <rects>
        <_>
          5 16 13 4 -1.</_>
        <_>
          5 18 13 2 2.</_></rects>
      <tilted>0</tilted></_>
    <_>
      <rects>
        <_>
          5 17 2 4 -1.</_>
        <_>
          5 19 2 2 2.</_></rects>
      <tilted>0</tilted></_>
    <_>
      <rects>
        <_>
          5 17 14 4 -1.</_>
        <_>
          5 17 7 2 2.</_>
        <_>
          12 19 7 2 2.</_></rects>
      <tilted>0</tilted></_>
    <_>
      <rects>
        <_>
          5 17 19 6 -1.</_>
        <_>
          5 20 19 3 2.</_></rects>
      <tilted>0</tilted></_>
    <_>
      <rects>
        <_>
          6 1 1 3 -1.</_>
        <_>
          6 2 1 1 3.</_></rects>
      <tilted>0</tilted></_>
    <_>
      <rects>
        <_>
          6 1 8 13 -1.</_>
        <_>
          10 1 4 13 2.</_></rects>
      <tilted>0</tilted></_>
    <_>
      <rects>
        <_>
          6 10 3 4 -1.</_>
        <_>
          7 10 1 4 3.</_></rects>
      <tilted>0</tilted></_>
    <_>
      <rects>
        <_>
          6 10 2 6 -1.</_>
        <_>
          7 10 1 6 2.</_></rects>
      <tilted>0</tilted></_>
    <_>
      <rects>
        <_>
          6 13 9 3 -1.</_>
        <_>
          9 13 3 3 3.</_></rects>
      <tilted>0</tilted></_>
    <_>
      <rects>
        <_>
          6 15 11 6 -1.</_>
        <_>
          6 17 11 2 3.</_></rects>
      <tilted>0</tilted></_>
    <_>
      <rects>
        <_>
          6 16 11 6 -1.</_>
        <_>
          6 18 11 2 3.</_></rects>
      <tilted>0</tilted></_>
    <_>
      <rects>
        <_>
          6 18 6 6 -1.</_>
        <_>
          6 20 6 2 3.</_></rects>
      <tilted>0</tilted></_>
    <_>
      <rects>
        <_>
          7 0 6 2 -1.</_>
        <_>
          9 0 2 2 3.</_></rects>
      <tilted>0</tilted></_>
    <_>
      <rects>
        <_>
          7 7 8 12 -1.</_>
        <_>
          7 7 4 6 2.</_>
        <_>
          11 13 4 6 2.</_></rects>
      <tilted>0</tilted></_>
    <_>
      <rects>
        <_>
          7 8 3 9 -1.</_>
        <_>
          8 8 1 9 3.</_></rects>
      <tilted>0</tilted></_>
    <_>
      <rects>
        <_>
          7 8 6 6 -1.</_>
        <_>
          7 8 3 3 2.</_>
        <_>
          10 11 3 3 2.</_></rects>
      <tilted>0</tilted></_>
    <_>
      <rects>
        <_>
          7 8 6 8 -1.</_>
        <_>
          7 8 3 4 2.</_>
        <_>
          10 12 3 4 2.</_></rects>
      <tilted>0</tilted></_>
    <_>
      <rects>
        <_>
          7 12 3 1 -1.</_>
        <_>
          8 12 1 1 3.</_></rects>
      <tilted>0</tilted></_>
    <_>
      <rects>
        <_>
          7 12 3 2 -1.</_>
        <_>
          8 12 1 2 3.</_></rects>
      <tilted>0</tilted></_>
    <_>
      <rects>
        <_>
          7 13 16 9 -1.</_>
        <_>
          15 13 8 9 2.</_></rects>
      <tilted>0</tilted></_>
    <_>
      <rects>
        <_>
          7 16 3 3 -1.</_>
        <_>
          7 17 3 1 3.</_></rects>
      <tilted>0</tilted></_>
    <_>
      <rects>
        <_>
          7 16 7 6 -1.</_>
        <_>
          7 18 7 2 3.</_></rects>
      <tilted>0</tilted></_>
    <_>
      <rects>
        <_>
          7 18 4 6 -1.</_>
        <_>
          7 20 4 2 3.</_></rects>
      <tilted>0</tilted></_>
    <_>
      <rects>
        <_>
          8 4 8 11 -1.</_>
        <_>
          12 4 4 11 2.</_></rects>
      <tilted>0</tilted></_>
    <_>
      <rects>
        <_>
          8 8 3 10 -1.</_>
        <_>
          9 8 1 10 3.</_></rects>
      <tilted>0</tilted></_>
    <_>
      <rects>
        <_>
          8 12 3 3 -1.</_>
        <_>
          9 12 1 3 3.</_></rects>
      <tilted>0</tilted></_>
    <_>
      <rects>
        <_>
          8 13 3 2 -1.</_>
        <_>
          9 13 1 2 3.</_></rects>
      <tilted>0</tilted></_>
    <_>
      <rects>
        <_>
          8 16 4 3 -1.</_>
        <_>
          8 17 4 1 3.</_></rects>
      <tilted>0</tilted></_>
    <_>
      <rects>
        <_>
          8 16 16 4 -1.</_>
        <_>
          8 16 8 2 2.</_>
        <_>
          16 18 8 2 2.</_></rects>
      <tilted>0</tilted></_>
    <_>
      <rects>
        <_>
          9 5 12 16 -1.</_>
        <_>
          13 5 4 16 3.</_></rects>
      <tilted>0</tilted></_>
    <_>
      <rects>
        <_>
          9 10 3 9 -1.</_>
        <_>
          10 10 1 9 3.</_></rects>
      <tilted>0</tilted></_>
    <_>
      <rects>
        <_>
          9 14 3 1 -1.</_>
        <_>
          10 14 1 1 3.</_></rects>
      <tilted>0</tilted></_>
    <_>
      <rects>
        <_>
          9 16 8 3 -1.</_>
        <_>
          9 17 8 1 3.</_></rects>
      <tilted>0</tilted></_>
    <_>
      <rects>
        <_>
          9 17 8 6 -1.</_>
        <_>
          9 19 8 2 3.</_></rects>
      <tilted>0</tilted></_>
    <_>
      <rects>
        <_>
          9 20 4 4 -1.</_>
        <_>
          9 20 2 2 2.</_>
        <_>
          11 22 2 2 2.</_></rects>
      <tilted>0</tilted></_>
    <_>
      <rects>
        <_>
          10 4 2 4 -1.</_>
        <_>
          10 4 1 2 2.</_>
        <_>
          11 6 1 2 2.</_></rects>
      <tilted>0</tilted></_>
    <_>
      <rects>
        <_>
          10 6 5 3 -1.</_>
        <_>
          10 7 5 1 3.</_></rects>
      <tilted>0</tilted></_>
    <_>
      <rects>
        <_>
          10 7 2 8 -1.</_>
        <_>
          10 7 1 4 2.</_>
        <_>
          11 11 1 4 2.</_></rects>
      <tilted>0</tilted></_>
    <_>
      <rects>
        <_>
          10 8 3 12 -1.</_>
        <_>
          11 8 1 12 3.</_></rects>
      <tilted>0</tilted></_>
    <_>
      <rects>
        <_>
          10 8 9 16 -1.</_>
        <_>
          13 8 3 16 3.</_></rects>
      <tilted>0</tilted></_>
    <_>
      <rects>
        <_>
          10 12 3 5 -1.</_>
        <_>
          11 12 1 5 3.</_></rects>
      <tilted>0</tilted></_>
    <_>
      <rects>
        <_>
          10 14 8 6 -1.</_>
        <_>
          10 16 8 2 3.</_></rects>
      <tilted>0</tilted></_>
    <_>
      <rects>
        <_>
          10 15 6 3 -1.</_>
        <_>
          10 16 6 1 3.</_></rects>
      <tilted>0</tilted></_>
    <_>
      <rects>
        <_>
          11 8 8 3 -1.</_>
        <_>
          11 9 8 1 3.</_></rects>
      <tilted>0</tilted></_>
    <_>
      <rects>
        <_>
          11 10 6 4 -1.</_>
        <_>
          11 10 3 2 2.</_>
        <_>
          14 12 3 2 2.</_></rects>
      <tilted>0</tilted></_>
    <_>
      <rects>
        <_>
          11 11 3 3 -1.</_>
        <_>
          12 11 1 3 3.</_></rects>
      <tilted>0</tilted></_>
    <_>
      <rects>
        <_>
          11 12 3 3 -1.</_>
        <_>
          12 12 1 3 3.</_></rects>
      <tilted>0</tilted></_>
    <_>
      <rects>
        <_>
          11 15 2 2 -1.</_>
        <_>
          11 15 1 1 2.</_>
        <_>
          12 16 1 1 2.</_></rects>
      <tilted>0</tilted></_>
    <_>
      <rects>
        <_>
          11 15 10 9 -1.</_>
        <_>
          16 15 5 9 2.</_></rects>
      <tilted>0</tilted></_>
    <_>
      <rects>
        <_>
          11 18 7 6 -1.</_>
        <_>
          11 20 7 2 3.</_></rects>
      <tilted>0</tilted></_>
    <_>
      <rects>
        <_>
          11 20 3 1 -1.</_>
        <_>
          12 20 1 1 3.</_></rects>
      <tilted>0</tilted></_>
    <_>
      <rects>
        <_>
          12 10 3 6 -1.</_>
        <_>
          13 10 1 6 3.</_></rects>
      <tilted>0</tilted></_>
    <_>
      <rects>
        <_>
          12 11 2 3 -1.</_>
        <_>
          13 11 1 3 2.</_></rects>
      <tilted>0</tilted></_>
    <_>
      <rects>
        <_>
          12 13 3 3 -1.</_>
        <_>
          13 13 1 3 3.</_></rects>
      <tilted>0</tilted></_>
    <_>
      <rects>
        <_>
          12 19 9 5 -1.</_>
        <_>
          15 19 3 5 3.</_></rects>
      <tilted>0</tilted></_>
    <_>
      <rects>
        <_>
          13 5 3 18 -1.</_>
        <_>
          14 5 1 18 3.</_></rects>
      <tilted>0</tilted></_>
    <_>
      <rects>
        <_>
          13 7 3 14 -1.</_>
        <_>
          14 7 1 14 3.</_></rects>
      <tilted>0</tilted></_>
    <_>
      <rects>
        <_>
          13 8 3 9 -1.</_>
        <_>
          14 8 1 9 3.</_></rects>
      <tilted>0</tilted></_>
    <_>
      <rects>
        <_>
          13 9 3 7 -1.</_>
        <_>
          14 9 1 7 3.</_></rects>
      <tilted>0</tilted></_>
    <_>
      <rects>
        <_>
          13 12 3 7 -1.</_>
        <_>
          14 12 1 7 3.</_></rects>
      <tilted>0</tilted></_>
    <_>
      <rects>
        <_>
          13 12 6 11 -1.</_>
        <_>
          16 12 3 11 2.</_></rects>
      <tilted>0</tilted></_>
    <_>
      <rects>
        <_>
          13 13 3 2 -1.</_>
        <_>
          14 13 1 2 3.</_></rects>
      <tilted>0</tilted></_>
    <_>
      <rects>
        <_>
          13 17 8 6 -1.</_>
        <_>
          13 19 8 2 3.</_></rects>
      <tilted>0</tilted></_>
    <_>
      <rects>
        <_>
          13 20 3 3 -1.</_>
        <_>
          14 20 1 3 3.</_></rects>
      <tilted>0</tilted></_>
    <_>
      <rects>
        <_>
          14 2 8 9 -1.</_>
        <_>
          14 5 8 3 3.</_></rects>
      <tilted>0</tilted></_>
    <_>
      <rects>
        <_>
          14 6 6 1 -1.</_>
        <_>
          16 6 2 1 3.</_></rects>
      <tilted>0</tilted></_>
    <_>
      <rects>
        <_>
          14 10 3 2 -1.</_>
        <_>
          15 10 1 2 3.</_></rects>
      <tilted>0</tilted></_>
    <_>
      <rects>
        <_>
          14 10 3 3 -1.</_>
        <_>
          15 10 1 3 3.</_></rects>
      <tilted>0</tilted></_>
    <_>
      <rects>
        <_>
          14 10 3 7 -1.</_>
        <_>
          15 10 1 7 3.</_></rects>
      <tilted>0</tilted></_>
    <_>
      <rects>
        <_>
          14 11 3 5 -1.</_>
        <_>
          15 11 1 5 3.</_></rects>
      <tilted>0</tilted></_>
    <_>
      <rects>
        <_>
          14 12 2 1 -1.</_>
        <_>
          15 12 1 1 2.</_></rects>
      <tilted>0</tilted></_>
    <_>
      <rects>
        <_>
          14 12 3 5 -1.</_>
        <_>
          15 12 1 5 3.</_></rects>
      <tilted>0</tilted></_>
    <_>
      <rects>
        <_>
          14 23 2 1 -1.</_>
        <_>
          15 23 1 1 2.</_></rects>
      <tilted>0</tilted></_>
    <_>
      <rects>
        <_>
          15 2 3 9 -1.</_>
        <_>
          15 5 3 3 3.</_></rects>
      <tilted>0</tilted></_>
    <_>
      <rects>
        <_>
          15 12 3 2 -1.</_>
        <_>
          16 12 1 2 3.</_></rects>
      <tilted>0</tilted></_>
    <_>
      <rects>
        <_>
          15 12 2 5 -1.</_>
        <_>
          16 12 1 5 2.</_></rects>
      <tilted>0</tilted></_>
    <_>
      <rects>
        <_>
          15 13 3 2 -1.</_>
        <_>
          16 13 1 2 3.</_></rects>
      <tilted>0</tilted></_>
    <_>
      <rects>
        <_>
          15 21 3 3 -1.</_>
        <_>
          16 21 1 3 3.</_></rects>
      <tilted>0</tilted></_>
    <_>
      <rects>
        <_>
          16 4 5 12 -1.</_>
        <_>
          16 10 5 6 2.</_></rects>
      <tilted>0</tilted></_>
    <_>
      <rects>
        <_>
          16 9 3 11 -1.</_>
        <_>
          17 9 1 11 3.</_></rects>
      <tilted>0</tilted></_>
    <_>
      <rects>
        <_>
          16 9 8 10 -1.</_>
        <_>
          20 9 4 10 2.</_></rects>
      <tilted>0</tilted></_>
    <_>
      <rects>
        <_>
          16 14 5 6 -1.</_>
        <_>
          16 16 5 2 3.</_></rects>
      <tilted>0</tilted></_>
    <_>
      <rects>
        <_>
          16 18 1 4 -1.</_>
        <_>
          16 20 1 2 2.</_></rects>
      <tilted>0</tilted></_>
    <_>
      <rects>
        <_>
          17 1 3 12 -1.</_>
        <_>
          17 7 3 6 2.</_></rects>
      <tilted>0</tilted></_>
    <_>
      <rects>
        <_>
          18 4 6 3 -1.</_>
        <_>
          21 4 3 3 2.</_></rects>
      <tilted>0</tilted></_>
    <_>
      <rects>
        <_>
          18 6 6 16 -1.</_>
        <_>
          21 6 3 16 2.</_></rects>
      <tilted>0</tilted></_>
    <_>
      <rects>
        <_>
          18 7 6 16 -1.</_>
        <_>
          21 7 3 16 2.</_></rects>
      <tilted>0</tilted></_>
    <_>
      <rects>
        <_>
          18 8 6 1 -1.</_>
        <_>
          21 8 3 1 2.</_></rects>
      <tilted>0</tilted></_>
    <_>
      <rects>
        <_>
          20 12 4 6 -1.</_>
        <_>
          22 12 2 6 2.</_></rects>
      <tilted>0</tilted></_>
    <_>
      <rects>
        <_>
          20 16 4 8 -1.</_>
        <_>
          20 16 2 4 2.</_>
        <_>
          22 20 2 4 2.</_></rects>
      <tilted>0</tilted></_>
    <_>
      <rects>
        <_>
          21 10 3 9 -1.</_>
        <_>
          22 10 1 9 3.</_></rects>
      <tilted>0</tilted></_>
    <_>
      <rects>
        <_>
          21 11 3 6 -1.</_>
        <_>
          21 13 3 2 3.</_></rects>
      <tilted>0</tilted></_>
    <_>
      <rects>
        <_>
          21 12 3 6 -1.</_>
        <_>
          22 12 1 6 3.</_></rects>
      <tilted>0</tilted></_>
    <_>
      <rects>
        <_>
          21 12 2 3 -1.</_>
        <_>
          21 13 2 1 3.</_></rects>
      <tilted>0</tilted></_>
    <_>
      <rects>
        <_>
          22 13 2 3 -1.</_>
        <_>
          22 14 2 1 3.</_></rects>
      <tilted>0</tilted></_>
    <_>
      <rects>
        <_>
          23 16 1 4 -1.</_>
        <_>
          23 18 1 2 2.</_></rects>
      <tilted>0</tilted></_>
    <_>
      <rects>
        <_>
          23 16 1 6 -1.</_>
        <_>
          23 19 1 3 2.</_></rects>
      <tilted>0</tilted></_></features></cascade>
</opencv_storage>
