<?xml version="1.0"?>
<opencv_storage>
<stage8>
  <maxWeakCount>18</maxWeakCount>
  <stageThreshold>-1.2348849773406982e+00</stageThreshold>
  <weakClassifiers>
    <_>
      <internalNodes>
        0 -1 1846 2.0654810592532158e-02</internalNodes>
      <leafValues>
        -4.6394094824790955e-01 2.1706864237785339e-01</leafValues></_>
    <_>
      <internalNodes>
        0 -1 60864 -5.5364854633808136e-03</internalNodes>
      <leafValues>
        5.8110123872756958e-01 -1.5051798522472382e-01</leafValues></_>
    <_>
      <internalNodes>
        0 -1 60864 2.7078236453235149e-03</internalNodes>
      <leafValues>
        -2.3291519284248352e-01 4.3758985400199890e-01</leafValues></_>
    <_>
      <internalNodes>
        0 -1 102457 -2.9783805832266808e-02</internalNodes>
      <leafValues>
        4.9841758608818054e-01 -1.2347595393657684e-01</leafValues></_>
    <_>
      <internalNodes>
        0 -1 83153 -6.0081901028752327e-03</internalNodes>
      <leafValues>
        5.5648094415664673e-01 -1.3651248812675476e-01</leafValues></_>
    <_>
      <internalNodes>
        0 -1 83158 3.5710535012185574e-03</internalNodes>
      <leafValues>
        -1.6687433421611786e-01 4.7584724426269531e-01</leafValues></_>
    <_>
      <internalNodes>
        0 -1 112561 -1.2831238564103842e-03</internalNodes>
      <leafValues>
        -4.2416983842849731e-01 1.3830438256263733e-01</leafValues></_>
    <_>
      <internalNodes>
        0 -1 112821 9.8685570992529392e-04</internalNodes>
      <leafValues>
        1.3638792932033539e-01 -5.0022137165069580e-01</leafValues></_>
    <_>
      <internalNodes>
        0 -1 83477 2.2549849003553391e-02</internalNodes>
      <leafValues>
        7.5415849685668945e-02 -8.4362941980361938e-01</leafValues></_>
    <_>
      <internalNodes>
        0 -1 99149 8.1914737820625305e-03</internalNodes>
      <leafValues>
        -1.6128714382648468e-01 4.1881230473518372e-01</leafValues></_>
    <_>
      <internalNodes>
        0 -1 99299 -3.1004170887172222e-03</internalNodes>
      <leafValues>
        5.9633684158325195e-01 -1.2116394937038422e-01</leafValues></_>
    <_>
      <internalNodes>
        0 -1 6099 2.0486056804656982e-02</internalNodes>
      <leafValues>
        1.0848698765039444e-01 -6.4798617362976074e-01</leafValues></_>
    <_>
      <internalNodes>
        0 -1 72545 3.7713604979217052e-03</internalNodes>
      <leafValues>
        -1.7420284450054169e-01 3.4927621483802795e-01</leafValues></_>
    <_>
      <internalNodes>
        0 -1 72545 -5.0365398637950420e-03</internalNodes>
      <leafValues>
        4.5232868194580078e-01 -1.5767315030097961e-01</leafValues></_>
    <_>
      <internalNodes>
        0 -1 112374 3.9330814033746719e-03</internalNodes>
      <leafValues>
        9.4095863401889801e-02 -6.5890425443649292e-01</leafValues></_>
    <_>
      <internalNodes>
        0 -1 3331 2.4931505322456360e-03</internalNodes>
      <leafValues>
        7.1658223867416382e-02 -7.0094060897827148e-01</leafValues></_>
    <_>
      <internalNodes>
        0 -1 2583 1.1719183530658484e-03</internalNodes>
      <leafValues>
        1.0280915349721909e-01 -4.7450357675552368e-01</leafValues></_>
    <_>
      <internalNodes>
        0 -1 67157 3.2729327678680420e-02</internalNodes>
      <leafValues>
        6.3406623899936676e-02 -7.7096974849700928e-01</leafValues></_></weakClassifiers></stage8>
</opencv_storage>
