<?xml version="1.0"?>
<opencv_storage>
<stage9>
  <maxWeakCount>10</maxWeakCount>
  <stageThreshold>-1.0828381776809692e+00</stageThreshold>
  <weakClassifiers>
    <_>
      <internalNodes>
        0 -1 137640 1.2287110090255737e-02</internalNodes>
      <leafValues>
        -5.0579148530960083e-01 5.7446807622909546e-01</leafValues></_>
    <_>
      <internalNodes>
        0 -1 142844 2.7228360995650291e-03</internalNodes>
      <leafValues>
        -3.2302910089492798e-01 5.0684267282485962e-01</leafValues></_>
    <_>
      <internalNodes>
        0 -1 60452 1.1859082151204348e-03</internalNodes>
      <leafValues>
        -3.0498656630516052e-01 3.8690763711929321e-01</leafValues></_>
    <_>
      <internalNodes>
        0 -1 61436 2.2102552466094494e-03</internalNodes>
      <leafValues>
        1.9739234447479248e-01 -5.4638719558715820e-01</leafValues></_>
    <_>
      <internalNodes>
        0 -1 162315 3.7054363638162613e-03</internalNodes>
      <leafValues>
        1.2675872445106506e-01 -8.4087038040161133e-01</leafValues></_>
    <_>
      <internalNodes>
        0 -1 106583 3.1813962850719690e-03</internalNodes>
      <leafValues>
        1.2964622676372528e-01 -7.4803471565246582e-01</leafValues></_>
    <_>
      <internalNodes>
        0 -1 162313 -8.0949708353728056e-04</internalNodes>
      <leafValues>
        -5.5127167701721191e-01 1.8514557182788849e-01</leafValues></_>
    <_>
      <internalNodes>
        0 -1 137874 1.7335896845906973e-03</internalNodes>
      <leafValues>
        -2.6039561629295349e-01 4.2317366600036621e-01</leafValues></_>
    <_>
      <internalNodes>
        0 -1 137368 -2.2871112450957298e-03</internalNodes>
      <leafValues>
        5.3626519441604614e-01 -2.3345711827278137e-01</leafValues></_>
    <_>
      <internalNodes>
        0 -1 10051 1.6400836175307631e-03</internalNodes>
      <leafValues>
        1.6356994211673737e-01 -7.8601533174514771e-01</leafValues></_></weakClassifiers></stage9>
</opencv_storage>
