<?xml version="1.0"?>
<opencv_storage>
<stage13>
  <maxWeakCount>16</maxWeakCount>
  <stageThreshold>-1.2963019609451294e+00</stageThreshold>
  <weakClassifiers>
    <_>
      <internalNodes>
        0 -1 8225 4.8806168138980865e-02</internalNodes>
      <leafValues>
        -4.9609375000000000e-01 3.5849055647850037e-01</leafValues></_>
    <_>
      <internalNodes>
        0 -1 20995 7.0215333253145218e-03</internalNodes>
      <leafValues>
        7.0191204547882080e-02 -8.2551383972167969e-01</leafValues></_>
    <_>
      <internalNodes>
        0 -1 120493 -6.1014205217361450e-02</internalNodes>
      <leafValues>
        -8.5795783996582031e-01 1.3327895104885101e-01</leafValues></_>
    <_>
      <internalNodes>
        0 -1 36304 4.8671447439119220e-04</internalNodes>
      <leafValues>
        -3.8243350386619568e-01 2.2016336023807526e-01</leafValues></_>
    <_>
      <internalNodes>
        0 -1 69966 2.8127212077379227e-02</internalNodes>
      <leafValues>
        -1.2407585978507996e-01 7.9467523097991943e-01</leafValues></_>
    <_>
      <internalNodes>
        0 -1 147665 2.0258963108062744e-02</internalNodes>
      <leafValues>
        -1.2854827940464020e-01 5.8793395757675171e-01</leafValues></_>
    <_>
      <internalNodes>
        0 -1 126072 2.6764760259538889e-03</internalNodes>
      <leafValues>
        -1.4235796034336090e-01 4.9530288577079773e-01</leafValues></_>
    <_>
      <internalNodes>
        0 -1 118548 -4.6058176085352898e-03</internalNodes>
      <leafValues>
        4.7056010365486145e-01 -2.1217833459377289e-01</leafValues></_>
    <_>
      <internalNodes>
        0 -1 119310 4.1101844981312752e-03</internalNodes>
      <leafValues>
        -1.7061698436737061e-01 5.0272935628890991e-01</leafValues></_>
    <_>
      <internalNodes>
        0 -1 4210 3.0691351741552353e-02</internalNodes>
      <leafValues>
        -2.1986612677574158e-01 4.6804189682006836e-01</leafValues></_>
    <_>
      <internalNodes>
        0 -1 60768 2.1537434309720993e-02</internalNodes>
      <leafValues>
        1.2894967198371887e-01 -6.5114116668701172e-01</leafValues></_>
    <_>
      <internalNodes>
        0 -1 32808 3.7293829955160618e-03</internalNodes>
      <leafValues>
        -1.5675151348114014e-01 5.7450324296951294e-01</leafValues></_>
    <_>
      <internalNodes>
        0 -1 77346 2.9462431557476521e-03</internalNodes>
      <leafValues>
        -2.5151902437210083e-01 3.7132003903388977e-01</leafValues></_>
    <_>
      <internalNodes>
        0 -1 24687 4.4086623936891556e-02</internalNodes>
      <leafValues>
        -1.8201439082622528e-01 4.9150374531745911e-01</leafValues></_>
    <_>
      <internalNodes>
        0 -1 119074 -7.5752409175038338e-03</internalNodes>
      <leafValues>
        -8.1769514083862305e-01 1.1888010054826736e-01</leafValues></_>
    <_>
      <internalNodes>
        0 -1 8811 8.0701662227511406e-04</internalNodes>
      <leafValues>
        1.1625700443983078e-01 -7.2271996736526489e-01</leafValues></_></weakClassifiers></stage13>
</opencv_storage>
