<?xml version="1.0"?>
<opencv_storage>
<stage1>
  <maxWeakCount>7</maxWeakCount>
  <stageThreshold>-1.5361812114715576e+00</stageThreshold>
  <weakClassifiers>
    <_>
      <internalNodes>
        0 -1 96434 -3.1605111435055733e-03</internalNodes>
      <leafValues>
        5.0943398475646973e-01 -6.2962961196899414e-01</leafValues></_>
    <_>
      <internalNodes>
        0 -1 96793 1.9312552176415920e-03</internalNodes>
      <leafValues>
        -3.9500400424003601e-01 7.0473152399063110e-01</leafValues></_>
    <_>
      <internalNodes>
        0 -1 97737 -3.0583143234252930e-03</internalNodes>
      <leafValues>
        7.0679205656051636e-01 -2.6651754975318909e-01</leafValues></_>
    <_>
      <internalNodes>
        0 -1 6715 5.4664246272295713e-04</internalNodes>
      <leafValues>
        -4.5472490787506104e-01 5.1674616336822510e-01</leafValues></_>
    <_>
      <internalNodes>
        0 -1 56163 -4.0299757383763790e-03</internalNodes>
      <leafValues>
        7.2334760427474976e-01 -2.6866355538368225e-01</leafValues></_>
    <_>
      <internalNodes>
        0 -1 153842 -8.8352861348539591e-04</internalNodes>
      <leafValues>
        4.9157479405403137e-01 -3.9201906323432922e-01</leafValues></_>
    <_>
      <internalNodes>
        0 -1 132343 9.2234387993812561e-03</internalNodes>
      <leafValues>
        -2.2935795783996582e-01 7.7124714851379395e-01</leafValues></_></weakClassifiers></stage1>
</opencv_storage>
