<?xml version="1.0"?>
<opencv_storage>
<stage11>
  <maxWeakCount>12</maxWeakCount>
  <stageThreshold>-9.9100744724273682e-01</stageThreshold>
  <weakClassifiers>
    <_>
      <internalNodes>
        0 -1 113276 -2.5672253221273422e-02</internalNodes>
      <leafValues>
        7.9365082085132599e-02 -5.5808657407760620e-01</leafValues></_>
    <_>
      <internalNodes>
        0 -1 133600 2.4718244094401598e-03</internalNodes>
      <leafValues>
        8.8705360889434814e-02 -7.6004213094711304e-01</leafValues></_>
    <_>
      <internalNodes>
        0 -1 54561 -2.2075107321143150e-02</internalNodes>
      <leafValues>
        4.1229569911956787e-01 -2.1658733487129211e-01</leafValues></_>
    <_>
      <internalNodes>
        0 -1 153695 -3.9527148008346558e-02</internalNodes>
      <leafValues>
        4.3777385354042053e-01 -2.1901960670948029e-01</leafValues></_>
    <_>
      <internalNodes>
        0 -1 85463 -8.3511592820286751e-03</internalNodes>
      <leafValues>
        -4.5395478606224060e-01 2.0175404846668243e-01</leafValues></_>
    <_>
      <internalNodes>
        0 -1 146788 2.3818600922822952e-02</internalNodes>
      <leafValues>
        -1.9026029109954834e-01 5.2516335248947144e-01</leafValues></_>
    <_>
      <internalNodes>
        0 -1 88154 -3.0470099300146103e-02</internalNodes>
      <leafValues>
        3.3937215805053711e-01 -2.7051556110382080e-01</leafValues></_>
    <_>
      <internalNodes>
        0 -1 110358 -2.5102649815380573e-03</internalNodes>
      <leafValues>
        4.6715506911277771e-01 -2.4429233372211456e-01</leafValues></_>
    <_>
      <internalNodes>
        0 -1 5920 -2.1869171410799026e-02</internalNodes>
      <leafValues>
        -6.5453624725341797e-01 1.4485779404640198e-01</leafValues></_>
    <_>
      <internalNodes>
        0 -1 145570 -2.3987771943211555e-02</internalNodes>
      <leafValues>
        3.8234576582908630e-01 -2.6197490096092224e-01</leafValues></_>
    <_>
      <internalNodes>
        0 -1 148767 2.6289006695151329e-02</internalNodes>
      <leafValues>
        -2.0659697055816650e-01 5.9619086980819702e-01</leafValues></_>
    <_>
      <internalNodes>
        0 -1 33883 1.9440002739429474e-02</internalNodes>
      <leafValues>
        -1.2149372696876526e-01 6.6077923774719238e-01</leafValues></_></weakClassifiers></stage11>
</opencv_storage>
