<?xml version="1.0"?>
<opencv_storage>
<stage2>
  <maxWeakCount>5</maxWeakCount>
  <stageThreshold>-7.9555577039718628e-01</stageThreshold>
  <weakClassifiers>
    <_>
      <internalNodes>
        0 -1 14361 6.8129420280456543e-02</internalNodes>
      <leafValues>
        -6.2197804450988770e-01 4.3636363744735718e-01</leafValues></_>
    <_>
      <internalNodes>
        0 -1 70053 -5.5181726813316345e-02</internalNodes>
      <leafValues>
        5.5597966909408569e-01 -4.1130396723747253e-01</leafValues></_>
    <_>
      <internalNodes>
        0 -1 79573 -3.0475389212369919e-02</internalNodes>
      <leafValues>
        7.6089054346084595e-01 -2.7562630176544189e-01</leafValues></_>
    <_>
      <internalNodes>
        0 -1 96793 -3.5507762804627419e-03</internalNodes>
      <leafValues>
        8.2365709543228149e-01 -2.5008791685104370e-01</leafValues></_>
    <_>
      <internalNodes>
        0 -1 106048 5.4549104534089565e-03</internalNodes>
      <leafValues>
        -2.0384317636489868e-01 8.1102281808853149e-01</leafValues></_></weakClassifiers></stage2>
</opencv_storage>
