<?xml version="1.0"?>
<opencv_storage>
<stage12>
  <maxWeakCount>12</maxWeakCount>
  <stageThreshold>-9.7711265087127686e-01</stageThreshold>
  <weakClassifiers>
    <_>
      <internalNodes>
        0 -1 137391 1.7566930502653122e-02</internalNodes>
      <leafValues>
        -4.8952379822731018e-01 5.5000001192092896e-01</leafValues></_>
    <_>
      <internalNodes>
        0 -1 111170 4.8678357154130936e-02</internalNodes>
      <leafValues>
        4.1276495903730392e-02 -9.4284385442733765e-01</leafValues></_>
    <_>
      <internalNodes>
        0 -1 130228 6.2379026785492897e-03</internalNodes>
      <leafValues>
        -2.1091677248477936e-01 4.2236682772636414e-01</leafValues></_>
    <_>
      <internalNodes>
        0 -1 1239 2.5641657412052155e-02</internalNodes>
      <leafValues>
        -2.2788581252098083e-01 4.5021927356719971e-01</leafValues></_>
    <_>
      <internalNodes>
        0 -1 101926 -4.8947189003229141e-02</internalNodes>
      <leafValues>
        -6.9211000204086304e-01 1.7270523309707642e-01</leafValues></_>
    <_>
      <internalNodes>
        0 -1 12517 1.1715836822986603e-01</internalNodes>
      <leafValues>
        -1.5090586245059967e-01 7.4524348974227905e-01</leafValues></_>
    <_>
      <internalNodes>
        0 -1 148032 -3.1240883981809020e-04</internalNodes>
      <leafValues>
        2.6985070109367371e-01 -3.2862889766693115e-01</leafValues></_>
    <_>
      <internalNodes>
        0 -1 89309 1.8012285232543945e-02</internalNodes>
      <leafValues>
        -1.4620080590248108e-01 5.1565796136856079e-01</leafValues></_>
    <_>
      <internalNodes>
        0 -1 59509 -2.3101617116481066e-03</internalNodes>
      <leafValues>
        -5.7373845577239990e-01 1.8898330628871918e-01</leafValues></_>
    <_>
      <internalNodes>
        0 -1 120362 -2.4243943335022777e-04</internalNodes>
      <leafValues>
        4.2509242892265320e-01 -2.5435355305671692e-01</leafValues></_>
    <_>
      <internalNodes>
        0 -1 69855 -6.4378324896097183e-03</internalNodes>
      <leafValues>
        5.7532548904418945e-01 -1.7744496464729309e-01</leafValues></_>
    <_>
      <internalNodes>
        0 -1 10741 9.4295237213373184e-03</internalNodes>
      <leafValues>
        1.3674134016036987e-01 -7.9868423938751221e-01</leafValues></_></weakClassifiers></stage12>
</opencv_storage>
