<?xml version="1.0"?>
<opencv_storage>
<stage3>
  <maxWeakCount>13</maxWeakCount>
  <stageThreshold>-1.4393706321716309e+00</stageThreshold>
  <weakClassifiers>
    <_>
      <internalNodes>
        0 -1 48233 -4.0519449859857559e-02</internalNodes>
      <leafValues>
        6.1561560630798340e-01 -4.6009150147438049e-01</leafValues></_>
    <_>
      <internalNodes>
        0 -1 21502 3.3611953258514404e-02</internalNodes>
      <leafValues>
        -2.1049596369266510e-01 7.1131408214569092e-01</leafValues></_>
    <_>
      <internalNodes>
        0 -1 1740 2.8234053403139114e-02</internalNodes>
      <leafValues>
        -2.3592336475849152e-01 5.5944120883941650e-01</leafValues></_>
    <_>
      <internalNodes>
        0 -1 63520 -1.8026020377874374e-02</internalNodes>
      <leafValues>
        6.0100454092025757e-01 -2.0300935208797455e-01</leafValues></_>
    <_>
      <internalNodes>
        0 -1 79153 8.1200972199440002e-03</internalNodes>
      <leafValues>
        -1.2018699198961258e-01 6.9231039285659790e-01</leafValues></_>
    <_>
      <internalNodes>
        0 -1 48427 8.0489646643400192e-03</internalNodes>
      <leafValues>
        -1.7050692439079285e-01 5.9888261556625366e-01</leafValues></_>
    <_>
      <internalNodes>
        0 -1 120 3.7282079458236694e-02</internalNodes>
      <leafValues>
        -1.6192066669464111e-01 5.7115364074707031e-01</leafValues></_>
    <_>
      <internalNodes>
        0 -1 71878 1.1203423142433167e-02</internalNodes>
      <leafValues>
        -1.3535062968730927e-01 6.4609622955322266e-01</leafValues></_>
    <_>
      <internalNodes>
        0 -1 71882 -1.2285673990845680e-02</internalNodes>
      <leafValues>
        6.9299238920211792e-01 -1.4725975692272186e-01</leafValues></_>
    <_>
      <internalNodes>
        0 -1 68507 1.1094835586845875e-02</internalNodes>
      <leafValues>
        -1.2496828287839890e-01 6.1182636022567749e-01</leafValues></_>
    <_>
      <internalNodes>
        0 -1 96514 -4.0063746273517609e-03</internalNodes>
      <leafValues>
        5.2174359560012817e-01 -1.7370869219303131e-01</leafValues></_>
    <_>
      <internalNodes>
        0 -1 48483 6.1970286071300507e-02</internalNodes>
      <leafValues>
        -1.5076485276222229e-01 6.6203433275222778e-01</leafValues></_>
    <_>
      <internalNodes>
        0 -1 18249 -8.8608890771865845e-02</internalNodes>
      <leafValues>
        -8.4863871335983276e-01 1.1802171170711517e-01</leafValues></_></weakClassifiers></stage3>
</opencv_storage>
