<?xml version="1.0"?>
<opencv_storage>
<stage4>
  <maxWeakCount>8</maxWeakCount>
  <stageThreshold>-1.0608130693435669e+00</stageThreshold>
  <weakClassifiers>
    <_>
      <internalNodes>
        0 -1 153501 -6.6951528191566467e-02</internalNodes>
      <leafValues>
        4.1304346919059753e-01 -5.7716703414916992e-01</leafValues></_>
    <_>
      <internalNodes>
        0 -1 160844 9.2417523264884949e-03</internalNodes>
      <leafValues>
        -2.2968491911888123e-01 7.6097750663757324e-01</leafValues></_>
    <_>
      <internalNodes>
        0 -1 30657 -1.7232675105333328e-02</internalNodes>
      <leafValues>
        5.0772964954376221e-01 -2.5523093342781067e-01</leafValues></_>
    <_>
      <internalNodes>
        0 -1 20352 2.6403820142149925e-02</internalNodes>
      <leafValues>
        -1.7005200684070587e-01 7.8216612339019775e-01</leafValues></_>
    <_>
      <internalNodes>
        0 -1 5885 1.4724075794219971e-02</internalNodes>
      <leafValues>
        -1.5296989679336548e-01 8.5164105892181396e-01</leafValues></_>
    <_>
      <internalNodes>
        0 -1 104047 5.0270212814211845e-03</internalNodes>
      <leafValues>
        -1.9666911661624908e-01 5.3428709506988525e-01</leafValues></_>
    <_>
      <internalNodes>
        0 -1 111056 6.1296825297176838e-03</internalNodes>
      <leafValues>
        -2.5550413131713867e-01 5.6873691082000732e-01</leafValues></_>
    <_>
      <internalNodes>
        0 -1 160859 -1.6607483848929405e-03</internalNodes>
      <leafValues>
        -8.1073665618896484e-01 1.7685316503047943e-01</leafValues></_></weakClassifiers></stage4>
</opencv_storage>
