<?xml version="1.0"?>
<opencv_storage>
<stage8>
  <maxWeakCount>16</maxWeakCount>
  <stageThreshold>-1.0945693254470825e+00</stageThreshold>
  <weakClassifiers>
    <_>
      <internalNodes>
        0 -1 55976 -5.2388429641723633e-02</internalNodes>
      <leafValues>
        2.0000000298023224e-01 -4.7796609997749329e-01</leafValues></_>
    <_>
      <internalNodes>
        0 -1 41690 4.1118483990430832e-02</internalNodes>
      <leafValues>
        -1.9589629769325256e-01 6.1159670352935791e-01</leafValues></_>
    <_>
      <internalNodes>
        0 -1 27057 2.5780856609344482e-02</internalNodes>
      <leafValues>
        -1.5824931859970093e-01 4.4507572054862976e-01</leafValues></_>
    <_>
      <internalNodes>
        0 -1 41454 -3.0824348330497742e-02</internalNodes>
      <leafValues>
        5.3801804780960083e-01 -1.2150187045335770e-01</leafValues></_>
    <_>
      <internalNodes>
        0 -1 48492 4.5737493783235550e-02</internalNodes>
      <leafValues>
        -1.2585362792015076e-01 5.3596884012222290e-01</leafValues></_>
    <_>
      <internalNodes>
        0 -1 18705 -1.0273947566747665e-01</internalNodes>
      <leafValues>
        5.7478046417236328e-01 -8.3040058612823486e-02</leafValues></_>
    <_>
      <internalNodes>
        0 -1 29853 7.6230496168136597e-02</internalNodes>
      <leafValues>
        -9.3752980232238770e-02 6.3659912347793579e-01</leafValues></_>
    <_>
      <internalNodes>
        0 -1 112540 1.3239921536296606e-03</internalNodes>
      <leafValues>
        9.5384128391742706e-02 -6.9842135906219482e-01</leafValues></_>
    <_>
      <internalNodes>
        0 -1 2531 2.6140224933624268e-01</internalNodes>
      <leafValues>
        -1.3502787053585052e-01 4.3597456812858582e-01</leafValues></_>
    <_>
      <internalNodes>
        0 -1 71871 -7.8606400638818741e-03</internalNodes>
      <leafValues>
        5.1127016544342041e-01 -1.2249270826578140e-01</leafValues></_>
    <_>
      <internalNodes>
        0 -1 71493 4.2720246128737926e-03</internalNodes>
      <leafValues>
        -1.8268848955631256e-01 3.3616045117378235e-01</leafValues></_>
    <_>
      <internalNodes>
        0 -1 91815 -2.2872611880302429e-02</internalNodes>
      <leafValues>
        7.8548520803451538e-01 -7.3789559304714203e-02</leafValues></_>
    <_>
      <internalNodes>
        0 -1 60296 -2.5261607021093369e-02</internalNodes>
      <leafValues>
        -5.9057468175888062e-01 1.1432868242263794e-01</leafValues></_>
    <_>
      <internalNodes>
        0 -1 112374 3.2813088037073612e-03</internalNodes>
      <leafValues>
        8.7684907019138336e-02 -7.0498323440551758e-01</leafValues></_>
    <_>
      <internalNodes>
        0 -1 3412 1.1979011818766594e-02</internalNodes>
      <leafValues>
        -1.9661882519721985e-01 3.0322369933128357e-01</leafValues></_>
    <_>
      <internalNodes>
        0 -1 60956 5.6920377537608147e-03</internalNodes>
      <leafValues>
        8.0422453582286835e-02 -6.2803733348846436e-01</leafValues></_></weakClassifiers></stage8>
</opencv_storage>
