<?xml version="1.0"?>
<opencv_storage>
<stage4>
  <maxWeakCount>16</maxWeakCount>
  <stageThreshold>-1.2915264368057251e+00</stageThreshold>
  <weakClassifiers>
    <_>
      <internalNodes>
        0 -1 109948 -3.6662299185991287e-02</internalNodes>
      <leafValues>
        2.1714285016059875e-01 -5.0086957216262817e-01</leafValues></_>
    <_>
      <internalNodes>
        0 -1 68185 3.1238775700330734e-02</internalNodes>
      <leafValues>
        -2.0066964626312256e-01 4.8435434699058533e-01</leafValues></_>
    <_>
      <internalNodes>
        0 -1 976 2.2438645828515291e-03</internalNodes>
      <leafValues>
        -2.7130663394927979e-01 3.2729074358940125e-01</leafValues></_>
    <_>
      <internalNodes>
        0 -1 104969 2.8201139066368341e-03</internalNodes>
      <leafValues>
        -1.4983081817626953e-01 5.9543573856353760e-01</leafValues></_>
    <_>
      <internalNodes>
        0 -1 101468 1.1339985765516758e-02</internalNodes>
      <leafValues>
        -1.1517360806465149e-01 5.8238548040390015e-01</leafValues></_>
    <_>
      <internalNodes>
        0 -1 55197 4.3052174150943756e-02</internalNodes>
      <leafValues>
        -1.0852303355932236e-01 5.8796226978302002e-01</leafValues></_>
    <_>
      <internalNodes>
        0 -1 99152 1.0736938565969467e-02</internalNodes>
      <leafValues>
        -1.1484118551015854e-01 5.4865467548370361e-01</leafValues></_>
    <_>
      <internalNodes>
        0 -1 70525 3.5110886674374342e-03</internalNodes>
      <leafValues>
        -1.9468370079994202e-01 3.4421297907829285e-01</leafValues></_>
    <_>
      <internalNodes>
        0 -1 100113 -1.4904935378581285e-03</internalNodes>
      <leafValues>
        -5.6651574373245239e-01 1.2379033863544464e-01</leafValues></_>
    <_>
      <internalNodes>
        0 -1 98539 -1.3103540986776352e-02</internalNodes>
      <leafValues>
        5.4864329099655151e-01 -1.3456934690475464e-01</leafValues></_>
    <_>
      <internalNodes>
        0 -1 56229 -1.3557438738644123e-02</internalNodes>
      <leafValues>
        -8.1339502334594727e-01 9.4770461320877075e-02</leafValues></_>
    <_>
      <internalNodes>
        0 -1 14349 2.8434388339519501e-02</internalNodes>
      <leafValues>
        -1.3720658421516418e-01 5.8315807580947876e-01</leafValues></_>
    <_>
      <internalNodes>
        0 -1 72545 4.6493583358824253e-03</internalNodes>
      <leafValues>
        -1.5267206728458405e-01 4.5550212264060974e-01</leafValues></_>
    <_>
      <internalNodes>
        0 -1 73097 -3.8410229608416557e-03</internalNodes>
      <leafValues>
        6.6141349077224731e-01 -1.3556328415870667e-01</leafValues></_>
    <_>
      <internalNodes>
        0 -1 74623 -4.2443920392543077e-04</internalNodes>
      <leafValues>
        2.7169361710548401e-01 -3.1741520762443542e-01</leafValues></_>
    <_>
      <internalNodes>
        0 -1 5438 -1.9223242998123169e-02</internalNodes>
      <leafValues>
        5.2043187618255615e-01 -1.7172175645828247e-01</leafValues></_></weakClassifiers></stage4>
</opencv_storage>
