<?xml version="1.0"?>
<opencv_storage>
<stage7>
  <maxWeakCount>16</maxWeakCount>
  <stageThreshold>-1.1673963069915771e+00</stageThreshold>
  <weakClassifiers>
    <_>
      <internalNodes>
        0 -1 3430 4.9051366746425629e-02</internalNodes>
      <leafValues>
        -4.5709827542304993e-01 3.9449542760848999e-01</leafValues></_>
    <_>
      <internalNodes>
        0 -1 5971 3.0449088662862778e-03</internalNodes>
      <leafValues>
        1.0078302025794983e-01 -6.8831306695938110e-01</leafValues></_>
    <_>
      <internalNodes>
        0 -1 88979 -3.7245377898216248e-03</internalNodes>
      <leafValues>
        -8.2571870088577271e-01 8.2226544618606567e-02</leafValues></_>
    <_>
      <internalNodes>
        0 -1 112813 2.1970430389046669e-03</internalNodes>
      <leafValues>
        1.1448995769023895e-01 -7.5172513723373413e-01</leafValues></_>
    <_>
      <internalNodes>
        0 -1 112813 -1.4735829317942262e-03</internalNodes>
      <leafValues>
        -7.1345210075378418e-01 1.1948578804731369e-01</leafValues></_>
    <_>
      <internalNodes>
        0 -1 109122 2.1090086549520493e-02</internalNodes>
      <leafValues>
        -1.1127341538667679e-01 7.1052223443984985e-01</leafValues></_>
    <_>
      <internalNodes>
        0 -1 100371 2.5249367579817772e-02</internalNodes>
      <leafValues>
        -1.7206759750843048e-01 3.7148812413215637e-01</leafValues></_>
    <_>
      <internalNodes>
        0 -1 26610 -8.8064605370163918e-03</internalNodes>
      <leafValues>
        -5.1519763469696045e-01 1.3299424946308136e-01</leafValues></_>
    <_>
      <internalNodes>
        0 -1 82461 -2.3665059357881546e-02</internalNodes>
      <leafValues>
        -6.9132304191589355e-01 7.7157251536846161e-02</leafValues></_>
    <_>
      <internalNodes>
        0 -1 54211 -2.1972766146063805e-02</internalNodes>
      <leafValues>
        -7.8186124563217163e-01 6.4224079251289368e-02</leafValues></_>
    <_>
      <internalNodes>
        0 -1 74260 -2.6764697395265102e-03</internalNodes>
      <leafValues>
        -6.7684429883956909e-01 7.5844690203666687e-02</leafValues></_>
    <_>
      <internalNodes>
        0 -1 83587 -3.5510312300175428e-03</internalNodes>
      <leafValues>
        5.4928123950958252e-01 -1.2198849022388458e-01</leafValues></_>
    <_>
      <internalNodes>
        0 -1 83158 3.6542266607284546e-03</internalNodes>
      <leafValues>
        -1.5504206717014313e-01 3.7060448527336121e-01</leafValues></_>
    <_>
      <internalNodes>
        0 -1 51104 2.9851049184799194e-03</internalNodes>
      <leafValues>
        6.6737197339534760e-02 -7.9253596067428589e-01</leafValues></_>
    <_>
      <internalNodes>
        0 -1 90126 1.5330071619246155e-05</internalNodes>
      <leafValues>
        -2.4128495156764984e-01 2.5010660290718079e-01</leafValues></_>
    <_>
      <internalNodes>
        0 -1 62322 -7.7149081043899059e-03</internalNodes>
      <leafValues>
        -6.3262021541595459e-01 1.0350102931261063e-01</leafValues></_></weakClassifiers></stage7>
</opencv_storage>
