<?xml version="1.0"?>
<opencv_storage>
<stage19>
  <maxWeakCount>38</maxWeakCount>
  <stageThreshold>-1.0405409336090088e+00</stageThreshold>
  <weakClassifiers>
    <_>
      <internalNodes>
        0 -1 100130 -1.3013659045100212e-02</internalNodes>
      <leafValues>
        1.0588235408067703e-01 -3.8947367668151855e-01</leafValues></_>
    <_>
      <internalNodes>
        0 -1 59838 2.3631939664483070e-02</internalNodes>
      <leafValues>
        1.4687860384583473e-02 -7.9625099897384644e-01</leafValues></_>
    <_>
      <internalNodes>
        0 -1 88890 8.8972412049770355e-03</internalNodes>
      <leafValues>
        -6.3540279865264893e-02 3.8688114285469055e-01</leafValues></_>
    <_>
      <internalNodes>
        0 -1 67113 3.2710023224353790e-02</internalNodes>
      <leafValues>
        3.6150999367237091e-02 -7.0354020595550537e-01</leafValues></_>
    <_>
      <internalNodes>
        0 -1 39711 -5.6102410890161991e-03</internalNodes>
      <leafValues>
        4.0210697054862976e-01 -5.2765883505344391e-02</leafValues></_>
    <_>
      <internalNodes>
        0 -1 40097 6.1491522938013077e-03</internalNodes>
      <leafValues>
        -8.5541822016239166e-02 3.6267596483230591e-01</leafValues></_>
    <_>
      <internalNodes>
        0 -1 112731 -9.7063463181257248e-03</internalNodes>
      <leafValues>
        -8.6406564712524414e-01 4.0620986372232437e-02</leafValues></_>
    <_>
      <internalNodes>
        0 -1 45231 8.5877992212772369e-02</internalNodes>
      <leafValues>
        2.9743848368525505e-02 -8.5104268789291382e-01</leafValues></_>
    <_>
      <internalNodes>
        0 -1 30575 5.8492841199040413e-03</internalNodes>
      <leafValues>
        -1.4085064828395844e-01 1.8126903474330902e-01</leafValues></_>
    <_>
      <internalNodes>
        0 -1 51430 -1.5409365296363831e-01</internalNodes>
      <leafValues>
        -9.6676957607269287e-01 2.3697940632700920e-02</leafValues></_>
    <_>
      <internalNodes>
        0 -1 5155 -2.1957229077816010e-01</internalNodes>
      <leafValues>
        8.3378267288208008e-01 -3.9649449288845062e-02</leafValues></_>
    <_>
      <internalNodes>
        0 -1 80715 -1.0284954309463501e-01</internalNodes>
      <leafValues>
        -7.2637611627578735e-01 3.7823114544153214e-02</leafValues></_>
    <_>
      <internalNodes>
        0 -1 33733 6.0829925350844860e-03</internalNodes>
      <leafValues>
        -1.7300975322723389e-01 1.3868489861488342e-01</leafValues></_>
    <_>
      <internalNodes>
        0 -1 15878 -1.8567945808172226e-02</internalNodes>
      <leafValues>
        3.1975230574607849e-01 -8.8079474866390228e-02</leafValues></_>
    <_>
      <internalNodes>
        0 -1 61834 -1.3937762938439846e-02</internalNodes>
      <leafValues>
        3.6626192927360535e-01 -7.7788867056369781e-02</leafValues></_>
    <_>
      <internalNodes>
        0 -1 55820 -1.2505386956036091e-02</internalNodes>
      <leafValues>
        2.3333175480365753e-01 -1.1438916623592377e-01</leafValues></_>
    <_>
      <internalNodes>
        0 -1 109313 6.3199717551469803e-03</internalNodes>
      <leafValues>
        -7.5933173298835754e-02 3.6186316609382629e-01</leafValues></_>
    <_>
      <internalNodes>
        0 -1 102948 -1.8848137930035591e-02</internalNodes>
      <leafValues>
        -7.5001293420791626e-01 3.4500889480113983e-02</leafValues></_>
    <_>
      <internalNodes>
        0 -1 88268 2.7254503220319748e-03</internalNodes>
      <leafValues>
        -1.0295593738555908e-01 2.9327714443206787e-01</leafValues></_>
    <_>
      <internalNodes>
        0 -1 61228 -1.1064061895012856e-02</internalNodes>
      <leafValues>
        -3.9369261264801025e-01 7.2888255119323730e-02</leafValues></_>
    <_>
      <internalNodes>
        0 -1 25118 7.4053765274584293e-03</internalNodes>
      <leafValues>
        -1.3763169944286346e-01 2.3701913654804230e-01</leafValues></_>
    <_>
      <internalNodes>
        0 -1 102045 1.9804995972663164e-03</internalNodes>
      <leafValues>
        -1.1768767982721329e-01 2.3363752663135529e-01</leafValues></_>
    <_>
      <internalNodes>
        0 -1 98537 8.5132457315921783e-03</internalNodes>
      <leafValues>
        -1.3198620080947876e-01 2.6896968483924866e-01</leafValues></_>
    <_>
      <internalNodes>
        0 -1 93009 5.3600799292325974e-03</internalNodes>
      <leafValues>
        5.2789490669965744e-02 -5.7401651144027710e-01</leafValues></_>
    <_>
      <internalNodes>
        0 -1 48729 1.0284622199833393e-02</internalNodes>
      <leafValues>
        3.3762317150831223e-02 -7.3685628175735474e-01</leafValues></_>
    <_>
      <internalNodes>
        0 -1 110187 -4.2072318494319916e-02</internalNodes>
      <leafValues>
        2.4076625704765320e-01 -1.2248294055461884e-01</leafValues></_>
    <_>
      <internalNodes>
        0 -1 100181 -1.2511268258094788e-02</internalNodes>
      <leafValues>
        2.4803189933300018e-01 -1.1341287195682526e-01</leafValues></_>
    <_>
      <internalNodes>
        0 -1 15322 1.0749199427664280e-03</internalNodes>
      <leafValues>
        6.0353718698024750e-02 -4.2806696891784668e-01</leafValues></_>
    <_>
      <internalNodes>
        0 -1 35122 3.0271556973457336e-01</internalNodes>
      <leafValues>
        -6.5773040056228638e-02 4.5652970671653748e-01</leafValues></_>
    <_>
      <internalNodes>
        0 -1 111745 2.1676300093531609e-03</internalNodes>
      <leafValues>
        7.2270110249519348e-02 -4.6142414212226868e-01</leafValues></_>
    <_>
      <internalNodes>
        0 -1 45333 8.5780993103981018e-03</internalNodes>
      <leafValues>
        -9.5732562243938446e-02 3.5591992735862732e-01</leafValues></_>
    <_>
      <internalNodes>
        0 -1 52359 -2.4918399285525084e-03</internalNodes>
      <leafValues>
        2.3415011167526245e-01 -1.2686181068420410e-01</leafValues></_>
    <_>
      <internalNodes>
        0 -1 77047 -1.6802877187728882e-02</internalNodes>
      <leafValues>
        -4.2435416579246521e-01 6.3548952341079712e-02</leafValues></_>
    <_>
      <internalNodes>
        0 -1 103052 -1.2166559463366866e-03</internalNodes>
      <leafValues>
        1.9276106357574463e-01 -1.4924590289592743e-01</leafValues></_>
    <_>
      <internalNodes>
        0 -1 110369 1.1066377628594637e-03</internalNodes>
      <leafValues>
        -1.0873118788003922e-01 3.0050238966941833e-01</leafValues></_>
    <_>
      <internalNodes>
        0 -1 80 7.5554531067609787e-03</internalNodes>
      <leafValues>
        -1.0063235461711884e-01 2.9289418458938599e-01</leafValues></_>
    <_>
      <internalNodes>
        0 -1 107877 -5.4356511682271957e-03</internalNodes>
      <leafValues>
        -7.4374830722808838e-01 3.9998337626457214e-02</leafValues></_>
    <_>
      <internalNodes>
        0 -1 59791 4.5624156482517719e-03</internalNodes>
      <leafValues>
        -9.1147303581237793e-02 3.4963011741638184e-01</leafValues></_></weakClassifiers></stage19>
</opencv_storage>
