<?xml version="1.0"?>
<opencv_storage>
<stage2>
  <maxWeakCount>14</maxWeakCount>
  <stageThreshold>-1.5354455709457397e+00</stageThreshold>
  <weakClassifiers>
    <_>
      <internalNodes>
        0 -1 109816 -4.4168304651975632e-02</internalNodes>
      <leafValues>
        3.9007091522216797e-01 -5.0082099437713623e-01</leafValues></_>
    <_>
      <internalNodes>
        0 -1 83153 -4.7445250675082207e-03</internalNodes>
      <leafValues>
        6.3656520843505859e-01 -1.8601500988006592e-01</leafValues></_>
    <_>
      <internalNodes>
        0 -1 83158 2.6488250587135553e-03</internalNodes>
      <leafValues>
        -2.9098674654960632e-01 5.0858128070831299e-01</leafValues></_>
    <_>
      <internalNodes>
        0 -1 56480 -1.1317580938339233e-01</internalNodes>
      <leafValues>
        -7.7155506610870361e-01 1.7170438170433044e-01</leafValues></_>
    <_>
      <internalNodes>
        0 -1 1856 1.9186586141586304e-02</internalNodes>
      <leafValues>
        -1.9005072116851807e-01 5.4781037569046021e-01</leafValues></_>
    <_>
      <internalNodes>
        0 -1 110489 1.9352013245224953e-02</internalNodes>
      <leafValues>
        -2.1722407639026642e-01 4.8999729752540588e-01</leafValues></_>
    <_>
      <internalNodes>
        0 -1 50719 6.9372683763504028e-02</internalNodes>
      <leafValues>
        1.5781056880950928e-01 -7.0192152261734009e-01</leafValues></_>
    <_>
      <internalNodes>
        0 -1 87849 3.0083060264587402e-03</internalNodes>
      <leafValues>
        -2.4021394550800323e-01 4.7555711865425110e-01</leafValues></_>
    <_>
      <internalNodes>
        0 -1 91806 5.4549062624573708e-03</internalNodes>
      <leafValues>
        -1.5746976435184479e-01 5.8944094181060791e-01</leafValues></_>
    <_>
      <internalNodes>
        0 -1 94963 8.2554435357451439e-03</internalNodes>
      <leafValues>
        -1.8427479267120361e-01 5.8586400747299194e-01</leafValues></_>
    <_>
      <internalNodes>
        0 -1 33850 -6.5955519676208496e-02</internalNodes>
      <leafValues>
        6.4066308736801147e-01 -1.2164664268493652e-01</leafValues></_>
    <_>
      <internalNodes>
        0 -1 41385 1.8155360594391823e-02</internalNodes>
      <leafValues>
        -1.8762883543968201e-01 5.3727549314498901e-01</leafValues></_>
    <_>
      <internalNodes>
        0 -1 23922 2.3488104343414307e-02</internalNodes>
      <leafValues>
        -1.4436614513397217e-01 5.9176182746887207e-01</leafValues></_>
    <_>
      <internalNodes>
        0 -1 98959 6.3847815617918968e-03</internalNodes>
      <leafValues>
        -1.8212389945983887e-01 4.7141832113265991e-01</leafValues></_></weakClassifiers></stage2>
</opencv_storage>
