<?xml version="1.0"?>
<opencv_storage>
<stage5>
  <maxWeakCount>19</maxWeakCount>
  <stageThreshold>-1.3492151498794556e+00</stageThreshold>
  <weakClassifiers>
    <_>
      <internalNodes>
        0 -1 33884 1.0381823778152466e-01</internalNodes>
      <leafValues>
        -4.6572104096412659e-01 3.9393940567970276e-01</leafValues></_>
    <_>
      <internalNodes>
        0 -1 1858 3.8097441196441650e-02</internalNodes>
      <leafValues>
        -1.8056908249855042e-01 5.2690583467483521e-01</leafValues></_>
    <_>
      <internalNodes>
        0 -1 20235 -1.1942544579505920e-01</internalNodes>
      <leafValues>
        4.6819725632667542e-01 -1.8364477157592773e-01</leafValues></_>
    <_>
      <internalNodes>
        0 -1 79537 -5.5868097115308046e-04</internalNodes>
      <leafValues>
        -4.6865063905715942e-01 2.0167925953865051e-01</leafValues></_>
    <_>
      <internalNodes>
        0 -1 95842 -2.6649814099073410e-03</internalNodes>
      <leafValues>
        5.5152213573455811e-01 -1.5372663736343384e-01</leafValues></_>
    <_>
      <internalNodes>
        0 -1 95220 1.0811852291226387e-02</internalNodes>
      <leafValues>
        -1.8827782571315765e-01 5.7200145721435547e-01</leafValues></_>
    <_>
      <internalNodes>
        0 -1 88574 -5.5324494838714600e-02</internalNodes>
      <leafValues>
        6.8021023273468018e-01 -9.2280030250549316e-02</leafValues></_>
    <_>
      <internalNodes>
        0 -1 79484 1.1695876717567444e-02</internalNodes>
      <leafValues>
        -1.5539957582950592e-01 5.1108646392822266e-01</leafValues></_>
    <_>
      <internalNodes>
        0 -1 78576 4.1325651109218597e-02</internalNodes>
      <leafValues>
        1.2570932507514954e-01 -8.1207472085952759e-01</leafValues></_>
    <_>
      <internalNodes>
        0 -1 54393 5.7705515064299107e-03</internalNodes>
      <leafValues>
        -1.7789460718631744e-01 4.6737015247344971e-01</leafValues></_>
    <_>
      <internalNodes>
        0 -1 79376 -2.7271941304206848e-02</internalNodes>
      <leafValues>
        -6.7506206035614014e-01 1.1163210868835449e-01</leafValues></_>
    <_>
      <internalNodes>
        0 -1 6481 1.3217481318861246e-03</internalNodes>
      <leafValues>
        9.5520809292793274e-02 -8.2589739561080933e-01</leafValues></_>
    <_>
      <internalNodes>
        0 -1 88080 5.4228715598583221e-03</internalNodes>
      <leafValues>
        -1.7533080279827118e-01 5.1714915037155151e-01</leafValues></_>
    <_>
      <internalNodes>
        0 -1 91582 9.0442299842834473e-03</internalNodes>
      <leafValues>
        -1.7424245178699493e-01 5.0425654649734497e-01</leafValues></_>
    <_>
      <internalNodes>
        0 -1 6955 -5.8205483946949244e-04</internalNodes>
      <leafValues>
        -4.5926129817962646e-01 1.8300671875476837e-01</leafValues></_>
    <_>
      <internalNodes>
        0 -1 778 5.6197799742221832e-02</internalNodes>
      <leafValues>
        -1.2139681726694107e-01 6.8173480033874512e-01</leafValues></_>
    <_>
      <internalNodes>
        0 -1 82357 1.5342647209763527e-02</internalNodes>
      <leafValues>
        -1.2172479182481766e-01 6.7272132635116577e-01</leafValues></_>
    <_>
      <internalNodes>
        0 -1 6955 1.4726882800459862e-03</internalNodes>
      <leafValues>
        1.4181834459304810e-01 -6.6633886098861694e-01</leafValues></_>
    <_>
      <internalNodes>
        0 -1 26987 -9.2463575303554535e-02</internalNodes>
      <leafValues>
        -7.2221487760543823e-01 9.1262400150299072e-02</leafValues></_></weakClassifiers></stage5>
</opencv_storage>
