<?xml version="1.0"?>
<opencv_storage>
<stage9>
  <maxWeakCount>24</maxWeakCount>
  <stageThreshold>-1.1791180372238159e+00</stageThreshold>
  <weakClassifiers>
    <_>
      <internalNodes>
        0 -1 4761 1.4261221513152122e-02</internalNodes>
      <leafValues>
        -4.1785445809364319e-01 3.4131735563278198e-01</leafValues></_>
    <_>
      <internalNodes>
        0 -1 46593 -1.4956014230847359e-02</internalNodes>
      <leafValues>
        6.0915273427963257e-01 -1.1604782193899155e-01</leafValues></_>
    <_>
      <internalNodes>
        0 -1 46588 8.7903384119272232e-03</internalNodes>
      <leafValues>
        -1.0279697179794312e-01 5.6820249557495117e-01</leafValues></_>
    <_>
      <internalNodes>
        0 -1 90573 2.5341466069221497e-02</internalNodes>
      <leafValues>
        8.1554375588893890e-02 -6.8750017881393433e-01</leafValues></_>
    <_>
      <internalNodes>
        0 -1 27170 5.7272471487522125e-02</internalNodes>
      <leafValues>
        -9.7987636923789978e-02 4.3666929006576538e-01</leafValues></_>
    <_>
      <internalNodes>
        0 -1 99915 2.9665222391486168e-02</internalNodes>
      <leafValues>
        -1.4651867747306824e-01 3.6894002556800842e-01</leafValues></_>
    <_>
      <internalNodes>
        0 -1 102225 7.6733734458684921e-03</internalNodes>
      <leafValues>
        -9.7748629748821259e-02 5.6711000204086304e-01</leafValues></_>
    <_>
      <internalNodes>
        0 -1 98959 5.2752019837498665e-03</internalNodes>
      <leafValues>
        -1.8396843969821930e-01 3.9521476626396179e-01</leafValues></_>
    <_>
      <internalNodes>
        0 -1 112821 -9.8735815845429897e-04</internalNodes>
      <leafValues>
        -4.5668730139732361e-01 1.1675641685724258e-01</leafValues></_>
    <_>
      <internalNodes>
        0 -1 112561 4.0948120877146721e-03</internalNodes>
      <leafValues>
        9.2382431030273438e-02 -7.6675254106521606e-01</leafValues></_>
    <_>
      <internalNodes>
        0 -1 95857 5.2477396093308926e-03</internalNodes>
      <leafValues>
        -1.7834290862083435e-01 3.7729302048683167e-01</leafValues></_>
    <_>
      <internalNodes>
        0 -1 91992 4.6285456046462059e-03</internalNodes>
      <leafValues>
        -9.1980427503585815e-02 6.4022469520568848e-01</leafValues></_>
    <_>
      <internalNodes>
        0 -1 7804 -1.1954004876315594e-03</internalNodes>
      <leafValues>
        -6.1345607042312622e-01 1.0524085909128189e-01</leafValues></_>
    <_>
      <internalNodes>
        0 -1 96 2.4548320099711418e-02</internalNodes>
      <leafValues>
        -1.5131634473800659e-01 3.8293793797492981e-01</leafValues></_>
    <_>
      <internalNodes>
        0 -1 68495 5.3448406979441643e-03</internalNodes>
      <leafValues>
        -1.4537444710731506e-01 3.7923115491867065e-01</leafValues></_>
    <_>
      <internalNodes>
        0 -1 87347 4.7698821872472763e-03</internalNodes>
      <leafValues>
        -1.4998920261859894e-01 3.9182743430137634e-01</leafValues></_>
    <_>
      <internalNodes>
        0 -1 87618 -3.7616880144923925e-03</internalNodes>
      <leafValues>
        3.6741304397583008e-01 -1.6755433380603790e-01</leafValues></_>
    <_>
      <internalNodes>
        0 -1 94116 1.1680853553116322e-02</internalNodes>
      <leafValues>
        6.8921409547328949e-02 -8.6990028619766235e-01</leafValues></_>
    <_>
      <internalNodes>
        0 -1 27091 1.1236498504877090e-01</internalNodes>
      <leafValues>
        -1.0238644480705261e-01 6.0402297973632813e-01</leafValues></_>
    <_>
      <internalNodes>
        0 -1 55937 9.9320430308580399e-03</internalNodes>
      <leafValues>
        -1.4042632281780243e-01 4.1430038213729858e-01</leafValues></_>
    <_>
      <internalNodes>
        0 -1 96798 -1.0618097148835659e-03</internalNodes>
      <leafValues>
        -5.2826803922653198e-01 1.0857492685317993e-01</leafValues></_>
    <_>
      <internalNodes>
        0 -1 35093 3.8491957820951939e-03</internalNodes>
      <leafValues>
        -2.1873293817043304e-01 2.8302431106567383e-01</leafValues></_>
    <_>
      <internalNodes>
        0 -1 69757 3.4105353057384491e-02</internalNodes>
      <leafValues>
        7.0153154432773590e-02 -8.1964403390884399e-01</leafValues></_>
    <_>
      <internalNodes>
        0 -1 5434 -2.9949154704809189e-02</internalNodes>
      <leafValues>
        5.7052952051162720e-01 -1.2164617329835892e-01</leafValues></_></weakClassifiers></stage9>
</opencv_storage>
